FANN_FLO_2.1
num_layers=3
learning_rate=0.700000
connection_rate=1.000000
network_type=0
learning_momentum=0.000000
training_algorithm=2
train_error_function=1
train_stop_function=0
cascade_output_change_fraction=0.010000
quickprop_decay=-0.000100
quickprop_mu=1.750000
rprop_increase_factor=1.200000
rprop_decrease_factor=0.500000
rprop_delta_min=0.000000
rprop_delta_max=50.000000
rprop_delta_zero=0.100000
cascade_output_stagnation_epochs=12
cascade_candidate_change_fraction=0.010000
cascade_candidate_stagnation_epochs=12
cascade_max_out_epochs=150
cascade_min_out_epochs=50
cascade_max_cand_epochs=150
cascade_min_cand_epochs=50
cascade_num_candidate_groups=2
bit_fail_limit=3.49999994039535522461e-01
cascade_candidate_limit=1.00000000000000000000e+03
cascade_weight_multiplier=4.00000005960464477539e-01
cascade_activation_functions_count=10
cascade_activation_functions=3 5 7 8 10 11 14 15 16 17 
cascade_activation_steepnesses_count=4
cascade_activation_steepnesses=2.50000000000000000000e-01 5.00000000000000000000e-01 7.50000000000000000000e-01 1.00000000000000000000e+00 
layer_sizes=28 17 27 
scale_included=0
neurons (num_inputs, activation_function, activation_steepness)=(0, 0, 0.00000000000000000000e+00) (0, 0, 0.00000000000000000000e+00) (0, 0, 0.00000000000000000000e+00) (0, 0, 0.00000000000000000000e+00) (0, 0, 0.00000000000000000000e+00) (0, 0, 0.00000000000000000000e+00) (0, 0, 0.00000000000000000000e+00) (0, 0, 0.00000000000000000000e+00) (0, 0, 0.00000000000000000000e+00) (0, 0, 0.00000000000000000000e+00) (0, 0, 0.00000000000000000000e+00) (0, 0, 0.00000000000000000000e+00) (0, 0, 0.00000000000000000000e+00) (0, 0, 0.00000000000000000000e+00) (0, 0, 0.00000000000000000000e+00) (0, 0, 0.00000000000000000000e+00) (0, 0, 0.00000000000000000000e+00) (0, 0, 0.00000000000000000000e+00) (0, 0, 0.00000000000000000000e+00) (0, 0, 0.00000000000000000000e+00) (0, 0, 0.00000000000000000000e+00) (0, 0, 0.00000000000000000000e+00) (0, 0, 0.00000000000000000000e+00) (0, 0, 0.00000000000000000000e+00) (0, 0, 0.00000000000000000000e+00) (0, 0, 0.00000000000000000000e+00) (0, 0, 0.00000000000000000000e+00) (0, 0, 0.00000000000000000000e+00) (28, 5, 5.00000000000000000000e-01) (28, 5, 5.00000000000000000000e-01) (28, 5, 5.00000000000000000000e-01) (28, 5, 5.00000000000000000000e-01) (28, 5, 5.00000000000000000000e-01) (28, 5, 5.00000000000000000000e-01) (28, 5, 5.00000000000000000000e-01) (28, 5, 5.00000000000000000000e-01) (28, 5, 5.00000000000000000000e-01) (28, 5, 5.00000000000000000000e-01) (28, 5, 5.00000000000000000000e-01) (28, 5, 5.00000000000000000000e-01) (28, 5, 5.00000000000000000000e-01) (28, 5, 5.00000000000000000000e-01) (28, 5, 5.00000000000000000000e-01) (28, 5, 5.00000000000000000000e-01) (0, 5, 0.00000000000000000000e+00) (17, 5, 5.00000000000000000000e-01) (17, 5, 5.00000000000000000000e-01) (17, 5, 5.00000000000000000000e-01) (17, 5, 5.00000000000000000000e-01) (17, 5, 5.00000000000000000000e-01) (17, 5, 5.00000000000000000000e-01) (17, 5, 5.00000000000000000000e-01) (17, 5, 5.00000000000000000000e-01) (17, 5, 5.00000000000000000000e-01) (17, 5, 5.00000000000000000000e-01) (17, 5, 5.00000000000000000000e-01) (17, 5, 5.00000000000000000000e-01) (17, 5, 5.00000000000000000000e-01) (17, 5, 5.00000000000000000000e-01) (17, 5, 5.00000000000000000000e-01) (17, 5, 5.00000000000000000000e-01) (17, 5, 5.00000000000000000000e-01) (17, 5, 5.00000000000000000000e-01) (17, 5, 5.00000000000000000000e-01) (17, 5, 5.00000000000000000000e-01) (17, 5, 5.00000000000000000000e-01) (17, 5, 5.00000000000000000000e-01) (17, 5, 5.00000000000000000000e-01) (17, 5, 5.00000000000000000000e-01) (17, 5, 5.00000000000000000000e-01) (17, 5, 5.00000000000000000000e-01) (0, 5, 0.00000000000000000000e+00) 
connections (connected_to_neuron, weight)=(0, 5.39776849746704101562e+00) (1, 1.48584667968750000000e+03) (2, 1.44532641601562500000e+03) (3, -1.46897009277343750000e+03) (4, 1.49999597167968750000e+03) (5, -2.37393081665039062500e+02) (6, -2.13555923461914062500e+02) (7, 1.37814868164062500000e+03) (8, 1.75771255493164062500e+02) (9, -1.49947424316406250000e+03) (10, 1.50000000000000000000e+03) (11, 1.49985375976562500000e+03) (12, 1.49761816406250000000e+03) (13, -1.46543029785156250000e+03) (14, -1.49994787597656250000e+03) (15, 1.49999951171875000000e+03) (16, 1.50000000000000000000e+03) (17, 8.87501464843750000000e+02) (18, 1.50000000000000000000e+03) (19, 1.49999475097656250000e+03) (20, 1.50000000000000000000e+03) (21, 1.49871142578125000000e+03) (22, 1.50000000000000000000e+03) (23, 1.43324462890625000000e+03) (24, -1.49170776367187500000e+03) (25, -1.46336718750000000000e+03) (26, 1.49547045898437500000e+03) (27, -1.50000000000000000000e+03) (0, 1.98019397258758544922e+00) (1, 5.41661143302917480469e-01) (2, 4.19842684641480445862e-03) (3, 1.50038087368011474609e+00) (4, -3.88002574443817138672e-01) (5, -4.89242374897003173828e-01) (6, -8.11410665512084960938e-01) (7, -6.51955008506774902344e-01) (8, 7.43621766567230224609e-01) (9, -4.69407916069030761719e-01) (10, 1.43022489547729492188e+00) (11, 5.97243547439575195312e-01) (12, 1.18363022804260253906e+00) (13, 6.11090399324893951416e-02) (14, -6.17688238620758056641e-01) (15, 1.05106808245182037354e-01) (16, -6.41315937042236328125e-01) (17, 9.03380960226058959961e-02) (18, 4.61883783340454101562e-01) (19, 9.34335291385650634766e-02) (20, 1.90493240952491760254e-01) (21, -5.94030857086181640625e-01) (22, -1.69231425970792770386e-02) (23, 4.04016405344009399414e-01) (24, -3.62622320652008056641e-01) (25, -1.69214451313018798828e+00) (26, 2.75940567255020141602e-01) (27, 2.21627891063690185547e-01) (0, -1.28351256716996431351e-03) (1, -2.65360444784164428711e-01) (2, -1.90955579280853271484e-01) (3, -3.11214506626129150391e-01) (4, 9.33075845241546630859e-02) (5, -3.04507881402969360352e-01) (6, 2.46619284152984619141e-01) (7, 4.52518351376056671143e-02) (8, 2.20359712839126586914e-01) (9, -3.91539484262466430664e-02) (10, -2.60432213544845581055e-02) (11, -9.65448766946792602539e-02) (12, 9.09449979662895202637e-02) (13, 1.17000356316566467285e-01) (14, 3.31833869218826293945e-01) (15, -2.80426174402236938477e-01) (16, 4.57581937313079833984e-01) (17, 1.44633114337921142578e-01) (18, 1.03664077818393707275e-01) (19, 4.42744046449661254883e-01) (20, -3.09680521488189697266e-01) (21, 5.83651185035705566406e-01) (22, -1.60414934158325195312e-01) (23, 5.33108651638031005859e-01) (24, -2.42189615964889526367e-01) (25, 2.96026766300201416016e-01) (26, -1.38770878314971923828e-01) (27, 5.28219938278198242188e-01) (0, -5.45428419113159179688e+00) (1, 1.49776831054687500000e+03) (2, 1.40449243164062500000e+03) (3, -1.26319079589843750000e+03) (4, 1.49999597167968750000e+03) (5, -1.19440643310546875000e+02) (6, 1.67310119628906250000e+02) (7, 1.37158630371093750000e+03) (8, 7.40846557617187500000e+01) (9, -1.49947424316406250000e+03) (10, 1.50000000000000000000e+03) (11, 1.49987768554687500000e+03) (12, 1.49761816406250000000e+03) (13, -1.49997912597656250000e+03) (14, -1.49994787597656250000e+03) (15, 1.49999951171875000000e+03) (16, 1.50000000000000000000e+03) (17, 8.87501464843750000000e+02) (18, 1.50000000000000000000e+03) (19, 1.49998583984375000000e+03) (20, 1.50000000000000000000e+03) (21, 1.49683508300781250000e+03) (22, 1.50000000000000000000e+03) (23, 1.43324462890625000000e+03) (24, -1.49170776367187500000e+03) (25, -1.46336718750000000000e+03) (26, 1.49547045898437500000e+03) (27, -1.50000000000000000000e+03) (0, 6.58939123153686523438e-01) (1, -2.08674654364585876465e-01) (2, 1.60900294780731201172e-01) (3, 2.28357259184122085571e-02) (4, 2.84118711948394775391e-01) (5, 5.24317510426044464111e-02) (6, 1.58420428633689880371e-01) (7, 3.48790138959884643555e-01) (8, -8.03698599338531494141e-02) (9, 3.15787255764007568359e-01) (10, 8.32284241914749145508e-02) (11, -3.74814391136169433594e-01) (12, 6.12259581685066223145e-02) (13, 3.47257733345031738281e-01) (14, 9.59796383976936340332e-02) (15, -1.62324532866477966309e-01) (16, 2.94656231999397277832e-02) (17, -3.24285663664340972900e-02) (18, 8.16203579306602478027e-02) (19, 4.68242494389414787292e-03) (20, -9.95326638221740722656e-02) (21, 2.55879968404769897461e-01) (22, 2.03825518488883972168e-01) (23, -7.49732777476310729980e-02) (24, 4.40425813198089599609e-01) (25, -5.44018208980560302734e-01) (26, -2.73054569959640502930e-01) (27, 8.64815235137939453125e-01) (0, 5.75062465667724609375e+00) (1, 1.49776770019531250000e+03) (2, 1.46561120605468750000e+03) (3, -1.37706115722656250000e+03) (4, 1.49993737792968750000e+03) (5, -3.72294708251953125000e+02) (6, 1.67310119628906250000e+02) (7, 1.36444726562500000000e+03) (8, 5.01447486877441406250e+00) (9, -1.49948449707031250000e+03) (10, 1.50000000000000000000e+03) (11, 1.49995739746093750000e+03) (12, 1.49761816406250000000e+03) (13, -1.49997912597656250000e+03) (14, -1.49970007324218750000e+03) (15, 1.49999951171875000000e+03) (16, 1.50000000000000000000e+03) (17, 8.26758544921875000000e+02) (18, 1.50000000000000000000e+03) (19, 1.49999340820312500000e+03) (20, 1.50000000000000000000e+03) (21, 1.49287963867187500000e+03) (22, 1.50000000000000000000e+03) (23, 1.43730664062500000000e+03) (24, -1.49170776367187500000e+03) (25, -1.49732775878906250000e+03) (26, 1.49547045898437500000e+03) (27, -1.50000000000000000000e+03) (0, -2.88245558738708496094e+00) (1, 1.49776770019531250000e+03) (2, 1.46604504394531250000e+03) (3, -1.46896765136718750000e+03) (4, 1.49996166992187500000e+03) (5, -8.24199905395507812500e+01) (6, 1.67310119628906250000e+02) (7, 1.44351696777343750000e+03) (8, 9.75611495971679687500e+01) (9, -1.49947424316406250000e+03) (10, 1.50000000000000000000e+03) (11, 1.49985412597656250000e+03) (12, 1.49761816406250000000e+03) (13, -1.49997912597656250000e+03) (14, -1.49994787597656250000e+03) (15, 1.49999951171875000000e+03) (16, 1.50000000000000000000e+03) (17, 7.10958496093750000000e+02) (18, 1.50000000000000000000e+03) (19, 1.49999475097656250000e+03) (20, 1.50000000000000000000e+03) (21, 1.49871057128906250000e+03) (22, 1.50000000000000000000e+03) (23, 1.43324462890625000000e+03) (24, -1.49170776367187500000e+03) (25, -1.46336987304687500000e+03) (26, 1.49547045898437500000e+03) (27, -1.50000000000000000000e+03) (0, -5.30707955360412597656e-01) (1, 3.35325896739959716797e-01) (2, 2.24430665373802185059e-01) (3, 3.37141424417495727539e-01) (4, -2.02038079500198364258e-01) (5, -1.27760186791419982910e-01) (6, -3.78712937235832214355e-02) (7, -7.51030623912811279297e-01) (8, 1.16140685975551605225e-01) (9, -8.56978893280029296875e-01) (10, -1.24170348048210144043e-01) (11, -3.31917762756347656250e-01) (12, 4.56903651356697082520e-02) (13, 1.00133788585662841797e+00) (14, 1.26779139041900634766e-01) (15, 2.34954476356506347656e-01) (16, 1.37808740139007568359e-01) (17, -3.29940915107727050781e-01) (18, 1.81745104491710662842e-02) (19, -4.50370222330093383789e-01) (20, 2.55035400390625000000e-01) (21, -1.11630327999591827393e-01) (22, -3.58119934797286987305e-01) (23, 6.13180041313171386719e-01) (24, -8.05859267711639404297e-02) (25, 5.15418350696563720703e-01) (26, -1.87864914536476135254e-01) (27, 7.44174480438232421875e-01) (0, -8.86600911617279052734e-01) (1, -4.03398536145687103271e-02) (2, 3.11559408903121948242e-01) (3, 8.06769490242004394531e-01) (4, -2.23483443260192871094e-01) (5, 1.02598977088928222656e+00) (6, -1.18338775634765625000e+00) (7, 4.72387194633483886719e-01) (8, -3.56934010982513427734e-01) (9, 2.10541449487209320068e-02) (10, 4.70767468214035034180e-01) (11, -3.38820189237594604492e-01) (12, 8.42217743396759033203e-01) (13, -2.03932553529739379883e-01) (14, 9.32259380817413330078e-01) (15, -3.90115141868591308594e-01) (16, 3.06832075119018554688e-01) (17, -2.41570100188255310059e-01) (18, 3.17403763532638549805e-01) (19, -7.96229913830757141113e-02) (20, -9.65733360499143600464e-03) (21, -1.12014688551425933838e-01) (22, -7.33029127120971679688e-01) (23, -2.76636898517608642578e-01) (24, -4.87127542495727539062e-01) (25, -3.60982418060302734375e-01) (26, 2.35002320259809494019e-02) (27, 5.30241906642913818359e-01) (0, -1.91412603855133056641e+00) (1, -1.38264524936676025391e+00) (2, 3.80781745910644531250e+00) (3, 8.48651468753814697266e-01) (4, 4.28851515054702758789e-01) (5, 6.75850391387939453125e-01) (6, 2.06537973135709762573e-02) (7, -2.56300711631774902344e+00) (8, -5.10215125977993011475e-02) (9, 1.74392163753509521484e-01) (10, 3.53585183620452880859e-01) (11, 8.70257496833801269531e-01) (12, 8.05536568164825439453e-01) (13, -1.85419249534606933594e+00) (14, -7.77942180633544921875e-01) (15, 7.11224138736724853516e-01) (16, -3.23223114013671875000e-01) (17, -1.65192782878875732422e+00) (18, 7.94249355792999267578e-01) (19, -8.24250578880310058594e-02) (20, 3.36053085327148437500e+00) (21, -1.62746608257293701172e+00) (22, 3.46368223428726196289e-01) (23, 3.15167129039764404297e-01) (24, -1.49101793766021728516e+00) (25, 1.30931997299194335938e+00) (26, 1.00969696044921875000e+00) (27, 7.65307903289794921875e-01) (0, 1.07530820369720458984e+00) (1, 5.58432400226593017578e-01) (2, 1.19783589616417884827e-02) (3, 2.22893923521041870117e-01) (4, 1.05999425053596496582e-01) (5, -1.61455005407333374023e-01) (6, -6.70043230056762695312e-02) (7, -8.30726176500320434570e-02) (8, -4.50756758451461791992e-01) (9, 2.00305968523025512695e-01) (10, 1.46710991859436035156e-01) (11, 1.01868823170661926270e-01) (12, 5.59445619583129882812e-01) (13, -3.34634594619274139404e-02) (14, -7.48254954814910888672e-02) (15, -7.96539187431335449219e-02) (16, 1.96969494223594665527e-01) (17, 8.86403694748878479004e-02) (18, 8.83099198341369628906e-01) (19, 2.05102771520614624023e-01) (20, 8.67628335952758789062e-01) (21, -1.01386286318302154541e-01) (22, 1.85161590576171875000e-01) (23, -4.33247268199920654297e-01) (24, -2.50035617500543594360e-02) (25, -1.15474341437220573425e-02) (26, -9.22905504703521728516e-01) (27, 6.74410045146942138672e-01) (0, 2.70778298377990722656e+00) (1, -1.85246124863624572754e-01) (2, 5.01285696029663085938e+00) (3, -5.54936051368713378906e-01) (4, 4.68660414218902587891e-01) (5, -5.63713133335113525391e-01) (6, 6.77704691886901855469e-01) (7, -1.58628061413764953613e-01) (8, -1.73085355758666992188e+00) (9, 5.00773608684539794922e-01) (10, -1.02091789245605468750e+00) (11, -1.54573535919189453125e+00) (12, 7.50624299049377441406e-01) (13, 1.89508616924285888672e-01) (14, 6.40633881092071533203e-01) (15, -1.33141255378723144531e+00) (16, 3.44533145427703857422e-01) (17, -1.43328893184661865234e+00) (18, 4.33966279029846191406e-01) (19, -6.41815245151519775391e-01) (20, 3.18374991416931152344e-01) (21, 5.15774965286254882812e-01) (22, -1.40291064977645874023e-01) (23, -1.17946326732635498047e+00) (24, 7.57526397705078125000e-01) (25, -6.46962260361760854721e-04) (26, 9.36147332191467285156e-01) (27, 1.09944880008697509766e-01) (0, 4.57851201295852661133e-01) (1, 3.76691401004791259766e-01) (2, -2.29952573776245117188e-01) (3, 4.72793817520141601562e-01) (4, -6.92802727222442626953e-01) (5, 2.46654763817787170410e-01) (6, 4.89276051521301269531e-02) (7, -3.35380919277667999268e-02) (8, 2.82199651002883911133e-01) (9, -1.84602633118629455566e-01) (10, -1.60946305841207504272e-02) (11, -5.06405606865882873535e-02) (12, 1.18635848164558410645e-01) (13, -8.73953342437744140625e-01) (14, -1.12920723855495452881e-01) (15, -3.25359135866165161133e-01) (16, 7.27459937334060668945e-02) (17, 1.37510240077972412109e-01) (18, -1.96501329541206359863e-01) (19, 3.13728481531143188477e-01) (20, -4.66241031885147094727e-01) (21, 1.44255757331848144531e-01) (22, -1.00914157927036285400e-01) (23, 1.80208206176757812500e-01) (24, 2.96687275171279907227e-01) (25, -3.41836690902709960938e-01) (26, 1.84447824954986572266e-01) (27, 1.43127918243408203125e-01) (0, 1.03938174247741699219e+00) (1, 4.71219629049301147461e-01) (2, -1.88691735267639160156e-01) (3, -5.59899695217609405518e-02) (4, -2.85800099372863769531e-01) (5, -1.01861488819122314453e+00) (6, -3.88257205486297607422e-01) (7, -6.06342375278472900391e-01) (8, -8.92665207386016845703e-01) (9, -8.65148231387138366699e-02) (10, -2.37101092934608459473e-01) (11, -4.08795237541198730469e-01) (12, 1.17849493026733398438e+00) (13, -3.02646279335021972656e-01) (14, 2.75166779756546020508e-01) (15, -1.00940883159637451172e+00) (16, -3.34129005670547485352e-01) (17, -7.96406149864196777344e-01) (18, -6.18663504719734191895e-02) (19, -3.46799045801162719727e-01) (20, 9.74991321563720703125e-02) (21, 5.53504824638366699219e-02) (22, 7.64771699905395507812e-01) (23, 7.95004367828369140625e-01) (24, 1.30806815624237060547e+00) (25, 1.50528341531753540039e-01) (26, 2.49880954623222351074e-01) (27, 6.73982560634613037109e-01) (0, -7.66425418853759765625e+00) (1, 1.43210473632812500000e+03) (2, 1.44087609863281250000e+03) (3, -1.25078747558593750000e+03) (4, 1.49848803710937500000e+03) (5, -1.19918594360351562500e+02) (6, -1.76437911987304687500e+02) (7, 1.46957714843750000000e+03) (8, 1.02067181396484375000e+03) (9, -1.49947351074218750000e+03) (10, 1.50000000000000000000e+03) (11, 1.49950268554687500000e+03) (12, 1.49766613769531250000e+03) (13, -1.46310986328125000000e+03) (14, -1.49997827148437500000e+03) (15, 1.49999951171875000000e+03) (16, 1.50000000000000000000e+03) (17, 2.85763366699218750000e+02) (18, 1.50000000000000000000e+03) (19, 1.49996984863281250000e+03) (20, 1.50000000000000000000e+03) (21, 1.49812585449218750000e+03) (22, 1.50000000000000000000e+03) (23, 1.43324438476562500000e+03) (24, -1.49779040527343750000e+03) (25, -1.46336682128906250000e+03) (26, 1.49547045898437500000e+03) (27, -1.50000000000000000000e+03) (0, -5.72315394878387451172e-01) (1, -3.95485907793045043945e-02) (2, -2.23700135946273803711e-01) (3, -2.62390732765197753906e-01) (4, -4.64686572551727294922e-01) (5, 1.28107398748397827148e-01) (6, -8.56436938047409057617e-02) (7, -8.85649956762790679932e-03) (8, -2.43809044361114501953e-01) (9, -5.14096952974796295166e-03) (10, -1.58573269844055175781e-01) (11, 1.54791712760925292969e-01) (12, -1.68785169720649719238e-01) (13, -1.06619603931903839111e-01) (14, 4.20996308326721191406e-01) (15, 2.06938963383436203003e-02) (16, 2.67495483160018920898e-01) (17, 2.39716842770576477051e-01) (18, 1.62685036659240722656e-01) (19, -3.79245020449161529541e-02) (20, 5.73629796504974365234e-01) (21, -5.37054762244224548340e-02) (22, 4.99745488166809082031e-01) (23, 4.36705686151981353760e-02) (24, 6.08443796634674072266e-01) (25, 1.45235359668731689453e-01) (26, 4.57833081483840942383e-01) (27, 4.91575390100479125977e-01) (28, 3.42253494262695312500e+00) (29, 1.33993654251098632812e+01) (30, -3.89201593399047851562e+00) (31, 3.36967253684997558594e+00) (32, -2.55727653503417968750e+01) (33, 3.33114099502563476562e+00) (34, 3.38293480873107910156e+00) (35, -8.18678855895996093750e+00) (36, -1.08529889583587646484e+00) (37, -4.13727760314941406250e+00) (38, -2.58354721069335937500e+01) (39, 1.70698184967041015625e+01) (40, -4.47695821523666381836e-01) (41, -5.48580884933471679688e-01) (42, 3.46813464164733886719e+00) (43, -2.56853246688842773438e+00) (44, -2.03013849258422851562e+00) (28, 6.67250204086303710938e+00) (29, 1.52281007766723632812e+01) (30, -4.63847446441650390625e+00) (31, 6.66599225997924804688e+00) (32, -5.53255424499511718750e+01) (33, 6.63700246810913085938e+00) (34, 6.63488578796386718750e+00) (35, 1.30138273239135742188e+01) (36, -2.25550460815429687500e+00) (37, 1.01062955856323242188e+01) (38, 1.58998947143554687500e+01) (39, 9.49074983596801757812e-01) (40, 4.25799102783203125000e+01) (41, -9.51105022430419921875e+00) (42, 6.72384309768676757812e+00) (43, -1.56325066089630126953e+00) (44, -4.34651327133178710938e+00) (28, 2.47406697273254394531e+00) (29, 3.81925225257873535156e+00) (30, 2.87752151489257812500e+01) (31, 2.32871794700622558594e+00) (32, 5.73609199523925781250e+01) (33, 2.46333432197570800781e+00) (34, 2.32259726524353027344e+00) (35, -1.59715518951416015625e+01) (36, -1.65672028064727783203e+00) (37, 4.20244865417480468750e+01) (38, 2.17171758413314819336e-01) (39, -2.47957401275634765625e+01) (40, -3.46473770141601562500e+01) (41, -1.21463871002197265625e+01) (42, 2.48173236846923828125e+00) (43, -5.17692909240722656250e+01) (44, -3.86186152696609497070e-01) (28, 6.94147348403930664062e-01) (29, 1.97887001037597656250e+01) (30, -1.44590549468994140625e+01) (31, 7.52212226390838623047e-01) (32, 2.25509147644042968750e+01) (33, 7.34465956687927246094e-01) (34, 7.63682365417480468750e-01) (35, 1.83790588378906250000e+01) (36, 9.93814277648925781250e+00) (37, -1.36779499053955078125e+00) (38, 4.52692556381225585938e+00) (39, 1.06469964981079101562e+00) (40, 7.34697628021240234375e+00) (41, -3.99058265686035156250e+01) (42, 7.22670972347259521484e-01) (43, 9.03317832946777343750e+00) (44, -5.14199770987033843994e-02) (28, 6.74116134643554687500e-01) (29, -2.77356791496276855469e+00) (30, 2.37207698822021484375e+01) (31, 7.11057722568511962891e-01) (32, -5.37728357315063476562e+00) (33, 6.18234634399414062500e-01) (34, 6.21768236160278320312e-01) (35, -2.79319591522216796875e+01) (36, -6.39494132995605468750e+01) (37, 1.70274281501770019531e+00) (38, 1.26819038391113281250e+00) (39, -7.18977308273315429688e+00) (40, -5.81783409118652343750e+01) (41, -1.36060075759887695312e+01) (42, 5.99955081939697265625e-01) (43, -5.06032884120941162109e-01) (44, -5.20079098641872406006e-02) (28, 4.76948404312133789062e+00) (29, 1.55207519531250000000e+01) (30, -3.48101019859313964844e+00) (31, 4.92426681518554687500e+00) (32, 6.63817930221557617188e+00) (33, 4.76125812530517578125e+00) (34, 4.90407133102416992188e+00) (35, -1.78186473846435546875e+01) (36, 3.17728157043457031250e+01) (37, -2.00500946044921875000e+01) (38, -1.23598594665527343750e+01) (39, 3.32975935935974121094e+00) (40, 1.98968291282653808594e+00) (41, -2.18657417297363281250e+01) (42, 4.75722408294677734375e+00) (43, 3.49359655380249023438e+00) (44, -2.89331126213073730469e+00) (28, 7.21015810966491699219e-01) (29, -7.39740207791328430176e-02) (30, 5.51219511032104492188e+00) (31, 8.25501561164855957031e-01) (32, -2.04556420445442199707e-01) (33, 8.10254931449890136719e-01) (34, 7.45730161666870117188e-01) (35, 2.19810390472412109375e+00) (36, -2.63507099151611328125e+01) (37, -2.29820156097412109375e+00) (38, 7.44820165634155273438e+00) (39, 1.39370698928833007812e+01) (40, 3.05167541503906250000e+01) (41, -6.01673431396484375000e+01) (42, 7.16337978839874267578e-01) (43, -7.73062324523925781250e+00) (44, -1.73599749803543090820e-01) (28, 8.23426067829132080078e-01) (29, -1.83897113800048828125e+00) (30, 1.50254926681518554688e+01) (31, 7.83999621868133544922e-01) (32, 1.26432571411132812500e+01) (33, 6.89365744590759277344e-01) (34, 7.91928648948669433594e-01) (35, -8.34324722290039062500e+01) (36, 4.75548133850097656250e+01) (37, 3.88840484619140625000e+01) (38, 7.01050806045532226562e+00) (39, -1.17199659347534179688e+00) (40, -5.08857727050781250000e-01) (41, 9.42908763885498046875e-01) (42, 7.67482936382293701172e-01) (43, 1.89071580767631530762e-01) (44, -1.54282107949256896973e-01) (28, 8.09367895126342773438e-01) (29, 3.12072238922119140625e+01) (30, 1.62015571594238281250e+01) (31, 8.41582775115966796875e-01) (32, 5.52776956558227539062e+00) (33, 7.79973685741424560547e-01) (34, 8.45576107501983642578e-01) (35, -4.99176561832427978516e-01) (36, 3.96381115913391113281e+00) (37, 2.42761230468750000000e+00) (38, -6.35555410385131835938e+00) (39, -2.05842113494873046875e+01) (40, -2.03259620666503906250e+01) (41, -1.89845867156982421875e+01) (42, 9.43224549293518066406e-01) (43, -5.98918437957763671875e-01) (44, -2.67516791820526123047e-01) (28, 5.90023159980773925781e-01) (29, -1.82061500549316406250e+01) (30, -8.39501476287841796875e+00) (31, 5.42116761207580566406e-01) (32, -4.56673240661621093750e+01) (33, 5.01201212406158447266e-01) (34, 6.41551256179809570312e-01) (35, -6.60514678955078125000e+01) (36, -3.17251873016357421875e+01) (37, 2.46153755187988281250e+01) (38, 3.51843762397766113281e+00) (39, 1.24780607223510742188e+01) (40, 1.15951700210571289062e+01) (41, -1.55762882232666015625e+01) (42, 5.88630914688110351562e-01) (43, 2.25851505994796752930e-01) (44, 7.28344470262527465820e-02) (28, 3.18927168846130371094e+00) (29, 1.30312795639038085938e+01) (30, 1.62651176452636718750e+01) (31, 3.06511402130126953125e+00) (32, 2.83779163360595703125e+01) (33, 3.09559988975524902344e+00) (34, 3.18191695213317871094e+00) (35, -9.66209888458251953125e+00) (36, 1.65237064361572265625e+01) (37, 9.53271675109863281250e+00) (38, 4.42996597290039062500e+00) (39, -1.88726406097412109375e+01) (40, -1.10008373260498046875e+01) (41, 2.26869525909423828125e+01) (42, 3.17664599418640136719e+00) (43, -4.06885206699371337891e-01) (44, -1.85857927799224853516e+00) (28, 2.48409056663513183594e+00) (29, 2.56637725830078125000e+01) (30, 9.65274524688720703125e+00) (31, 2.45327448844909667969e+00) (32, -8.03839492797851562500e+01) (33, 2.45376372337341308594e+00) (34, 2.57511782646179199219e+00) (35, -1.56231975555419921875e+01) (36, 6.86267316341400146484e-01) (37, -3.12378520965576171875e+01) (38, 1.79163761138916015625e+01) (39, -1.59673261642456054688e+00) (40, -6.86529541015625000000e+01) (41, 1.25131905078887939453e+00) (42, 2.63476800918579101562e+00) (43, 3.73768806457519531250e+00) (44, -1.24489045143127441406e+00) (28, 2.25238728523254394531e+00) (29, 1.81838970184326171875e+01) (30, 1.62085704803466796875e+01) (31, 2.23314499855041503906e+00) (32, -2.79658260345458984375e+01) (33, 2.32304573059082031250e+00) (34, 2.21020483970642089844e+00) (35, -1.44709539413452148438e+00) (36, 4.01241950988769531250e+01) (37, -1.42613725662231445312e+01) (38, 1.84823837280273437500e+01) (39, 4.53088808059692382812e+00) (40, -1.92932548522949218750e+01) (41, 2.65743422508239746094e+00) (42, 2.20160055160522460938e+00) (43, 2.23186950683593750000e+01) (44, -1.24134433269500732422e+00) (28, 5.80165863037109375000e-01) (29, 1.52348880767822265625e+01) (30, -6.15686988830566406250e+00) (31, 7.16428995132446289062e-01) (32, -1.50906248092651367188e+01) (33, 7.28796958923339843750e-01) (34, 6.05119585990905761719e-01) (35, 3.07188129425048828125e+01) (36, -4.78149871826171875000e+01) (37, -6.78177058696746826172e-01) (38, -2.58318710327148437500e+00) (39, 2.70417461395263671875e+01) (40, -4.66744270324707031250e+01) (41, -7.20377120971679687500e+01) (42, 5.92379331588745117188e-01) (43, 1.20531785488128662109e+00) (44, -7.84701630473136901855e-02) (28, 3.18447083234786987305e-01) (29, 3.25140625238418579102e-01) (30, 7.39702224731445312500e+01) (31, 3.36133092641830444336e-01) (32, 1.15778694152832031250e+01) (33, 3.89849215745925903320e-01) (34, 3.79499465227127075195e-01) (35, 9.61481988430023193359e-01) (36, 4.26936416625976562500e+01) (37, 8.52023482322692871094e-01) (38, 3.86372238397598266602e-01) (39, 1.59993600845336914062e+01) (40, 2.21773090362548828125e+01) (41, -2.91858844757080078125e+01) (42, 3.86277109384536743164e-01) (43, 1.33282623291015625000e+01) (44, 2.46417820453643798828e-01) (28, 8.86832714080810546875e-01) (29, 1.75743942260742187500e+01) (30, -2.05278835296630859375e+01) (31, 9.35286998748779296875e-01) (32, 1.84646368026733398438e+00) (33, 9.74863290786743164062e-01) (34, 9.48145985603332519531e-01) (35, 1.91024518013000488281e+00) (36, -7.93601799011230468750e+00) (37, -3.36533203125000000000e+01) (38, 1.25059661865234375000e+01) (39, -9.99324560165405273438e-01) (40, -1.29001884460449218750e+01) (41, -4.96115684509277343750e+01) (42, 8.62764239311218261719e-01) (43, 2.05639152526855468750e+01) (44, -2.93947905302047729492e-01) (28, 3.03893506526947021484e-01) (29, -4.36432189941406250000e+01) (30, 5.08193664550781250000e+01) (31, 2.41285935044288635254e-01) (32, 3.41575736999511718750e+01) (33, 1.97854414582252502441e-01) (34, 2.80515015125274658203e-01) (35, 9.88754558563232421875e+00) (36, 1.94837074279785156250e+01) (37, 7.63382530212402343750e+00) (38, 7.06039962768554687500e+01) (39, -3.09436964988708496094e+00) (40, -1.76238155364990234375e+00) (41, -1.44386446475982666016e+00) (42, 1.66627869009971618652e-01) (43, 1.68246591091156005859e+00) (44, 4.65839147567749023438e-01) (28, 9.31220889091491699219e-01) (29, -9.91230845451354980469e-01) (30, 4.87800788879394531250e+01) (31, 8.96468639373779296875e-01) (32, 1.38113641738891601562e+01) (33, 9.03591513633728027344e-01) (34, 8.07906746864318847656e-01) (35, -2.71710224151611328125e+01) (36, -5.38969814777374267578e-01) (37, 6.78709888458251953125e+00) (38, 3.07991886138916015625e+01) (39, -4.59513549804687500000e+01) (40, 1.77099094390869140625e+01) (41, -1.13095130920410156250e+01) (42, 7.60873794555664062500e-01) (43, 8.46185874938964843750e+00) (44, -1.30519986152648925781e-01) (28, 7.01754912734031677246e-02) (29, 4.50471103191375732422e-01) (30, -9.73308849334716796875e+00) (31, 2.06883791834115982056e-02) (32, -4.81589746475219726562e+00) (33, 1.34443759918212890625e-01) (34, 7.90010020136833190918e-02) (35, 1.19045570492744445801e-01) (36, 1.01133890151977539062e+01) (37, -1.72047348022460937500e+01) (38, 4.47398033142089843750e+01) (39, -7.20878458023071289062e+00) (40, -2.87412338256835937500e+01) (41, 1.29376089572906494141e+00) (42, 9.27776470780372619629e-02) (43, 3.75480728149414062500e+01) (44, 7.38232553005218505859e-01) (28, 4.97635483741760253906e-01) (29, -5.03253579139709472656e-01) (30, 8.49564056396484375000e+01) (31, 5.63337922096252441406e-01) (32, 3.21020545959472656250e+01) (33, 4.67433929443359375000e-01) (34, 4.17512714862823486328e-01) (35, -1.60881538391113281250e+01) (36, 1.14906778335571289062e+01) (37, 1.06141895055770874023e-01) (38, 2.46608982086181640625e+01) (39, -2.52708053588867187500e+01) (40, -3.30552196502685546875e+00) (41, 2.97867059707641601562e+00) (42, 4.60832476615905761719e-01) (43, -8.44062715768814086914e-02) (44, 8.47288966178894042969e-02) (28, 1.59289956092834472656e+00) (29, 1.24345607757568359375e+01) (30, 1.26125729084014892578e+00) (31, 1.53167891502380371094e+00) (32, 3.61416786909103393555e-01) (33, 1.59259414672851562500e+00) (34, 1.50963711738586425781e+00) (35, -1.77403335571289062500e+01) (36, -7.40543594360351562500e+01) (37, 3.81078681945800781250e+01) (38, -2.45979804992675781250e+01) (39, 1.80383932590484619141e+00) (40, -2.45038247108459472656e+00) (41, 1.23839950561523437500e+00) (42, 1.61550593376159667969e+00) (43, 7.07902450561523437500e+01) (44, -7.04135715961456298828e-01) (28, 2.28151774406433105469e+00) (29, 1.82325318455696105957e-01) (30, 2.36315109252929687500e+02) (31, 2.30821251869201660156e+00) (32, -1.96345996856689453125e+01) (33, 2.19609165191650390625e+00) (34, 2.26077580451965332031e+00) (35, -9.77948248386383056641e-01) (36, -4.71938848495483398438e+00) (37, 3.85787239074707031250e+01) (38, -4.02324485778808593750e+00) (39, 1.55917282104492187500e+01) (40, 1.08948211669921875000e+01) (41, 8.65245342254638671875e+00) (42, 2.15664935111999511719e+00) (43, 3.98853492736816406250e+00) (44, -1.12964975833892822266e+00) (28, 7.61019408702850341797e-01) (29, 8.57479476928710937500e+00) (30, -1.54889956116676330566e-01) (31, 8.28236281871795654297e-01) (32, -5.81121221184730529785e-02) (33, 7.25595653057098388672e-01) (34, 7.32741653919219970703e-01) (35, -3.09863147735595703125e+01) (36, -3.37243485450744628906e+00) (37, -3.04365139007568359375e+01) (38, 7.29838848114013671875e+00) (39, -2.97795867919921875000e+00) (40, -1.56086454391479492188e+01) (41, 1.40460598468780517578e+00) (42, 7.10557162761688232422e-01) (43, 6.42561492919921875000e+01) (44, -1.78521096706390380859e-01) (28, 4.48913097381591796875e-01) (29, 2.91098308563232421875e+01) (30, 1.37650451660156250000e+02) (31, 5.73775589466094970703e-01) (32, -4.47896575927734375000e+01) (33, 5.96456646919250488281e-01) (34, 5.79959094524383544922e-01) (35, 5.71523666381835937500e+00) (36, -7.81522369384765625000e+01) (37, 4.11994514465332031250e+01) (38, -4.67482948303222656250e+00) (39, -3.59223812818527221680e-01) (40, -4.01448631286621093750e+01) (41, 1.75835514068603515625e+00) (42, 5.97442805767059326172e-01) (43, -8.78911137580871582031e-01) (44, 2.22033619880676269531e-01) (28, 9.29015696048736572266e-01) (29, -1.38025856018066406250e+01) (30, 2.80796766281127929688e-01) (31, 8.10732305049896240234e-01) (32, 8.98090744018554687500e+00) (33, 9.38659310340881347656e-01) (34, 9.00263190269470214844e-01) (35, -5.61520805358886718750e+01) (36, -4.08558702468872070312e+00) (37, 3.44204673767089843750e+01) (38, 2.28153681755065917969e+00) (39, 1.44339256286621093750e+01) (40, 8.40997619628906250000e+01) (41, -1.04312765598297119141e+00) (42, 9.43951070308685302734e-01) (43, 8.54111022949218750000e+01) (44, -8.57702270150184631348e-02) (28, 5.40303039550781250000e+00) (29, -8.96066093444824218750e+00) (30, -1.29812450408935546875e+01) (31, 5.36591053009033203125e+00) (32, -1.72378120422363281250e+01) (33, 5.46963119506835937500e+00) (34, 5.44180250167846679688e+00) (35, 1.74932277202606201172e+00) (36, 1.63248646259307861328e+00) (37, -6.69256925582885742188e+00) (38, 2.44209456443786621094e+00) (39, -1.78006961941719055176e-01) (40, 2.86919283866882324219e+00) (41, 6.12951660156250000000e+00) (42, 5.27793931961059570312e+00) (43, -1.28246002197265625000e+01) (44, -3.35465741157531738281e+00) 
