FANN_FLO_2.1
num_layers=3
learning_rate=0.700000
connection_rate=1.000000
network_type=0
learning_momentum=0.000000
training_algorithm=2
train_error_function=1
train_stop_function=0
cascade_output_change_fraction=0.010000
quickprop_decay=-0.000100
quickprop_mu=1.750000
rprop_increase_factor=1.200000
rprop_decrease_factor=0.500000
rprop_delta_min=0.000000
rprop_delta_max=50.000000
rprop_delta_zero=0.100000
cascade_output_stagnation_epochs=12
cascade_candidate_change_fraction=0.010000
cascade_candidate_stagnation_epochs=12
cascade_max_out_epochs=150
cascade_min_out_epochs=50
cascade_max_cand_epochs=150
cascade_min_cand_epochs=50
cascade_num_candidate_groups=2
bit_fail_limit=3.49999994039535522461e-01
cascade_candidate_limit=1.00000000000000000000e+03
cascade_weight_multiplier=4.00000005960464477539e-01
cascade_activation_functions_count=10
cascade_activation_functions=3 5 7 8 10 11 14 15 16 17 
cascade_activation_steepnesses_count=4
cascade_activation_steepnesses=2.50000000000000000000e-01 5.00000000000000000000e-01 7.50000000000000000000e-01 1.00000000000000000000e+00 
layer_sizes=161 108 2 
scale_included=0
neurons (num_inputs, activation_function, activation_steepness)=(0, 0, 0.00000000000000000000e+00) (0, 0, 0.00000000000000000000e+00) (0, 0, 0.00000000000000000000e+00) (0, 0, 0.00000000000000000000e+00) (0, 0, 0.00000000000000000000e+00) (0, 0, 0.00000000000000000000e+00) (0, 0, 0.00000000000000000000e+00) (0, 0, 0.00000000000000000000e+00) (0, 0, 0.00000000000000000000e+00) (0, 0, 0.00000000000000000000e+00) (0, 0, 0.00000000000000000000e+00) (0, 0, 0.00000000000000000000e+00) (0, 0, 0.00000000000000000000e+00) (0, 0, 0.00000000000000000000e+00) (0, 0, 0.00000000000000000000e+00) (0, 0, 0.00000000000000000000e+00) (0, 0, 0.00000000000000000000e+00) (0, 0, 0.00000000000000000000e+00) (0, 0, 0.00000000000000000000e+00) (0, 0, 0.00000000000000000000e+00) (0, 0, 0.00000000000000000000e+00) (0, 0, 0.00000000000000000000e+00) (0, 0, 0.00000000000000000000e+00) (0, 0, 0.00000000000000000000e+00) (0, 0, 0.00000000000000000000e+00) (0, 0, 0.00000000000000000000e+00) (0, 0, 0.00000000000000000000e+00) (0, 0, 0.00000000000000000000e+00) (0, 0, 0.00000000000000000000e+00) (0, 0, 0.00000000000000000000e+00) (0, 0, 0.00000000000000000000e+00) (0, 0, 0.00000000000000000000e+00) (0, 0, 0.00000000000000000000e+00) (0, 0, 0.00000000000000000000e+00) (0, 0, 0.00000000000000000000e+00) (0, 0, 0.00000000000000000000e+00) (0, 0, 0.00000000000000000000e+00) (0, 0, 0.00000000000000000000e+00) (0, 0, 0.00000000000000000000e+00) (0, 0, 0.00000000000000000000e+00) (0, 0, 0.00000000000000000000e+00) (0, 0, 0.00000000000000000000e+00) (0, 0, 0.00000000000000000000e+00) (0, 0, 0.00000000000000000000e+00) (0, 0, 0.00000000000000000000e+00) (0, 0, 0.00000000000000000000e+00) (0, 0, 0.00000000000000000000e+00) (0, 0, 0.00000000000000000000e+00) (0, 0, 0.00000000000000000000e+00) (0, 0, 0.00000000000000000000e+00) (0, 0, 0.00000000000000000000e+00) (0, 0, 0.00000000000000000000e+00) (0, 0, 0.00000000000000000000e+00) (0, 0, 0.00000000000000000000e+00) (0, 0, 0.00000000000000000000e+00) (0, 0, 0.00000000000000000000e+00) (0, 0, 0.00000000000000000000e+00) (0, 0, 0.00000000000000000000e+00) (0, 0, 0.00000000000000000000e+00) (0, 0, 0.00000000000000000000e+00) (0, 0, 0.00000000000000000000e+00) (0, 0, 0.00000000000000000000e+00) (0, 0, 0.00000000000000000000e+00) (0, 0, 0.00000000000000000000e+00) (0, 0, 0.00000000000000000000e+00) (0, 0, 0.00000000000000000000e+00) (0, 0, 0.00000000000000000000e+00) (0, 0, 0.00000000000000000000e+00) (0, 0, 0.00000000000000000000e+00) (0, 0, 0.00000000000000000000e+00) (0, 0, 0.00000000000000000000e+00) (0, 0, 0.00000000000000000000e+00) (0, 0, 0.00000000000000000000e+00) (0, 0, 0.00000000000000000000e+00) (0, 0, 0.00000000000000000000e+00) (0, 0, 0.00000000000000000000e+00) (0, 0, 0.00000000000000000000e+00) (0, 0, 0.00000000000000000000e+00) (0, 0, 0.00000000000000000000e+00) (0, 0, 0.00000000000000000000e+00) (0, 0, 0.00000000000000000000e+00) (0, 0, 0.00000000000000000000e+00) (0, 0, 0.00000000000000000000e+00) (0, 0, 0.00000000000000000000e+00) (0, 0, 0.00000000000000000000e+00) (0, 0, 0.00000000000000000000e+00) (0, 0, 0.00000000000000000000e+00) (0, 0, 0.00000000000000000000e+00) (0, 0, 0.00000000000000000000e+00) (0, 0, 0.00000000000000000000e+00) (0, 0, 0.00000000000000000000e+00) (0, 0, 0.00000000000000000000e+00) (0, 0, 0.00000000000000000000e+00) (0, 0, 0.00000000000000000000e+00) (0, 0, 0.00000000000000000000e+00) (0, 0, 0.00000000000000000000e+00) (0, 0, 0.00000000000000000000e+00) (0, 0, 0.00000000000000000000e+00) (0, 0, 0.00000000000000000000e+00) (0, 0, 0.00000000000000000000e+00) (0, 0, 0.00000000000000000000e+00) (0, 0, 0.00000000000000000000e+00) (0, 0, 0.00000000000000000000e+00) (0, 0, 0.00000000000000000000e+00) (0, 0, 0.00000000000000000000e+00) (0, 0, 0.00000000000000000000e+00) (0, 0, 0.00000000000000000000e+00) (0, 0, 0.00000000000000000000e+00) (0, 0, 0.00000000000000000000e+00) (0, 0, 0.00000000000000000000e+00) (0, 0, 0.00000000000000000000e+00) (0, 0, 0.00000000000000000000e+00) (0, 0, 0.00000000000000000000e+00) (0, 0, 0.00000000000000000000e+00) (0, 0, 0.00000000000000000000e+00) (0, 0, 0.00000000000000000000e+00) (0, 0, 0.00000000000000000000e+00) (0, 0, 0.00000000000000000000e+00) (0, 0, 0.00000000000000000000e+00) (0, 0, 0.00000000000000000000e+00) (0, 0, 0.00000000000000000000e+00) (0, 0, 0.00000000000000000000e+00) (0, 0, 0.00000000000000000000e+00) (0, 0, 0.00000000000000000000e+00) (0, 0, 0.00000000000000000000e+00) (0, 0, 0.00000000000000000000e+00) (0, 0, 0.00000000000000000000e+00) (0, 0, 0.00000000000000000000e+00) (0, 0, 0.00000000000000000000e+00) (0, 0, 0.00000000000000000000e+00) (0, 0, 0.00000000000000000000e+00) (0, 0, 0.00000000000000000000e+00) (0, 0, 0.00000000000000000000e+00) (0, 0, 0.00000000000000000000e+00) (0, 0, 0.00000000000000000000e+00) (0, 0, 0.00000000000000000000e+00) (0, 0, 0.00000000000000000000e+00) (0, 0, 0.00000000000000000000e+00) (0, 0, 0.00000000000000000000e+00) (0, 0, 0.00000000000000000000e+00) (0, 0, 0.00000000000000000000e+00) (0, 0, 0.00000000000000000000e+00) (0, 0, 0.00000000000000000000e+00) (0, 0, 0.00000000000000000000e+00) (0, 0, 0.00000000000000000000e+00) (0, 0, 0.00000000000000000000e+00) (0, 0, 0.00000000000000000000e+00) (0, 0, 0.00000000000000000000e+00) (0, 0, 0.00000000000000000000e+00) (0, 0, 0.00000000000000000000e+00) (0, 0, 0.00000000000000000000e+00) (0, 0, 0.00000000000000000000e+00) (0, 0, 0.00000000000000000000e+00) (0, 0, 0.00000000000000000000e+00) (0, 0, 0.00000000000000000000e+00) (0, 0, 0.00000000000000000000e+00) (0, 0, 0.00000000000000000000e+00) (0, 0, 0.00000000000000000000e+00) (0, 0, 0.00000000000000000000e+00) (0, 0, 0.00000000000000000000e+00) (0, 0, 0.00000000000000000000e+00) (161, 5, 5.00000000000000000000e-01) (161, 5, 5.00000000000000000000e-01) (161, 5, 5.00000000000000000000e-01) (161, 5, 5.00000000000000000000e-01) (161, 5, 5.00000000000000000000e-01) (161, 5, 5.00000000000000000000e-01) (161, 5, 5.00000000000000000000e-01) (161, 5, 5.00000000000000000000e-01) (161, 5, 5.00000000000000000000e-01) (161, 5, 5.00000000000000000000e-01) (161, 5, 5.00000000000000000000e-01) (161, 5, 5.00000000000000000000e-01) (161, 5, 5.00000000000000000000e-01) (161, 5, 5.00000000000000000000e-01) (161, 5, 5.00000000000000000000e-01) (161, 5, 5.00000000000000000000e-01) (161, 5, 5.00000000000000000000e-01) (161, 5, 5.00000000000000000000e-01) (161, 5, 5.00000000000000000000e-01) (161, 5, 5.00000000000000000000e-01) (161, 5, 5.00000000000000000000e-01) (161, 5, 5.00000000000000000000e-01) (161, 5, 5.00000000000000000000e-01) (161, 5, 5.00000000000000000000e-01) (161, 5, 5.00000000000000000000e-01) (161, 5, 5.00000000000000000000e-01) (161, 5, 5.00000000000000000000e-01) (161, 5, 5.00000000000000000000e-01) (161, 5, 5.00000000000000000000e-01) (161, 5, 5.00000000000000000000e-01) (161, 5, 5.00000000000000000000e-01) (161, 5, 5.00000000000000000000e-01) (161, 5, 5.00000000000000000000e-01) (161, 5, 5.00000000000000000000e-01) (161, 5, 5.00000000000000000000e-01) (161, 5, 5.00000000000000000000e-01) (161, 5, 5.00000000000000000000e-01) (161, 5, 5.00000000000000000000e-01) (161, 5, 5.00000000000000000000e-01) (161, 5, 5.00000000000000000000e-01) (161, 5, 5.00000000000000000000e-01) (161, 5, 5.00000000000000000000e-01) (161, 5, 5.00000000000000000000e-01) (161, 5, 5.00000000000000000000e-01) (161, 5, 5.00000000000000000000e-01) (161, 5, 5.00000000000000000000e-01) (161, 5, 5.00000000000000000000e-01) (161, 5, 5.00000000000000000000e-01) (161, 5, 5.00000000000000000000e-01) (161, 5, 5.00000000000000000000e-01) (161, 5, 5.00000000000000000000e-01) (161, 5, 5.00000000000000000000e-01) (161, 5, 5.00000000000000000000e-01) (161, 5, 5.00000000000000000000e-01) (161, 5, 5.00000000000000000000e-01) (161, 5, 5.00000000000000000000e-01) (161, 5, 5.00000000000000000000e-01) (161, 5, 5.00000000000000000000e-01) (161, 5, 5.00000000000000000000e-01) (161, 5, 5.00000000000000000000e-01) (161, 5, 5.00000000000000000000e-01) (161, 5, 5.00000000000000000000e-01) (161, 5, 5.00000000000000000000e-01) (161, 5, 5.00000000000000000000e-01) (161, 5, 5.00000000000000000000e-01) (161, 5, 5.00000000000000000000e-01) (161, 5, 5.00000000000000000000e-01) (161, 5, 5.00000000000000000000e-01) (161, 5, 5.00000000000000000000e-01) (161, 5, 5.00000000000000000000e-01) (161, 5, 5.00000000000000000000e-01) (161, 5, 5.00000000000000000000e-01) (161, 5, 5.00000000000000000000e-01) (161, 5, 5.00000000000000000000e-01) (161, 5, 5.00000000000000000000e-01) (161, 5, 5.00000000000000000000e-01) (161, 5, 5.00000000000000000000e-01) (161, 5, 5.00000000000000000000e-01) (161, 5, 5.00000000000000000000e-01) (161, 5, 5.00000000000000000000e-01) (161, 5, 5.00000000000000000000e-01) (161, 5, 5.00000000000000000000e-01) (161, 5, 5.00000000000000000000e-01) (161, 5, 5.00000000000000000000e-01) (161, 5, 5.00000000000000000000e-01) (161, 5, 5.00000000000000000000e-01) (161, 5, 5.00000000000000000000e-01) (161, 5, 5.00000000000000000000e-01) (161, 5, 5.00000000000000000000e-01) (161, 5, 5.00000000000000000000e-01) (161, 5, 5.00000000000000000000e-01) (161, 5, 5.00000000000000000000e-01) (161, 5, 5.00000000000000000000e-01) (161, 5, 5.00000000000000000000e-01) (161, 5, 5.00000000000000000000e-01) (161, 5, 5.00000000000000000000e-01) (161, 5, 5.00000000000000000000e-01) (161, 5, 5.00000000000000000000e-01) (161, 5, 5.00000000000000000000e-01) (161, 5, 5.00000000000000000000e-01) (161, 5, 5.00000000000000000000e-01) (161, 5, 5.00000000000000000000e-01) (161, 5, 5.00000000000000000000e-01) (161, 5, 5.00000000000000000000e-01) (161, 5, 5.00000000000000000000e-01) (161, 5, 5.00000000000000000000e-01) (161, 5, 5.00000000000000000000e-01) (0, 5, 0.00000000000000000000e+00) (108, 5, 5.00000000000000000000e-01) (0, 5, 0.00000000000000000000e+00) 
connections (connected_to_neuron, weight)=(0, 1.50000000000000000000e+03) (1, 1.50000000000000000000e+03) (2, 1.50000000000000000000e+03) (3, 1.50000000000000000000e+03) (4, 1.50000000000000000000e+03) (5, 1.50000000000000000000e+03) (6, 1.50000000000000000000e+03) (7, 1.50000000000000000000e+03) (8, 1.50000000000000000000e+03) (9, 1.50000000000000000000e+03) (10, 1.50000000000000000000e+03) (11, 1.50000000000000000000e+03) (12, 1.50000000000000000000e+03) (13, 1.50000000000000000000e+03) (14, 1.50000000000000000000e+03) (15, 1.50000000000000000000e+03) (16, 1.50000000000000000000e+03) (17, 1.50000000000000000000e+03) (18, 1.50000000000000000000e+03) (19, 1.50000000000000000000e+03) (20, 1.50000000000000000000e+03) (21, 1.50000000000000000000e+03) (22, 6.57670423388481140137e-02) (23, 9.64434593915939331055e-02) (24, 4.97205436229705810547e-01) (25, -7.95311108231544494629e-02) (26, -8.66874635219573974609e-01) (27, -2.33352780342102050781e-01) (28, 6.35897576808929443359e-01) (29, 1.50000000000000000000e+03) (30, 1.50000000000000000000e+03) (31, -1.88655093312263488770e-01) (32, 1.08211368322372436523e-01) (33, 1.35965973138809204102e-01) (34, 1.22961558401584625244e-01) (35, -2.41020575165748596191e-01) (36, -2.73447275161743164062e-01) (37, -1.69532507658004760742e-01) (38, -5.72253167629241943359e-02) (39, 1.50000000000000000000e+03) (40, 1.50000000000000000000e+03) (41, -8.55619490146636962891e-01) (42, -1.56545996665954589844e-01) (43, -1.90196335315704345703e-02) (44, 2.87623971700668334961e-01) (45, -1.81122139096260070801e-01) (46, 2.66090065240859985352e-01) (47, 1.82211577892303466797e-01) (48, -2.87368118762969970703e-01) (49, 1.50000000000000000000e+03) (50, 1.50000000000000000000e+03) (51, -7.92216718196868896484e-01) (52, -5.65293550491333007812e-01) (53, -2.48711243271827697754e-01) (54, 2.43062257766723632812e-01) (55, 1.67802661657333374023e-01) (56, 2.38199353218078613281e+00) (57, 1.39585897326469421387e-01) (58, -3.35400629043579101562e+00) (59, 1.50000000000000000000e+03) (60, 1.50000000000000000000e+03) (61, -2.02667415142059326172e-01) (62, -6.45454153418540954590e-02) (63, -9.00355577468872070312e-02) (64, -9.66113209724426269531e-02) (65, 2.71953701972961425781e-01) (66, 3.90254497528076171875e-01) (67, 2.65864968299865722656e-01) (68, 2.00954461097717285156e+00) (69, 1.50000000000000000000e+03) (70, 1.50000000000000000000e+03) (71, -5.61189830303192138672e-01) (72, 1.01246647536754608154e-01) (73, 1.75423607230186462402e-01) (74, -1.02750994265079498291e-01) (75, 1.64085277356207370758e-03) (76, 4.60598111152648925781e-01) (77, -2.32900738716125488281e-01) (78, -2.17698693275451660156e+00) (79, 1.50000000000000000000e+03) (80, 1.50000000000000000000e+03) (81, -1.50531411170959472656e+00) (82, -3.98107290267944335938e-01) (83, 1.97571218013763427734e-01) (84, 4.37940470874309539795e-02) (85, 1.54609754681587219238e-01) (86, 6.04386091232299804688e-01) (87, -7.32940733432769775391e-01) (88, -1.80889999866485595703e+00) (89, 1.50000000000000000000e+03) (90, 1.50000000000000000000e+03) (91, -1.55393347144126892090e-01) (92, -4.74309735000133514404e-02) (93, 3.52286696434020996094e-01) (94, 2.32428625226020812988e-01) (95, -9.63053330779075622559e-02) (96, -4.14546467363834381104e-02) (97, 6.02460503578186035156e-02) (98, -8.70184004306793212891e-02) (99, 1.50000000000000000000e+03) (100, 1.50000000000000000000e+03) (101, 7.51044929027557373047e-01) (102, 4.58831757307052612305e-01) (103, 2.30148538947105407715e-01) (104, 4.20293182134628295898e-01) (105, -1.51300221681594848633e-01) (106, -2.05096706748008728027e-01) (107, -7.42566287517547607422e-02) (108, 1.88684225082397460938e-01) (109, 1.50000000000000000000e+03) (110, 1.50000000000000000000e+03) (111, -1.09368331730365753174e-01) (112, 2.19218567013740539551e-01) (113, 3.98778885602951049805e-01) (114, 5.23332476615905761719e-01) (115, 6.78626418113708496094e-01) (116, 2.04707100987434387207e-01) (117, -1.73423424363136291504e-01) (118, -1.12075889110565185547e+00) (119, 1.50000000000000000000e+03) (120, 1.50000000000000000000e+03) (121, 2.22109153866767883301e-01) (122, 4.50290948152542114258e-01) (123, 3.02563607692718505859e-01) (124, 2.67250508069992065430e-01) (125, 7.86330476403236389160e-02) (126, -1.22843414545059204102e-01) (127, -1.17203734815120697021e-01) (128, -7.98325240612030029297e-02) (129, 1.50000000000000000000e+03) (130, 1.50000000000000000000e+03) (131, 4.93214696645736694336e-01) (132, 2.50261127948760986328e-02) (133, -5.43682575225830078125e-01) (134, -1.14244997501373291016e-01) (135, 8.28406810760498046875e-02) (136, 1.65590628981590270996e-01) (137, 2.45048433542251586914e-01) (138, 4.26255941390991210938e-01) (139, 1.50000000000000000000e+03) (140, 1.50000000000000000000e+03) (141, -2.39898249506950378418e-01) (142, 9.83581468462944030762e-02) (143, 1.53552100062370300293e-01) (144, 1.00655451416969299316e-01) (145, 1.03049658238887786865e-01) (146, 2.53659576177597045898e-01) (147, 9.91009473800659179688e-02) (148, 1.19943089783191680908e-01) (149, 1.50000000000000000000e+03) (150, 1.50000000000000000000e+03) (151, 1.50000000000000000000e+03) (152, 1.50000000000000000000e+03) (153, 1.50000000000000000000e+03) (154, 1.50000000000000000000e+03) (155, 1.50000000000000000000e+03) (156, 1.50000000000000000000e+03) (157, 1.50000000000000000000e+03) (158, 1.50000000000000000000e+03) (159, 1.50000000000000000000e+03) (160, 1.23551137745380401611e-01) (0, 1.50000000000000000000e+03) (1, 1.50000000000000000000e+03) (2, 1.50000000000000000000e+03) (3, 1.50000000000000000000e+03) (4, 1.50000000000000000000e+03) (5, 1.50000000000000000000e+03) (6, 1.50000000000000000000e+03) (7, 1.50000000000000000000e+03) (8, 1.50000000000000000000e+03) (9, 1.50000000000000000000e+03) (10, 1.50000000000000000000e+03) (11, 1.50000000000000000000e+03) (12, 1.50000000000000000000e+03) (13, 1.50000000000000000000e+03) (14, 1.50000000000000000000e+03) (15, 1.50000000000000000000e+03) (16, 1.50000000000000000000e+03) (17, 1.50000000000000000000e+03) (18, 1.50000000000000000000e+03) (19, 1.50000000000000000000e+03) (20, 1.50000000000000000000e+03) (21, 1.50000000000000000000e+03) (22, 3.47308576107025146484e-01) (23, 3.83647292852401733398e-01) (24, -1.33649230003356933594e-01) (25, 4.96330022811889648438e-01) (26, 1.60320818424224853516e+00) (27, 7.46751666069030761719e-01) (28, -4.20119315385818481445e-01) (29, 1.50000000000000000000e+03) (30, 1.50000000000000000000e+03) (31, -2.42271155118942260742e-01) (32, -2.74838030338287353516e-01) (33, -1.71498015522956848145e-01) (34, -1.28511622548103332520e-01) (35, -1.53760686516761779785e-01) (36, 1.32428025826811790466e-02) (37, -1.00671559572219848633e-01) (38, -1.47807285189628601074e-01) (39, 1.50000000000000000000e+03) (40, 1.50000000000000000000e+03) (41, -1.26694828271865844727e-01) (42, -1.56579107046127319336e-01) (43, 2.62859137728810310364e-03) (44, 4.46971133351325988770e-03) (45, 4.00081604719161987305e-01) (46, -9.42566096782684326172e-02) (47, 9.69674140214920043945e-02) (48, -5.30414164066314697266e-01) (49, 1.50000000000000000000e+03) (50, 1.50000000000000000000e+03) (51, 3.06236632168292999268e-02) (52, -9.17591433972120285034e-03) (53, -1.12587809562683105469e-01) (54, -3.59865203499794006348e-02) (55, 1.95331200957298278809e-01) (56, -3.62588129937648773193e-02) (57, -2.00055558234453201294e-02) (58, 7.00958430767059326172e-01) (59, 1.50000000000000000000e+03) (60, 1.50000000000000000000e+03) (61, -1.07307955622673034668e-01) (62, -1.89770996570587158203e-01) (63, -4.47598248720169067383e-02) (64, 2.78327941894531250000e-01) (65, 2.22266167402267456055e-01) (66, -1.86360195279121398926e-01) (67, -1.27201423048973083496e-01) (68, -8.64874944090843200684e-02) (69, 1.50000000000000000000e+03) (70, 1.50000000000000000000e+03) (71, 6.78023789077997207642e-03) (72, -1.21065273880958557129e-01) (73, -1.64247959852218627930e-01) (74, -9.13133546710014343262e-02) (75, -7.22307935357093811035e-02) (76, -1.88757047057151794434e-01) (77, -4.69904281198978424072e-02) (78, -1.15437753498554229736e-01) (79, 1.50000000000000000000e+03) (80, 1.50000000000000000000e+03) (81, -1.96306496858596801758e-01) (82, -8.88686478137969970703e-02) (83, -1.20868749916553497314e-01) (84, -1.08890555799007415771e-01) (85, -2.86484248936176300049e-02) (86, -1.32647901773452758789e-01) (87, -1.53246939182281494141e-01) (88, -2.34111230820417404175e-02) (89, 1.50000000000000000000e+03) (90, 1.50000000000000000000e+03) (91, -1.55131563544273376465e-01) (92, -2.23788306117057800293e-01) (93, -1.57242923974990844727e-01) (94, 2.84943491220474243164e-01) (95, 3.09837818145751953125e-01) (96, -1.16173870861530303955e-01) (97, 3.92025662586092948914e-03) (98, 1.29711655899882316589e-02) (99, 1.50000000000000000000e+03) (100, 1.50000000000000000000e+03) (101, -1.39204055070877075195e-01) (102, -1.61454498767852783203e-01) (103, -2.52501685172319412231e-02) (104, 5.84035515785217285156e-01) (105, 2.25199740380048751831e-02) (106, 3.22970151901245117188e-01) (107, 8.94429385662078857422e-02) (108, -1.01443171501159667969e-01) (109, 1.50000000000000000000e+03) (110, 1.50000000000000000000e+03) (111, -5.95734000205993652344e-01) (112, -1.16400405764579772949e-01) (113, -1.29575461149215698242e-01) (114, -2.62822002172470092773e-01) (115, -4.19857762753963470459e-02) (116, 2.07804262638092041016e-01) (117, -1.11110448837280273438e-01) (118, -3.30391108989715576172e-01) (119, 1.50000000000000000000e+03) (120, 1.50000000000000000000e+03) (121, -1.90867260098457336426e-01) (122, -2.24819153547286987305e-01) (123, 1.55812054872512817383e-01) (124, -1.12496949732303619385e-01) (125, -6.63742274045944213867e-02) (126, 2.81756818294525146484e-01) (127, 1.45533671602606773376e-02) (128, -2.54480242729187011719e-01) (129, 1.50000000000000000000e+03) (130, 1.50000000000000000000e+03) (131, -3.30116182565689086914e-01) (132, -1.15867651998996734619e-01) (133, 2.28622797876596450806e-02) (134, 4.75748777389526367188e-01) (135, 1.46491721272468566895e-01) (136, 2.32658714056015014648e-01) (137, 2.83417671918869018555e-01) (138, -4.87591892480850219727e-01) (139, 1.50000000000000000000e+03) (140, 1.50000000000000000000e+03) (141, 6.07958793640136718750e-01) (142, 1.48604407906532287598e-01) (143, 1.61796152591705322266e-01) (144, 2.29196593165397644043e-01) (145, 2.34020262956619262695e-01) (146, 1.17515705525875091553e-01) (147, 8.19513738155364990234e-01) (148, 2.87041604518890380859e-01) (149, 1.50000000000000000000e+03) (150, 1.50000000000000000000e+03) (151, 1.50000000000000000000e+03) (152, 1.50000000000000000000e+03) (153, 1.50000000000000000000e+03) (154, 1.50000000000000000000e+03) (155, 1.50000000000000000000e+03) (156, 1.50000000000000000000e+03) (157, 1.50000000000000000000e+03) (158, 1.50000000000000000000e+03) (159, 1.50000000000000000000e+03) (160, -1.79493740200996398926e-01) (0, 1.50000000000000000000e+03) (1, 1.50000000000000000000e+03) (2, 1.50000000000000000000e+03) (3, 1.50000000000000000000e+03) (4, 1.50000000000000000000e+03) (5, 1.50000000000000000000e+03) (6, 1.50000000000000000000e+03) (7, 1.50000000000000000000e+03) (8, 1.50000000000000000000e+03) (9, 1.50000000000000000000e+03) (10, 1.50000000000000000000e+03) (11, 1.50000000000000000000e+03) (12, 1.50000000000000000000e+03) (13, 1.50000000000000000000e+03) (14, 1.50000000000000000000e+03) (15, 1.50000000000000000000e+03) (16, 1.50000000000000000000e+03) (17, 1.50000000000000000000e+03) (18, 1.50000000000000000000e+03) (19, 1.50000000000000000000e+03) (20, 1.50000000000000000000e+03) (21, 1.50000000000000000000e+03) (22, 2.98755556344985961914e-01) (23, 3.27401399612426757812e-01) (24, -7.16740563511848449707e-02) (25, 4.33249831199645996094e-01) (26, 1.51004517078399658203e+00) (27, 6.96113884449005126953e-01) (28, -2.66672104597091674805e-01) (29, 1.50000000000000000000e+03) (30, 1.50000000000000000000e+03) (31, -8.12583565711975097656e-02) (32, -1.46051034331321716309e-01) (33, -1.64013117551803588867e-01) (34, -9.62380841374397277832e-02) (35, -5.80371357500553131104e-02) (36, -1.54904186725616455078e-01) (37, -1.42408013343811035156e-01) (38, 3.84712785482406616211e-01) (39, 1.50000000000000000000e+03) (40, 1.50000000000000000000e+03) (41, -1.50284230709075927734e-01) (42, -1.53735190629959106445e-01) (43, 1.60658638924360275269e-02) (44, -1.47693052887916564941e-01) (45, 4.36585098505020141602e-01) (46, -2.04753562808036804199e-01) (47, -1.62876620888710021973e-01) (48, -1.81570231914520263672e-01) (49, 1.50000000000000000000e+03) (50, 1.50000000000000000000e+03) (51, -2.13103666901588439941e-02) (52, -7.31992945075035095215e-02) (53, -2.54644513130187988281e-01) (54, -1.54916301369667053223e-01) (55, 4.21116426587104797363e-02) (56, -1.94712102413177490234e-01) (57, -2.57120821624994277954e-02) (58, -2.73207072168588638306e-02) (59, 1.50000000000000000000e+03) (60, 1.50000000000000000000e+03) (61, -1.44532127305865287781e-02) (62, -3.40857803821563720703e-02) (63, -2.81647909432649612427e-02) (64, -1.10475696623325347900e-01) (65, -1.28024175763130187988e-01) (66, 1.26342147588729858398e-01) (67, -2.12217599153518676758e-01) (68, -8.01246017217636108398e-02) (69, 1.50000000000000000000e+03) (70, 1.50000000000000000000e+03) (71, -1.49572089314460754395e-01) (72, -1.41058117151260375977e-01) (73, -1.23893134295940399170e-01) (74, -2.48428285121917724609e-01) (75, -2.53300994634628295898e-01) (76, -1.45843639969825744629e-01) (77, -1.56592622399330139160e-01) (78, 1.05831310153007507324e-01) (79, 1.50000000000000000000e+03) (80, 1.50000000000000000000e+03) (81, -1.98028847575187683105e-01) (82, -9.99616086483001708984e-02) (83, -8.20816233754158020020e-02) (84, -2.09910541772842407227e-01) (85, -2.15150475502014160156e-01) (86, -2.06892773509025573730e-01) (87, -1.19544483721256256104e-01) (88, -1.00494362413883209229e-02) (89, 1.50000000000000000000e+03) (90, 1.50000000000000000000e+03) (91, -1.81798279285430908203e-01) (92, -4.37422655522823333740e-02) (93, -1.20952479541301727295e-01) (94, 2.72864937782287597656e-01) (95, -5.10430261492729187012e-02) (96, -6.42689168453216552734e-02) (97, -3.52329239249229431152e-02) (98, -1.26716852188110351562e-01) (99, 1.50000000000000000000e+03) (100, 1.50000000000000000000e+03) (101, -7.54415988922119140625e-02) (102, -8.13833400607109069824e-02) (103, -1.25130742788314819336e-01) (104, 1.83966420590877532959e-02) (105, -1.61417260766029357910e-01) (106, -3.97086217999458312988e-02) (107, -1.39954239130020141602e-01) (108, -5.33780194818973541260e-02) (109, 1.50000000000000000000e+03) (110, 1.50000000000000000000e+03) (111, -1.02189294993877410889e-01) (112, -1.20537221431732177734e-01) (113, -1.11379086971282958984e-01) (114, -2.35851615667343139648e-01) (115, -2.76371315121650695801e-02) (116, -8.73486325144767761230e-02) (117, -7.16641396284103393555e-02) (118, -1.41063630580902099609e-01) (119, 1.50000000000000000000e+03) (120, 1.50000000000000000000e+03) (121, -1.56040042638778686523e-01) (122, -2.55710840225219726562e-01) (123, -9.75329950451850891113e-02) (124, -5.13338074088096618652e-02) (125, -5.33660575747489929199e-02) (126, -3.91915142536163330078e-02) (127, -1.14011824131011962891e-01) (128, -5.52253238856792449951e-03) (129, 1.50000000000000000000e+03) (130, 1.50000000000000000000e+03) (131, -1.60074472427368164062e-01) (132, -1.47878944873809814453e-01) (133, 1.40859812498092651367e-01) (134, 5.15605509281158447266e-01) (135, -1.57172068953514099121e-01) (136, 2.84022781997919082642e-02) (137, -1.33180141448974609375e-01) (138, -4.96006548404693603516e-01) (139, 1.50000000000000000000e+03) (140, 1.50000000000000000000e+03) (141, 6.31473481655120849609e-01) (142, 1.05758517980575561523e-01) (143, -7.99903050065040588379e-02) (144, -9.71460491418838500977e-02) (145, -1.51375159621238708496e-01) (146, -1.84206306934356689453e-01) (147, 8.14423799514770507812e-01) (148, 2.99186885356903076172e-01) (149, 1.50000000000000000000e+03) (150, 1.50000000000000000000e+03) (151, 1.50000000000000000000e+03) (152, 1.50000000000000000000e+03) (153, 1.50000000000000000000e+03) (154, 1.50000000000000000000e+03) (155, 1.50000000000000000000e+03) (156, 1.50000000000000000000e+03) (157, 1.50000000000000000000e+03) (158, 1.50000000000000000000e+03) (159, 1.50000000000000000000e+03) (160, 3.67795139551162719727e-01) (0, 1.50000000000000000000e+03) (1, 1.50000000000000000000e+03) (2, 1.50000000000000000000e+03) (3, 1.50000000000000000000e+03) (4, 1.50000000000000000000e+03) (5, 1.50000000000000000000e+03) (6, 1.50000000000000000000e+03) (7, 1.50000000000000000000e+03) (8, 1.50000000000000000000e+03) (9, 1.50000000000000000000e+03) (10, 1.50000000000000000000e+03) (11, 1.50000000000000000000e+03) (12, 1.50000000000000000000e+03) (13, 1.50000000000000000000e+03) (14, 1.50000000000000000000e+03) (15, 1.50000000000000000000e+03) (16, 1.50000000000000000000e+03) (17, 1.50000000000000000000e+03) (18, 1.50000000000000000000e+03) (19, 1.50000000000000000000e+03) (20, 1.50000000000000000000e+03) (21, 1.50000000000000000000e+03) (22, 7.98360943794250488281e-01) (23, 6.61748528480529785156e-01) (24, 3.74261170625686645508e-01) (25, 1.04659378528594970703e+00) (26, 2.00675511360168457031e+00) (27, 1.30024874210357666016e+00) (28, 2.62914299964904785156e-01) (29, 1.50000000000000000000e+03) (30, 1.50000000000000000000e+03) (31, -1.69660294055938720703e+00) (32, 3.75538885593414306641e-01) (33, 1.11098080873489379883e-01) (34, 4.29786413908004760742e-01) (35, 3.40756356716156005859e-01) (36, 3.78455400466918945312e-01) (37, 3.49876552820205688477e-01) (38, 7.61178255081176757812e-01) (39, 1.50000000000000000000e+03) (40, 1.50000000000000000000e+03) (41, 3.41542571783065795898e-01) (42, 4.40331190824508666992e-01) (43, 4.66285556554794311523e-01) (44, 2.03798964619636535645e-01) (45, 8.86115968227386474609e-01) (46, -2.63182371854782104492e-01) (47, 3.89737844467163085938e-01) (48, 5.56020021438598632812e-01) (49, 1.50000000000000000000e+03) (50, 1.50000000000000000000e+03) (51, 4.39085245132446289062e-01) (52, 3.48815649747848510742e-01) (53, 3.33000987768173217773e-01) (54, -5.96893012523651123047e-01) (55, -9.20803472399711608887e-03) (56, 3.12219709157943725586e-01) (57, 4.23755198717117309570e-01) (58, -2.99886131286621093750e+00) (59, 1.50000000000000000000e+03) (60, 1.50000000000000000000e+03) (61, 3.07601094245910644531e-01) (62, 3.16161721944808959961e-01) (63, 3.84541422128677368164e-01) (64, 2.42634162306785583496e-01) (65, 2.86140084266662597656e-01) (66, 3.99799466133117675781e-01) (67, 2.49963328242301940918e-01) (68, 4.26683098077774047852e-01) (69, 1.50000000000000000000e+03) (70, 1.50000000000000000000e+03) (71, 3.73727381229400634766e-01) (72, 4.67815965414047241211e-01) (73, 4.96701210737228393555e-01) (74, 3.01703989505767822266e-01) (75, -4.93636816740036010742e-01) (76, 3.57461512088775634766e-01) (77, 4.36526149511337280273e-01) (78, 5.81663668155670166016e-01) (79, 1.50000000000000000000e+03) (80, 1.50000000000000000000e+03) (81, 3.55206638574600219727e-01) (82, 2.66898691654205322266e-01) (83, 3.70238542556762695312e-01) (84, 2.30580434203147888184e-01) (85, 2.23333820700645446777e-01) (86, -2.65308928489685058594e+00) (87, 3.12312036752700805664e-01) (88, -2.32436314225196838379e-01) (89, 1.50000000000000000000e+03) (90, 1.50000000000000000000e+03) (91, 4.40639525651931762695e-01) (92, 2.53722757101058959961e-01) (93, 3.59565109014511108398e-01) (94, 8.09557795524597167969e-01) (95, 6.90688490867614746094e-01) (96, 5.11821031570434570312e-01) (97, 4.64457720518112182617e-01) (98, 9.64145138859748840332e-02) (99, 1.50000000000000000000e+03) (100, 1.50000000000000000000e+03) (101, 2.63888418674468994141e-01) (102, 3.51057022809982299805e-01) (103, 3.58242183923721313477e-01) (104, 5.97169458866119384766e-01) (105, 3.52688431739807128906e-01) (106, 3.37381154298782348633e-01) (107, 1.97254851460456848145e-01) (108, 3.68012100458145141602e-01) (109, 1.50000000000000000000e+03) (110, 1.50000000000000000000e+03) (111, 3.18437457084655761719e-01) (112, 2.89962053298950195312e-01) (113, 4.09652084112167358398e-01) (114, 2.81369268894195556641e-01) (115, 5.11739253997802734375e-01) (116, 3.02052974700927734375e-01) (117, 2.45624467730522155762e-01) (118, -5.72052145004272460938e+00) (119, 1.50000000000000000000e+03) (120, 1.50000000000000000000e+03) (121, 3.76325577497482299805e-01) (122, 1.99643239378929138184e-01) (123, 2.20461651682853698730e-01) (124, 4.19486254453659057617e-01) (125, 4.85121279954910278320e-01) (126, 2.68294721841812133789e-01) (127, 3.74742209911346435547e-01) (128, -1.46449875831604003906e+00) (129, 1.50000000000000000000e+03) (130, 1.50000000000000000000e+03) (131, 1.85949340462684631348e-01) (132, 3.95168006420135498047e-01) (133, 8.26075375080108642578e-01) (134, 9.86983478069305419922e-01) (135, 4.72975194454193115234e-01) (136, 6.16597175598144531250e-01) (137, 4.43698912858963012695e-01) (138, -9.67851281166076660156e-02) (139, 1.50000000000000000000e+03) (140, 1.50000000000000000000e+03) (141, 1.17265653610229492188e+00) (142, 6.58264338970184326172e-01) (143, 6.64623796939849853516e-01) (144, 6.08887612819671630859e-01) (145, 5.45597851276397705078e-01) (146, 6.31485342979431152344e-01) (147, 1.21718025207519531250e+00) (148, 7.75270462036132812500e-01) (149, 1.50000000000000000000e+03) (150, 1.50000000000000000000e+03) (151, 1.50000000000000000000e+03) (152, 1.50000000000000000000e+03) (153, 1.50000000000000000000e+03) (154, 1.50000000000000000000e+03) (155, 1.50000000000000000000e+03) (156, 1.50000000000000000000e+03) (157, 1.50000000000000000000e+03) (158, 1.50000000000000000000e+03) (159, 1.50000000000000000000e+03) (160, 4.56771522760391235352e-01) (0, 1.50000000000000000000e+03) (1, 1.50000000000000000000e+03) (2, 1.50000000000000000000e+03) (3, 1.50000000000000000000e+03) (4, 1.50000000000000000000e+03) (5, 1.50000000000000000000e+03) (6, 1.50000000000000000000e+03) (7, 1.50000000000000000000e+03) (8, 1.50000000000000000000e+03) (9, 1.50000000000000000000e+03) (10, 1.50000000000000000000e+03) (11, 1.50000000000000000000e+03) (12, 1.50000000000000000000e+03) (13, 1.50000000000000000000e+03) (14, 1.50000000000000000000e+03) (15, 1.50000000000000000000e+03) (16, 1.50000000000000000000e+03) (17, 1.50000000000000000000e+03) (18, 1.50000000000000000000e+03) (19, 1.50000000000000000000e+03) (20, 1.50000000000000000000e+03) (21, 1.50000000000000000000e+03) (22, 2.52940118312835693359e-01) (23, 2.94908016920089721680e-01) (24, -1.05003096163272857666e-01) (25, 5.71372389793395996094e-01) (26, 1.51676476001739501953e+00) (27, 7.82591402530670166016e-01) (28, -2.67242252826690673828e-01) (29, 1.50000000000000000000e+03) (30, 1.50000000000000000000e+03) (31, -2.65745103359222412109e-01) (32, -2.54031896591186523438e-01) (33, 5.02426968887448310852e-03) (34, -1.79030254483222961426e-01) (35, -1.82322308421134948730e-01) (36, -1.33405849337577819824e-01) (37, -1.88112184405326843262e-01) (38, -5.56985065340995788574e-02) (39, 1.50000000000000000000e+03) (40, 1.50000000000000000000e+03) (41, -1.00271418690681457520e-01) (42, -1.20596233755350112915e-02) (43, 3.69132822379469871521e-03) (44, 4.45306114852428436279e-03) (45, 2.95377522706985473633e-01) (46, -6.96674138307571411133e-02) (47, 1.67924948036670684814e-02) (48, -4.95851874351501464844e-01) (49, 1.50000000000000000000e+03) (50, 1.50000000000000000000e+03) (51, -4.73785400390625000000e-02) (52, -7.19288885593414306641e-02) (53, -6.63337949663400650024e-03) (54, -4.47143521159887313843e-03) (55, 1.55767172574996948242e-01) (56, -2.78951991349458694458e-02) (57, -2.06800296902656555176e-01) (58, 2.97689586877822875977e-01) (59, 1.50000000000000000000e+03) (60, 1.50000000000000000000e+03) (61, -1.85715660452842712402e-01) (62, -9.26220789551734924316e-03) (63, -1.22423268854618072510e-01) (64, 1.65673866868019104004e-01) (65, -8.27409606426954269409e-03) (66, -7.19514042139053344727e-02) (67, -1.82956188917160034180e-01) (68, -5.68191800266504287720e-03) (69, 1.50000000000000000000e+03) (70, 1.50000000000000000000e+03) (71, -3.98417972028255462646e-02) (72, -7.32375234365463256836e-02) (73, -1.38205781579017639160e-01) (74, -1.74664497375488281250e-01) (75, -4.71958339214324951172e-01) (76, -1.20395556092262268066e-01) (77, -1.81503787636756896973e-01) (78, -1.79094389081001281738e-01) (79, 1.50000000000000000000e+03) (80, 1.50000000000000000000e+03) (81, -2.24079146981239318848e-01) (82, -1.62007629871368408203e-01) (83, -1.36784836649894714355e-01) (84, -1.32593540474772453308e-02) (85, -1.98078393936157226562e-01) (86, -1.43224611878395080566e-01) (87, -2.18852832913398742676e-02) (88, -2.00091645121574401855e-01) (89, 1.50000000000000000000e+03) (90, 1.50000000000000000000e+03) (91, 1.54811799526214599609e-01) (92, 1.26076579093933105469e-01) (93, -9.26722809672355651855e-02) (94, 2.88554847240447998047e-01) (95, 1.90210357308387756348e-01) (96, -8.91942754387855529785e-02) (97, 1.47816063836216926575e-02) (98, 7.16922134160995483398e-02) (99, 1.50000000000000000000e+03) (100, 1.50000000000000000000e+03) (101, -6.58661052584648132324e-02) (102, -1.22077442705631256104e-01) (103, -1.17958355695009231567e-02) (104, 4.15074914693832397461e-01) (105, -4.93148900568485260010e-02) (106, 1.88017249107360839844e-01) (107, 7.87874013185501098633e-02) (108, 1.59606859087944030762e-02) (109, 1.50000000000000000000e+03) (110, 1.50000000000000000000e+03) (111, 6.40358477830886840820e-02) (112, -9.79468375444412231445e-02) (113, -1.89861003309488296509e-02) (114, -2.60124564170837402344e-01) (115, -8.85009244084358215332e-02) (116, 3.61861974000930786133e-01) (117, -1.12215667963027954102e-01) (118, -1.98466882109642028809e-01) (119, 1.50000000000000000000e+03) (120, 1.50000000000000000000e+03) (121, -2.55639553070068359375e-01) (122, -1.38213574886322021484e-01) (123, 1.75857886672019958496e-01) (124, -6.36011064052581787109e-02) (125, -3.61507162451744079590e-02) (126, 1.75063148140907287598e-01) (127, -1.50271803140640258789e-01) (128, -2.53687471151351928711e-01) (129, 1.50000000000000000000e+03) (130, 1.50000000000000000000e+03) (131, -4.01426613330841064453e-01) (132, -4.56227697432041168213e-02) (133, 4.39113825559616088867e-02) (134, 8.95289003849029541016e-01) (135, -7.84040242433547973633e-02) (136, 1.25068187713623046875e-01) (137, -2.05198563635349273682e-02) (138, -5.76908409595489501953e-01) (139, 1.50000000000000000000e+03) (140, 1.50000000000000000000e+03) (141, 6.85142993927001953125e-01) (142, 7.19871446490287780762e-02) (143, -9.70303267240524291992e-03) (144, -4.87685166299343109131e-02) (145, -3.48600670695304870605e-02) (146, -1.08172819018363952637e-01) (147, 7.78980910778045654297e-01) (148, 2.92818635702133178711e-01) (149, 1.50000000000000000000e+03) (150, 1.50000000000000000000e+03) (151, 1.50000000000000000000e+03) (152, 1.50000000000000000000e+03) (153, 1.50000000000000000000e+03) (154, 1.50000000000000000000e+03) (155, 1.50000000000000000000e+03) (156, 1.50000000000000000000e+03) (157, 1.50000000000000000000e+03) (158, 1.50000000000000000000e+03) (159, 1.50000000000000000000e+03) (160, -8.09396356344223022461e-02) (0, 1.50000000000000000000e+03) (1, 1.50000000000000000000e+03) (2, 1.50000000000000000000e+03) (3, 1.50000000000000000000e+03) (4, 1.50000000000000000000e+03) (5, 1.50000000000000000000e+03) (6, 1.50000000000000000000e+03) (7, 1.50000000000000000000e+03) (8, 1.50000000000000000000e+03) (9, 1.50000000000000000000e+03) (10, 1.50000000000000000000e+03) (11, 1.50000000000000000000e+03) (12, 1.50000000000000000000e+03) (13, 1.50000000000000000000e+03) (14, 1.50000000000000000000e+03) (15, 1.50000000000000000000e+03) (16, 1.50000000000000000000e+03) (17, 1.50000000000000000000e+03) (18, 1.50000000000000000000e+03) (19, 1.50000000000000000000e+03) (20, 1.50000000000000000000e+03) (21, 1.50000000000000000000e+03) (22, 7.71357774734497070312e-01) (23, 8.39812755584716796875e-01) (24, 3.56843829154968261719e-01) (25, 8.57600033283233642578e-01) (26, 2.11916446685791015625e+00) (27, 1.15299761295318603516e+00) (28, 2.89450496435165405273e-01) (29, 1.50000000000000000000e+03) (30, 1.50000000000000000000e+03) (31, -1.78095698356628417969e+00) (32, 2.49321207404136657715e-01) (33, 2.24871918559074401855e-01) (34, 3.11957120895385742188e-01) (35, 4.11433279514312744141e-01) (36, 1.96041032671928405762e-01) (37, 4.16020959615707397461e-01) (38, 7.44465291500091552734e-01) (39, 1.50000000000000000000e+03) (40, 1.50000000000000000000e+03) (41, 3.79024207592010498047e-01) (42, 4.29395705461502075195e-01) (43, 3.22841078042984008789e-01) (44, 3.08815747499465942383e-01) (45, 8.43998491764068603516e-01) (46, -5.76286852359771728516e-01) (47, 3.34500491619110107422e-01) (48, 5.39219021797180175781e-01) (49, 1.50000000000000000000e+03) (50, 1.50000000000000000000e+03) (51, 4.95415747165679931641e-01) (52, 4.45276528596878051758e-01) (53, 3.84664297103881835938e-01) (54, -2.66879528760910034180e-01) (55, 4.04148101806640625000e-02) (56, 3.67839545011520385742e-01) (57, 3.70053499937057495117e-01) (58, -3.11009597778320312500e+00) (59, 1.50000000000000000000e+03) (60, 1.50000000000000000000e+03) (61, 5.11666417121887207031e-01) (62, 2.73415058851242065430e-01) (63, 3.32045644521713256836e-01) (64, 3.02242070436477661133e-01) (65, 3.54508101940155029297e-01) (66, 1.40923440456390380859e-01) (67, 3.15261632204055786133e-01) (68, 2.55047887563705444336e-01) (69, 1.50000000000000000000e+03) (70, 1.50000000000000000000e+03) (71, 3.44018816947937011719e-01) (72, 3.25650513172149658203e-01) (73, 5.13162732124328613281e-01) (74, 3.26940357685089111328e-01) (75, -6.04873895645141601562e-01) (76, 3.48691523075103759766e-01) (77, 3.64984363317489624023e-01) (78, 4.91933435201644897461e-01) (79, 1.50000000000000000000e+03) (80, 1.50000000000000000000e+03) (81, 2.98357814550399780273e-01) (82, 3.15399169921875000000e-01) (83, 3.78384947776794433594e-01) (84, -1.76153015345335006714e-02) (85, 2.46015891432762145996e-01) (86, -8.66741478443145751953e-01) (87, 4.18171316385269165039e-01) (88, 3.42536568641662597656e-01) (89, 1.50000000000000000000e+03) (90, 1.50000000000000000000e+03) (91, 3.46884787082672119141e-01) (92, 3.36474150419235229492e-01) (93, 3.10844153165817260742e-01) (94, 8.63341033458709716797e-01) (95, 8.33051443099975585938e-01) (96, 3.91966372728347778320e-01) (97, 3.34398061037063598633e-01) (98, 6.88583999872207641602e-02) (99, 1.50000000000000000000e+03) (100, 1.50000000000000000000e+03) (101, 4.07953739166259765625e-01) (102, 4.75561708211898803711e-01) (103, 2.87649542093276977539e-01) (104, 6.67438566684722900391e-01) (105, 2.85729527473449707031e-01) (106, 4.32324558496475219727e-01) (107, 2.58727729320526123047e-01) (108, 5.46547532081604003906e-01) (109, 1.50000000000000000000e+03) (110, 1.50000000000000000000e+03) (111, 2.67516255378723144531e-01) (112, 2.84492492675781250000e-01) (113, 3.19991916418075561523e-01) (114, 1.98732689023017883301e-01) (115, 3.47555935382843017578e-01) (116, 3.00053924322128295898e-01) (117, 4.09314781427383422852e-01) (118, -5.97442960739135742188e+00) (119, 1.50000000000000000000e+03) (120, 1.50000000000000000000e+03) (121, 4.14465397596359252930e-01) (122, 3.34810316562652587891e-01) (123, 2.65076160430908203125e-01) (124, 3.05355906486511230469e-01) (125, 4.40016120672225952148e-01) (126, 2.35569700598716735840e-01) (127, 4.80102747678756713867e-01) (128, -1.62849664688110351562e+00) (129, 1.50000000000000000000e+03) (130, 1.50000000000000000000e+03) (131, 4.29419994354248046875e-01) (132, 4.17549401521682739258e-01) (133, 8.28173279762268066406e-01) (134, 7.41172969341278076172e-01) (135, 4.52829092741012573242e-01) (136, 7.10901558399200439453e-01) (137, 3.82451862096786499023e-01) (138, -5.70697426795959472656e-01) (139, 1.50000000000000000000e+03) (140, 1.50000000000000000000e+03) (141, 1.18209934234619140625e+00) (142, 6.21839940547943115234e-01) (143, 6.19400203227996826172e-01) (144, 5.28670251369476318359e-01) (145, 6.26511454582214355469e-01) (146, 6.22171640396118164062e-01) (147, 1.13358235359191894531e+00) (148, 8.19865763187408447266e-01) (149, 1.50000000000000000000e+03) (150, 1.50000000000000000000e+03) (151, 1.50000000000000000000e+03) (152, 1.50000000000000000000e+03) (153, 1.50000000000000000000e+03) (154, 1.50000000000000000000e+03) (155, 1.50000000000000000000e+03) (156, 1.50000000000000000000e+03) (157, 1.50000000000000000000e+03) (158, 1.50000000000000000000e+03) (159, 1.50000000000000000000e+03) (160, 7.74989128112792968750e-01) (0, 1.50000000000000000000e+03) (1, 1.50000000000000000000e+03) (2, 1.50000000000000000000e+03) (3, 1.50000000000000000000e+03) (4, 1.50000000000000000000e+03) (5, 1.50000000000000000000e+03) (6, 1.50000000000000000000e+03) (7, 1.50000000000000000000e+03) (8, 1.50000000000000000000e+03) (9, 1.50000000000000000000e+03) (10, 1.50000000000000000000e+03) (11, 1.50000000000000000000e+03) (12, 1.50000000000000000000e+03) (13, 1.50000000000000000000e+03) (14, 1.50000000000000000000e+03) (15, 1.50000000000000000000e+03) (16, 1.50000000000000000000e+03) (17, 1.50000000000000000000e+03) (18, 1.50000000000000000000e+03) (19, 1.50000000000000000000e+03) (20, 1.50000000000000000000e+03) (21, 1.50000000000000000000e+03) (22, 5.18186509609222412109e-01) (23, 6.68704032897949218750e-01) (24, 5.46076536178588867188e-01) (25, 1.25934854149818420410e-02) (26, -9.47837531566619873047e-01) (27, -1.66273012757301330566e-01) (28, 7.75776267051696777344e-01) (29, 1.50000000000000000000e+03) (30, 1.50000000000000000000e+03) (31, -1.25047832727432250977e-01) (32, -1.07025936245918273926e-01) (33, 1.58621281385421752930e-01) (34, -1.22598521411418914795e-02) (35, 9.31579470634460449219e-02) (36, 5.99903047084808349609e-01) (37, -5.72429776191711425781e-01) (38, -3.51784586906433105469e-01) (39, 1.50000000000000000000e+03) (40, 1.50000000000000000000e+03) (41, -6.51723265647888183594e-01) (42, -7.11413025856018066406e-02) (43, -7.47966840863227844238e-02) (44, 3.32310765981674194336e-01) (45, -9.21634435653686523438e-02) (46, 2.76419818401336669922e-01) (47, 7.97454565763473510742e-02) (48, -2.73955464363098144531e-01) (49, 1.50000000000000000000e+03) (50, 1.50000000000000000000e+03) (51, -7.44331553578376770020e-02) (52, 1.85336083173751831055e-01) (53, 1.41319841146469116211e-01) (54, -2.20029637217521667480e-01) (55, 1.06641557067632675171e-02) (56, 7.32551097869873046875e-01) (57, 9.28587913513183593750e-02) (58, -8.99852037429809570312e-01) (59, 1.50000000000000000000e+03) (60, 1.50000000000000000000e+03) (61, -1.43950749188661575317e-02) (62, -1.48470774292945861816e-01) (63, 2.28703334927558898926e-01) (64, 6.68089017271995544434e-02) (65, 2.04869389533996582031e-01) (66, -1.99787735939025878906e-01) (67, 1.40493318438529968262e-01) (68, -8.74988585710525512695e-02) (69, 1.50000000000000000000e+03) (70, 1.50000000000000000000e+03) (71, -1.78505048155784606934e-01) (72, -1.06892697513103485107e-01) (73, -1.99883908033370971680e-01) (74, 4.95521932840347290039e-01) (75, -6.89158439636230468750e-01) (76, -7.80403465032577514648e-02) (77, -1.30049735307693481445e-01) (78, 6.13250434398651123047e-01) (79, 1.50000000000000000000e+03) (80, 1.50000000000000000000e+03) (81, -7.79852345585823059082e-02) (82, -6.33606612682342529297e-02) (83, -2.69939959049224853516e-01) (84, 6.48814916610717773438e-01) (85, -1.40397393703460693359e+00) (86, -1.05714356899261474609e+00) (87, 1.91791176795959472656e-01) (88, -8.80879387259483337402e-02) (89, 1.50000000000000000000e+03) (90, 1.50000000000000000000e+03) (91, -8.07168111205101013184e-02) (92, -1.67101114988327026367e-01) (93, 1.70838981866836547852e-01) (94, -2.29093089699745178223e-01) (95, -2.27223932743072509766e-01) (96, 1.17624856531620025635e-01) (97, 1.01315401494503021240e-01) (98, -4.37017567455768585205e-02) (99, 1.50000000000000000000e+03) (100, 1.50000000000000000000e+03) (101, -1.76520407199859619141e-01) (102, -3.08698117733001708984e-01) (103, -1.71617186069488525391e+00) (104, -3.12580391764640808105e-02) (105, 1.87038570642471313477e-01) (106, -3.84803637862205505371e-02) (107, -4.27429899573326110840e-02) (108, -2.31484562158584594727e-01) (109, 1.50000000000000000000e+03) (110, 1.50000000000000000000e+03) (111, -2.92836148291826248169e-02) (112, -1.35447159409523010254e-01) (113, 2.39193364977836608887e-01) (114, -1.45614027976989746094e-01) (115, -1.12134861946105957031e+00) (116, -8.33458006381988525391e-02) (117, -2.06025689840316772461e-02) (118, 1.51004642248153686523e-01) (119, 1.50000000000000000000e+03) (120, 1.50000000000000000000e+03) (121, -2.38915815949440002441e-01) (122, -1.61398395895957946777e-01) (123, 1.31266713142395019531e-01) (124, -6.18083849549293518066e-02) (125, -1.73962581157684326172e+00) (126, 5.99708333611488342285e-02) (127, -1.91175058484077453613e-01) (128, -2.34721869230270385742e-01) (129, 1.50000000000000000000e+03) (130, 1.50000000000000000000e+03) (131, 4.72779393196105957031e-01) (132, 1.50387957692146301270e-01) (133, -1.65550857782363891602e-01) (134, 1.01896703243255615234e-01) (135, 4.19218875467777252197e-02) (136, 1.40724837779998779297e-01) (137, 2.07044690847396850586e-01) (138, 5.70174992084503173828e-01) (139, 1.50000000000000000000e+03) (140, 1.50000000000000000000e+03) (141, -2.37232431769371032715e-01) (142, -8.52279216051101684570e-02) (143, -2.83331841230392456055e-01) (144, -1.37253642082214355469e-01) (145, -2.12144404649734497070e-01) (146, -1.94921538233757019043e-01) (147, -4.28115606307983398438e-01) (148, 1.22364968061447143555e-01) (149, 1.50000000000000000000e+03) (150, 1.50000000000000000000e+03) (151, 1.50000000000000000000e+03) (152, 1.50000000000000000000e+03) (153, 1.50000000000000000000e+03) (154, 1.50000000000000000000e+03) (155, 1.50000000000000000000e+03) (156, 1.50000000000000000000e+03) (157, 1.50000000000000000000e+03) (158, 1.50000000000000000000e+03) (159, 1.50000000000000000000e+03) (160, -4.58911687135696411133e-01) (0, 1.50000000000000000000e+03) (1, 1.50000000000000000000e+03) (2, 1.50000000000000000000e+03) (3, 1.50000000000000000000e+03) (4, 1.50000000000000000000e+03) (5, 1.50000000000000000000e+03) (6, 1.50000000000000000000e+03) (7, 1.50000000000000000000e+03) (8, 1.50000000000000000000e+03) (9, 1.50000000000000000000e+03) (10, 1.50000000000000000000e+03) (11, 1.50000000000000000000e+03) (12, 1.50000000000000000000e+03) (13, 1.50000000000000000000e+03) (14, 1.50000000000000000000e+03) (15, 1.50000000000000000000e+03) (16, 1.50000000000000000000e+03) (17, 1.50000000000000000000e+03) (18, 1.50000000000000000000e+03) (19, 1.50000000000000000000e+03) (20, 1.50000000000000000000e+03) (21, 1.50000000000000000000e+03) (22, 5.63230335712432861328e-01) (23, 4.46724772453308105469e-01) (24, 5.42746305465698242188e-01) (25, 3.40095013380050659180e-01) (26, -3.95077586174011230469e-01) (27, 7.54518210887908935547e-02) (28, 1.86269390583038330078e+00) (29, 1.50000000000000000000e+03) (30, 1.50000000000000000000e+03) (31, 1.50000000000000000000e+03) (32, 1.50000000000000000000e+03) (33, 6.28441095352172851562e+00) (34, 3.59064102172851562500e+01) (35, 6.59256219863891601562e-01) (36, 6.94239377975463867188e-01) (37, 6.92914962768554687500e-01) (38, 5.73838174343109130859e-01) (39, 1.50000000000000000000e+03) (40, 1.50000000000000000000e+03) (41, 1.50000000000000000000e+03) (42, 7.38298296928405761719e-01) (43, 6.34069621562957763672e-01) (44, 6.46550893783569335938e-01) (45, 6.96502268314361572266e-01) (46, 1.50000000000000000000e+03) (47, 6.12705767154693603516e-01) (48, 1.10007166862487792969e+00) (49, 1.50000000000000000000e+03) (50, 1.50000000000000000000e+03) (51, 1.50000000000000000000e+03) (52, 7.11693346500396728516e-01) (53, 1.50000000000000000000e+03) (54, 1.50000000000000000000e+03) (55, 1.43300854492187500000e+03) (56, 6.87359571456909179688e-01) (57, 6.11678898334503173828e-01) (58, 1.50000000000000000000e+03) (59, 1.50000000000000000000e+03) (60, 1.50000000000000000000e+03) (61, 1.50000000000000000000e+03) (62, 6.59174263477325439453e-01) (63, 6.67427957057952880859e-01) (64, 7.62105107307434082031e-01) (65, 6.06185197830200195312e-01) (66, 1.50000000000000000000e+03) (67, 1.50000000000000000000e+03) (68, 7.89798855781555175781e-01) (69, 1.50000000000000000000e+03) (70, 1.50000000000000000000e+03) (71, 1.50000000000000000000e+03) (72, 7.35766172409057617188e-01) (73, 6.69420778751373291016e-01) (74, 1.50000000000000000000e+03) (75, 1.50000000000000000000e+03) (76, 7.04888105392456054688e-01) (77, 6.65632486343383789062e-01) (78, 2.81153154373168945312e+00) (79, 1.50000000000000000000e+03) (80, 1.50000000000000000000e+03) (81, 3.39372372627258300781e+00) (82, 7.54226982593536376953e-01) (83, 6.83814167976379394531e-01) (84, 1.50000000000000000000e+03) (85, 1.50000000000000000000e+03) (86, 1.50000000000000000000e+03) (87, 5.97536444664001464844e-01) (88, 9.98670041561126708984e-01) (89, 1.50000000000000000000e+03) (90, 1.50000000000000000000e+03) (91, 6.47073626518249511719e-01) (92, 7.87506043910980224609e-01) (93, 6.24407231807708740234e-01) (94, 2.46574103832244873047e-01) (95, 6.63638949394226074219e-01) (96, 6.90127432346343994141e-01) (97, 5.80744266510009765625e-01) (98, 1.50000000000000000000e+03) (99, 1.50000000000000000000e+03) (100, 1.50000000000000000000e+03) (101, 1.50000000000000000000e+03) (102, 6.96105837821960449219e-01) (103, 6.32151365280151367188e-01) (104, 6.55318558216094970703e-01) (105, 7.30410635471343994141e-01) (106, 7.32186675071716308594e-01) (107, 8.36527585983276367188e-01) (108, 2.16633272171020507812e+00) (109, 1.50000000000000000000e+03) (110, 1.50000000000000000000e+03) (111, 1.50000000000000000000e+03) (112, 5.69977700710296630859e-01) (113, 5.95888197422027587891e-01) (114, 5.40072321891784667969e-01) (115, 6.15414917469024658203e-01) (116, 6.63352608680725097656e-01) (117, 6.59250736236572265625e-01) (118, 1.50000000000000000000e+03) (119, 1.50000000000000000000e+03) (120, 1.50000000000000000000e+03) (121, 1.50000000000000000000e+03) (122, 1.50000000000000000000e+03) (123, 6.96351468563079833984e-01) (124, 6.10780477523803710938e-01) (125, 6.87623262405395507812e-01) (126, 6.02997303009033203125e-01) (127, 7.12276220321655273438e-01) (128, 1.65152111053466796875e+01) (129, 1.50000000000000000000e+03) (130, 1.50000000000000000000e+03) (131, 1.12506794929504394531e+00) (132, 3.22501093149185180664e-01) (133, -3.79667691886425018311e-02) (134, 1.33678242564201354980e-01) (135, 1.79901402443647384644e-02) (136, 6.87854170799255371094e-01) (137, 9.04841184616088867188e-01) (138, 8.21414470672607421875e-01) (139, 1.50000000000000000000e+03) (140, 1.50000000000000000000e+03) (141, 2.02890142798423767090e-01) (142, 4.86311435699462890625e-01) (143, 5.74277579784393310547e-01) (144, 5.16389071941375732422e-01) (145, 5.80919384956359863281e-01) (146, 5.66493749618530273438e-01) (147, 2.30197668075561523438e-01) (148, 5.53412854671478271484e-01) (149, 1.50000000000000000000e+03) (150, 1.50000000000000000000e+03) (151, 1.50000000000000000000e+03) (152, 1.50000000000000000000e+03) (153, 1.50000000000000000000e+03) (154, 1.50000000000000000000e+03) (155, 1.50000000000000000000e+03) (156, 1.50000000000000000000e+03) (157, 1.50000000000000000000e+03) (158, 1.50000000000000000000e+03) (159, 1.50000000000000000000e+03) (160, 5.48235654830932617188e-01) (0, 1.50000000000000000000e+03) (1, 1.50000000000000000000e+03) (2, 1.50000000000000000000e+03) (3, 1.50000000000000000000e+03) (4, 1.50000000000000000000e+03) (5, 1.50000000000000000000e+03) (6, 1.50000000000000000000e+03) (7, 1.50000000000000000000e+03) (8, 1.50000000000000000000e+03) (9, 1.50000000000000000000e+03) (10, 1.50000000000000000000e+03) (11, 1.50000000000000000000e+03) (12, 1.50000000000000000000e+03) (13, 1.50000000000000000000e+03) (14, 1.50000000000000000000e+03) (15, 1.50000000000000000000e+03) (16, 1.50000000000000000000e+03) (17, 1.50000000000000000000e+03) (18, 1.50000000000000000000e+03) (19, 1.50000000000000000000e+03) (20, 1.50000000000000000000e+03) (21, 1.50000000000000000000e+03) (22, 5.71406066417694091797e-01) (23, 5.12786209583282470703e-01) (24, 4.21358466148376464844e-01) (25, 5.32168328762054443359e-01) (26, -3.39554160833358764648e-01) (27, -3.43694388866424560547e-02) (28, 1.86423146724700927734e+00) (29, 1.50000000000000000000e+03) (30, 1.50000000000000000000e+03) (31, 1.50000000000000000000e+03) (32, 1.50000000000000000000e+03) (33, 6.15311813354492187500e+00) (34, 3.58286743164062500000e+01) (35, 7.53075480461120605469e-01) (36, 6.48426353931427001953e-01) (37, 7.25840926170349121094e-01) (38, 5.56590378284454345703e-01) (39, 1.50000000000000000000e+03) (40, 1.50000000000000000000e+03) (41, 1.50000000000000000000e+03) (42, 7.13768482208251953125e-01) (43, 5.70521891117095947266e-01) (44, 6.07104957103729248047e-01) (45, 7.52591252326965332031e-01) (46, 1.50000000000000000000e+03) (47, 6.38320624828338623047e-01) (48, 9.32376623153686523438e-01) (49, 1.50000000000000000000e+03) (50, 1.50000000000000000000e+03) (51, 1.50000000000000000000e+03) (52, 5.67732036113739013672e-01) (53, 1.50000000000000000000e+03) (54, 1.50000000000000000000e+03) (55, 1.66191005706787109375e+01) (56, 5.92461109161376953125e-01) (57, 6.60295665264129638672e-01) (58, 1.50000000000000000000e+03) (59, 1.50000000000000000000e+03) (60, 1.50000000000000000000e+03) (61, 1.50000000000000000000e+03) (62, 6.84682369232177734375e-01) (63, 7.87879168987274169922e-01) (64, 8.09081256389617919922e-01) (65, 7.55521714687347412109e-01) (66, 1.50000000000000000000e+03) (67, 1.50000000000000000000e+03) (68, 7.67779767513275146484e-01) (69, 1.50000000000000000000e+03) (70, 1.50000000000000000000e+03) (71, 1.50000000000000000000e+03) (72, 7.46882498264312744141e-01) (73, 6.37602210044860839844e-01) (74, 1.50000000000000000000e+03) (75, 1.50000000000000000000e+03) (76, 7.24342882633209228516e-01) (77, 7.13283360004425048828e-01) (78, 2.77811336517333984375e+00) (79, 1.50000000000000000000e+03) (80, 1.50000000000000000000e+03) (81, 3.48134160041809082031e+00) (82, 7.32139110565185546875e-01) (83, 8.17238450050354003906e-01) (84, 1.50000000000000000000e+03) (85, 1.50000000000000000000e+03) (86, 1.50000000000000000000e+03) (87, 7.61301696300506591797e-01) (88, 1.02794837951660156250e+00) (89, 1.50000000000000000000e+03) (90, 1.50000000000000000000e+03) (91, 6.78979873657226562500e-01) (92, 8.95278155803680419922e-01) (93, 7.10697889328002929688e-01) (94, 1.98952823877334594727e-01) (95, 6.18385136127471923828e-01) (96, 7.25754678249359130859e-01) (97, 7.44934201240539550781e-01) (98, 1.50000000000000000000e+03) (99, 1.50000000000000000000e+03) (100, 1.50000000000000000000e+03) (101, 1.50000000000000000000e+03) (102, 6.67530477046966552734e-01) (103, 6.02045059204101562500e-01) (104, 5.88643431663513183594e-01) (105, 8.11281740665435791016e-01) (106, 6.42816543579101562500e-01) (107, 7.89307296276092529297e-01) (108, 2.29485344886779785156e+00) (109, 1.50000000000000000000e+03) (110, 1.50000000000000000000e+03) (111, 1.50000000000000000000e+03) (112, 7.34806716442108154297e-01) (113, 5.79539120197296142578e-01) (114, 6.57462060451507568359e-01) (115, 6.31050348281860351562e-01) (116, 6.27160608768463134766e-01) (117, 7.12826669216156005859e-01) (118, 1.50000000000000000000e+03) (119, 1.50000000000000000000e+03) (120, 1.50000000000000000000e+03) (121, 1.50000000000000000000e+03) (122, 1.50000000000000000000e+03) (123, 8.28525634765625000000e+02) (124, 6.77876949310302734375e-01) (125, 6.51330053806304931641e-01) (126, 7.11804986000061035156e-01) (127, 6.14673554897308349609e-01) (128, 1.64431037902832031250e+01) (129, 1.50000000000000000000e+03) (130, 1.50000000000000000000e+03) (131, 1.20437860488891601562e+00) (132, 6.26455843448638916016e-01) (133, 4.04938548803329467773e-01) (134, 2.44619712233543395996e-01) (135, -2.44732405990362167358e-02) (136, 5.79877257347106933594e-01) (137, 8.72214853763580322266e-01) (138, 7.36933171749114990234e-01) (139, 1.50000000000000000000e+03) (140, 1.50000000000000000000e+03) (141, 3.22147458791732788086e-01) (142, 4.71080780029296875000e-01) (143, 5.83515584468841552734e-01) (144, 6.19641423225402832031e-01) (145, 4.69117224216461181641e-01) (146, 5.57390928268432617188e-01) (147, 9.05756950378417968750e-02) (148, 4.95212435722351074219e-01) (149, 1.50000000000000000000e+03) (150, 1.50000000000000000000e+03) (151, 1.50000000000000000000e+03) (152, 1.50000000000000000000e+03) (153, 1.50000000000000000000e+03) (154, 1.50000000000000000000e+03) (155, 1.50000000000000000000e+03) (156, 1.50000000000000000000e+03) (157, 1.50000000000000000000e+03) (158, 1.50000000000000000000e+03) (159, 1.50000000000000000000e+03) (160, 6.09431028366088867188e-01) (0, 1.50000000000000000000e+03) (1, 1.50000000000000000000e+03) (2, 1.50000000000000000000e+03) (3, 1.50000000000000000000e+03) (4, 1.50000000000000000000e+03) (5, 1.50000000000000000000e+03) (6, 1.50000000000000000000e+03) (7, 1.50000000000000000000e+03) (8, 1.50000000000000000000e+03) (9, 1.50000000000000000000e+03) (10, 1.50000000000000000000e+03) (11, 1.50000000000000000000e+03) (12, 1.50000000000000000000e+03) (13, 1.50000000000000000000e+03) (14, 1.50000000000000000000e+03) (15, 1.50000000000000000000e+03) (16, 1.50000000000000000000e+03) (17, 1.50000000000000000000e+03) (18, 1.50000000000000000000e+03) (19, 1.50000000000000000000e+03) (20, 1.50000000000000000000e+03) (21, 1.50000000000000000000e+03) (22, 2.42902234196662902832e-01) (23, 2.25232183933258056641e-01) (24, -1.15536421537399291992e-01) (25, 4.32581543922424316406e-01) (26, 1.59238970279693603516e+00) (27, 6.98444724082946777344e-01) (28, -3.22346478700637817383e-01) (29, 1.50000000000000000000e+03) (30, 1.50000000000000000000e+03) (31, -1.95397540926933288574e-01) (32, -1.41425088047981262207e-01) (33, -1.53941527009010314941e-01) (34, -1.80100172758102416992e-01) (35, -2.01461344957351684570e-01) (36, -2.06238448619842529297e-01) (37, -2.10297014564275741577e-02) (38, 3.79911392927169799805e-01) (39, 1.50000000000000000000e+03) (40, 1.50000000000000000000e+03) (41, -3.08958794921636581421e-02) (42, -1.47585362195968627930e-01) (43, -1.32010638713836669922e-01) (44, -1.08757995069026947021e-01) (45, 3.96491020917892456055e-01) (46, -9.90734323859214782715e-02) (47, -1.62568241357803344727e-01) (48, 1.04935549199581146240e-01) (49, 1.50000000000000000000e+03) (50, 1.50000000000000000000e+03) (51, 7.40238884463906288147e-03) (52, -6.16366714239120483398e-02) (53, -2.09364533424377441406e-01) (54, -1.62590169906616210938e+00) (55, 1.00368849933147430420e-01) (56, -1.21828727424144744873e-01) (57, 3.38534832000732421875e-01) (58, 2.92384829372167587280e-02) (59, 1.50000000000000000000e+03) (60, 1.50000000000000000000e+03) (61, -1.04478992521762847900e-01) (62, -1.25042259693145751953e-01) (63, -1.31417214870452880859e-01) (64, -5.50851784646511077881e-02) (65, -1.07453107833862304688e-01) (66, -4.18844670057296752930e-02) (67, -1.95874691009521484375e-01) (68, -1.43724665045738220215e-01) (69, 1.50000000000000000000e+03) (70, 1.50000000000000000000e+03) (71, 2.31766089797019958496e-01) (72, -4.23095487058162689209e-02) (73, -7.28455111384391784668e-02) (74, -1.38284489512443542480e-01) (75, -3.45106095075607299805e-01) (76, -1.07626765966415405273e-01) (77, -1.94641247391700744629e-01) (78, 3.46723616123199462891e-01) (79, 1.50000000000000000000e+03) (80, 1.50000000000000000000e+03) (81, -5.50018586218357086182e-02) (82, -1.77288919687271118164e-01) (83, -1.44552648067474365234e-01) (84, -1.66764616966247558594e-01) (85, -1.85240805149078369141e-01) (86, -2.16771751642227172852e-01) (87, 7.43213156238198280334e-03) (88, -1.64506673812866210938e-01) (89, 1.50000000000000000000e+03) (90, 1.50000000000000000000e+03) (91, -6.64832293987274169922e-02) (92, -1.51557013392448425293e-01) (93, -6.48225471377372741699e-02) (94, 2.83321380615234375000e-01) (95, -4.48539890348911285400e-02) (96, -1.77344590425491333008e-01) (97, -7.62539729475975036621e-02) (98, -1.02331534028053283691e-01) (99, 1.50000000000000000000e+03) (100, 1.50000000000000000000e+03) (101, -3.75597830861806869507e-03) (102, 3.25042128562927246094e-01) (103, -3.85864228010177612305e-02) (104, 1.45688652992248535156e-01) (105, -1.92471072077751159668e-01) (106, -1.47256657481193542480e-01) (107, -1.88601344823837280273e-01) (108, 2.13520869612693786621e-01) (109, 1.50000000000000000000e+03) (110, 1.50000000000000000000e+03) (111, -5.65394014120101928711e-02) (112, -9.44492071866989135742e-02) (113, -1.47948205471038818359e-01) (114, -2.80883669853210449219e-01) (115, -3.40900532901287078857e-02) (116, -8.40828642249107360840e-02) (117, -1.43501222133636474609e-01) (118, -1.37817338109016418457e-01) (119, 1.50000000000000000000e+03) (120, 1.50000000000000000000e+03) (121, -2.01846957206726074219e-01) (122, -2.80764639377593994141e-01) (123, -7.34055340290069580078e-02) (124, -5.60996346175670623779e-02) (125, -3.95023003220558166504e-02) (126, -1.00327484309673309326e-01) (127, 3.49638551473617553711e-01) (128, 3.90444457530975341797e-01) (129, 1.50000000000000000000e+03) (130, 1.50000000000000000000e+03) (131, -4.06175479292869567871e-02) (132, 4.49753701686859130859e-02) (133, 1.35899102315306663513e-02) (134, 4.96694475412368774414e-01) (135, -1.00511178374290466309e-01) (136, 1.76984369754791259766e-01) (137, -5.01177832484245300293e-02) (138, -4.97897386550903320312e-01) (139, 1.50000000000000000000e+03) (140, 1.50000000000000000000e+03) (141, 6.68749868869781494141e-01) (142, 1.32587999105453491211e-01) (143, -1.21985517442226409912e-01) (144, -1.38715058565139770508e-01) (145, -2.11828589439392089844e-01) (146, -1.66043117642402648926e-01) (147, 7.20705211162567138672e-01) (148, 4.06113326549530029297e-01) (149, 1.50000000000000000000e+03) (150, 1.50000000000000000000e+03) (151, 1.50000000000000000000e+03) (152, 1.50000000000000000000e+03) (153, 1.50000000000000000000e+03) (154, 1.50000000000000000000e+03) (155, 1.50000000000000000000e+03) (156, 1.50000000000000000000e+03) (157, 1.50000000000000000000e+03) (158, 1.50000000000000000000e+03) (159, 1.50000000000000000000e+03) (160, 2.13131666183471679688e-01) (0, 1.50000000000000000000e+03) (1, 1.50000000000000000000e+03) (2, 1.50000000000000000000e+03) (3, 1.50000000000000000000e+03) (4, 1.50000000000000000000e+03) (5, 1.50000000000000000000e+03) (6, 1.50000000000000000000e+03) (7, 1.50000000000000000000e+03) (8, 1.50000000000000000000e+03) (9, 1.50000000000000000000e+03) (10, 1.50000000000000000000e+03) (11, 1.50000000000000000000e+03) (12, 1.50000000000000000000e+03) (13, 1.50000000000000000000e+03) (14, 1.50000000000000000000e+03) (15, 1.50000000000000000000e+03) (16, 1.50000000000000000000e+03) (17, 1.50000000000000000000e+03) (18, 1.50000000000000000000e+03) (19, 1.50000000000000000000e+03) (20, 1.50000000000000000000e+03) (21, 1.50000000000000000000e+03) (22, 2.39888861775398254395e-01) (23, 2.28316113352775573730e-01) (24, 2.16125905513763427734e-01) (25, 2.65332460403442382812e-01) (26, -7.10656866431236267090e-02) (27, 2.45687156915664672852e-01) (28, 1.19858825206756591797e+00) (29, 1.50000000000000000000e+03) (30, 1.50000000000000000000e+03) (31, 8.92110586166381835938e-01) (32, 4.16434907913208007812e+00) (33, 6.32357716560363769531e-01) (34, 2.09527269005775451660e-01) (35, 3.82182538509368896484e-01) (36, -7.42757916450500488281e-02) (37, 4.95423287153244018555e-01) (38, -7.18655660748481750488e-02) (39, 1.50000000000000000000e+03) (40, 1.50000000000000000000e+03) (41, 1.50000000000000000000e+03) (42, 2.15001165866851806641e-01) (43, 1.56726270914077758789e-01) (44, -6.40414059162139892578e-01) (45, -1.44901096820831298828e+00) (46, -7.32336044311523437500e-01) (47, 9.32000160217285156250e-01) (48, 1.95160121917724609375e+01) (49, 1.50000000000000000000e+03) (50, 1.50000000000000000000e+03) (51, 1.50000000000000000000e+03) (52, 1.17626838386058807373e-01) (53, -2.28485918045043945312e+00) (54, -1.04936494827270507812e+01) (55, -9.70894217491149902344e-01) (56, -3.50893229246139526367e-01) (57, 5.88273942470550537109e-01) (58, 1.50000000000000000000e+03) (59, 1.50000000000000000000e+03) (60, 1.50000000000000000000e+03) (61, 3.62227320671081542969e-01) (62, 2.44112432003021240234e-01) (63, 4.38528582453727722168e-02) (64, 3.45909744501113891602e-02) (65, 2.14911103248596191406e-01) (66, 1.56013071537017822266e-01) (67, 6.37421905994415283203e-01) (68, 2.44792789220809936523e-01) (69, 1.50000000000000000000e+03) (70, 1.50000000000000000000e+03) (71, 4.79240030050277709961e-01) (72, 1.37803688645362854004e-01) (73, 3.17470699548721313477e-01) (74, 4.06632006168365478516e-01) (75, 4.15048599243164062500e-01) (76, 1.36567592620849609375e+00) (77, 5.98071277141571044922e-01) (78, -2.07803773880004882812e+00) (79, 1.50000000000000000000e+03) (80, 1.50000000000000000000e+03) (81, 7.23922967910766601562e-01) (82, -9.47070196270942687988e-02) (83, -2.66583204269409179688e-01) (84, 5.53193569183349609375e-01) (85, 4.78242278099060058594e-01) (86, 5.16351938247680664062e-01) (87, 8.16061317920684814453e-01) (88, -1.41213551163673400879e-01) (89, 1.50000000000000000000e+03) (90, 1.50000000000000000000e+03) (91, 1.86127573251724243164e-01) (92, 2.53493845462799072266e-01) (93, -1.98924350738525390625e+00) (94, -5.50985336303710937500e-02) (95, -4.51445393264293670654e-02) (96, -1.87155032157897949219e+00) (97, 1.44109964370727539062e-01) (98, 2.85207748413085937500e-01) (99, 1.50000000000000000000e+03) (100, 1.50000000000000000000e+03) (101, 5.54870247840881347656e-01) (102, 2.82143145799636840820e-01) (103, 1.81020632386207580566e-01) (104, 1.11801087856292724609e-01) (105, -4.43765744566917419434e-02) (106, 6.67890012264251708984e-02) (107, 4.44605797529220581055e-01) (108, 1.67388606071472167969e+00) (109, 1.50000000000000000000e+03) (110, 1.50000000000000000000e+03) (111, 4.80945944786071777344e-01) (112, 2.21918642520904541016e-01) (113, 3.19412767887115478516e-01) (114, -7.08167403936386108398e-02) (115, -3.35139393806457519531e-01) (116, -4.01763617992401123047e-01) (117, 5.06707549095153808594e-01) (118, 1.11229562759399414062e+01) (119, 1.50000000000000000000e+03) (120, 1.50000000000000000000e+03) (121, 3.05486321449279785156e+00) (122, 6.56026184558868408203e-01) (123, 6.31803691387176513672e-01) (124, 4.49171960353851318359e-01) (125, 1.68397396802902221680e-01) (126, -1.00915789604187011719e-01) (127, -1.57384967803955078125e+00) (128, 1.63518416881561279297e+00) (129, 1.50000000000000000000e+03) (130, 1.50000000000000000000e+03) (131, 1.83394765853881835938e+00) (132, 3.63216489553451538086e-01) (133, 3.30360245704650878906e+00) (134, 3.50123310089111328125e+00) (135, 4.51406866312026977539e-01) (136, 8.72435450553894042969e-01) (137, 1.11611151695251464844e+00) (138, 1.73723995685577392578e+00) (139, 1.50000000000000000000e+03) (140, 1.50000000000000000000e+03) (141, -1.52369096875190734863e-01) (142, 1.10125124454498291016e-01) (143, 1.20610833168029785156e-01) (144, 7.83603489398956298828e-02) (145, 1.02584827691316604614e-02) (146, 1.32079616189002990723e-01) (147, -1.16809243336319923401e-02) (148, 6.38906806707382202148e-02) (149, 1.50000000000000000000e+03) (150, 1.50000000000000000000e+03) (151, 1.50000000000000000000e+03) (152, 1.50000000000000000000e+03) (153, 1.50000000000000000000e+03) (154, 1.50000000000000000000e+03) (155, 1.50000000000000000000e+03) (156, 1.50000000000000000000e+03) (157, 1.50000000000000000000e+03) (158, 1.50000000000000000000e+03) (159, 1.50000000000000000000e+03) (160, -6.97018384933471679688e-01) (0, 1.50000000000000000000e+03) (1, 1.50000000000000000000e+03) (2, 1.50000000000000000000e+03) (3, 1.50000000000000000000e+03) (4, 1.50000000000000000000e+03) (5, 1.50000000000000000000e+03) (6, 1.50000000000000000000e+03) (7, 1.50000000000000000000e+03) (8, 1.50000000000000000000e+03) (9, 1.50000000000000000000e+03) (10, 1.50000000000000000000e+03) (11, 1.50000000000000000000e+03) (12, 1.50000000000000000000e+03) (13, 1.50000000000000000000e+03) (14, 1.50000000000000000000e+03) (15, 1.50000000000000000000e+03) (16, 1.50000000000000000000e+03) (17, 1.50000000000000000000e+03) (18, 1.50000000000000000000e+03) (19, 1.50000000000000000000e+03) (20, 1.50000000000000000000e+03) (21, 1.50000000000000000000e+03) (22, 8.49566936492919921875e-01) (23, 7.77984857559204101562e-01) (24, 4.92827147245407104492e-01) (25, 9.14853036403656005859e-01) (26, 2.03674149513244628906e+00) (27, 1.23867189884185791016e+00) (28, 1.37614354491233825684e-01) (29, 1.50000000000000000000e+03) (30, 1.50000000000000000000e+03) (31, -1.74757587909698486328e+00) (32, 1.89922794699668884277e-01) (33, 1.39964267611503601074e-01) (34, 3.04665863513946533203e-01) (35, 4.37592297792434692383e-01) (36, 2.30180427432060241699e-01) (37, 4.98390585184097290039e-01) (38, 8.62386643886566162109e-01) (39, 1.50000000000000000000e+03) (40, 1.50000000000000000000e+03) (41, 2.97787845134735107422e-01) (42, 4.39254373311996459961e-01) (43, 3.14070194959640502930e-01) (44, 3.52652430534362792969e-01) (45, 8.54725837707519531250e-01) (46, -5.05187273025512695312e-01) (47, 4.20171797275543212891e-01) (48, 6.45656824111938476562e-01) (49, 1.50000000000000000000e+03) (50, 1.50000000000000000000e+03) (51, 5.25379419326782226562e-01) (52, 4.40900653600692749023e-01) (53, 2.49283388257026672363e-01) (54, -4.81958419084548950195e-01) (55, 1.38360828161239624023e-01) (56, 2.79725790023803710938e-01) (57, 4.55899745225906372070e-01) (58, -3.05755281448364257812e+00) (59, 1.50000000000000000000e+03) (60, 1.50000000000000000000e+03) (61, 4.22152727842330932617e-01) (62, 2.80532449483871459961e-01) (63, 3.50363880395889282227e-01) (64, 3.85800898075103759766e-01) (65, 3.54564666748046875000e-01) (66, 4.33888047933578491211e-01) (67, 4.26319152116775512695e-01) (68, 4.78199452161788940430e-01) (69, 1.50000000000000000000e+03) (70, 1.50000000000000000000e+03) (71, 4.28929954767227172852e-01) (72, 2.84109532833099365234e-01) (73, 4.07410830259323120117e-01) (74, 4.02373045682907104492e-01) (75, -8.17472457885742187500e-01) (76, 4.51619178056716918945e-01) (77, 3.00383359193801879883e-01) (78, 6.67978823184967041016e-01) (79, 1.50000000000000000000e+03) (80, 1.50000000000000000000e+03) (81, 5.63738048076629638672e-01) (82, 2.84241437911987304688e-01) (83, 3.30340236425399780273e-01) (84, 2.61981427669525146484e-01) (85, 2.62504100799560546875e-01) (86, -7.93900787830352783203e-01) (87, 3.70467185974121093750e-01) (88, 4.13657665252685546875e-01) (89, 1.50000000000000000000e+03) (90, 1.50000000000000000000e+03) (91, 4.36046868562698364258e-01) (92, 2.63481408357620239258e-01) (93, 4.43587511777877807617e-01) (94, 7.70792365074157714844e-01) (95, 8.43617618083953857422e-01) (96, 3.24731111526489257812e-01) (97, 2.86072283983230590820e-01) (98, 8.32172110676765441895e-02) (99, 1.50000000000000000000e+03) (100, 1.50000000000000000000e+03) (101, 3.11837852001190185547e-01) (102, 3.75501126050949096680e-01) (103, 3.57915788888931274414e-01) (104, 5.62722146511077880859e-01) (105, 2.61394560337066650391e-01) (106, 3.07704955339431762695e-01) (107, 2.56893754005432128906e-01) (108, 4.57570821046829223633e-01) (109, 1.50000000000000000000e+03) (110, 1.50000000000000000000e+03) (111, 1.52195751667022705078e-01) (112, 3.00030469894409179688e-01) (113, 4.01685684919357299805e-01) (114, 2.50709533691406250000e-01) (115, 3.93464952707290649414e-01) (116, 2.87367880344390869141e-01) (117, 3.55474084615707397461e-01) (118, -5.77721929550170898438e+00) (119, 1.50000000000000000000e+03) (120, 1.50000000000000000000e+03) (121, 3.41005295515060424805e-01) (122, 2.42612108588218688965e-01) (123, 2.58313447237014770508e-01) (124, 3.63229095935821533203e-01) (125, 4.55761104822158813477e-01) (126, 2.42361739277839660645e-01) (127, 4.70961958169937133789e-01) (128, -1.43802976608276367188e+00) (129, 1.50000000000000000000e+03) (130, 1.50000000000000000000e+03) (131, 1.95161089301109313965e-01) (132, 3.47794651985168457031e-01) (133, 7.23483502864837646484e-01) (134, 8.56763720512390136719e-01) (135, 4.45644706487655639648e-01) (136, 6.19367480278015136719e-01) (137, 4.22891944646835327148e-01) (138, 7.91189298033714294434e-02) (139, 1.50000000000000000000e+03) (140, 1.50000000000000000000e+03) (141, 1.13134300708770751953e+00) (142, 6.98268055915832519531e-01) (143, 5.10544657707214355469e-01) (144, 5.59609055519104003906e-01) (145, 5.54941833019256591797e-01) (146, 5.59225142002105712891e-01) (147, 1.17156910896301269531e+00) (148, 9.00165498256683349609e-01) (149, 1.50000000000000000000e+03) (150, 1.50000000000000000000e+03) (151, 1.50000000000000000000e+03) (152, 1.50000000000000000000e+03) (153, 1.50000000000000000000e+03) (154, 1.50000000000000000000e+03) (155, 1.50000000000000000000e+03) (156, 1.50000000000000000000e+03) (157, 1.50000000000000000000e+03) (158, 1.50000000000000000000e+03) (159, 1.50000000000000000000e+03) (160, 2.93094158172607421875e-01) (0, 1.50000000000000000000e+03) (1, 1.50000000000000000000e+03) (2, 1.50000000000000000000e+03) (3, 1.50000000000000000000e+03) (4, 1.50000000000000000000e+03) (5, 1.50000000000000000000e+03) (6, 1.50000000000000000000e+03) (7, 1.50000000000000000000e+03) (8, 1.50000000000000000000e+03) (9, 1.50000000000000000000e+03) (10, 1.50000000000000000000e+03) (11, 1.50000000000000000000e+03) (12, 1.50000000000000000000e+03) (13, 1.50000000000000000000e+03) (14, 1.50000000000000000000e+03) (15, 1.50000000000000000000e+03) (16, 1.50000000000000000000e+03) (17, 1.50000000000000000000e+03) (18, 1.50000000000000000000e+03) (19, 1.50000000000000000000e+03) (20, 1.50000000000000000000e+03) (21, 1.50000000000000000000e+03) (22, 7.98382043838500976562e-01) (23, 7.48743414878845214844e-01) (24, 3.80936324596405029297e-01) (25, 9.88217532634735107422e-01) (26, 2.01973605155944824219e+00) (27, 1.21471762657165527344e+00) (28, 2.27731317281723022461e-01) (29, 1.50000000000000000000e+03) (30, 1.50000000000000000000e+03) (31, -1.61662256717681884766e+00) (32, 3.06111931800842285156e-01) (33, 2.50355631113052368164e-01) (34, 3.02603125572204589844e-01) (35, 3.55303853750228881836e-01) (36, 3.13739567995071411133e-01) (37, 3.18481415510177612305e-01) (38, 7.96706855297088623047e-01) (39, 1.50000000000000000000e+03) (40, 1.50000000000000000000e+03) (41, 1.05788804590702056885e-01) (42, 4.68115657567977905273e-01) (43, 4.11192566156387329102e-01) (44, 3.33188861608505249023e-01) (45, 8.63561809062957763672e-01) (46, -4.76323068141937255859e-01) (47, 4.08525615930557250977e-01) (48, 5.11341333389282226562e-01) (49, 1.50000000000000000000e+03) (50, 1.50000000000000000000e+03) (51, 4.45883989334106445312e-01) (52, 3.11823934316635131836e-01) (53, 3.54240715503692626953e-01) (54, -1.98041439056396484375e-01) (55, 1.09103620052337646484e-01) (56, 2.87169307470321655273e-01) (57, 3.29730242490768432617e-01) (58, -2.91519403457641601562e+00) (59, 1.50000000000000000000e+03) (60, 1.50000000000000000000e+03) (61, 4.24390435218811035156e-01) (62, 4.06164199113845825195e-01) (63, 2.93341726064682006836e-01) (64, 2.40932956337928771973e-01) (65, 2.78592944145202636719e-01) (66, 4.99634891748428344727e-01) (67, 3.68333190679550170898e-01) (68, 3.87414366006851196289e-01) (69, 1.50000000000000000000e+03) (70, 1.50000000000000000000e+03) (71, 4.31392878293991088867e-01) (72, 4.64490443468093872070e-01) (73, 3.98341089487075805664e-01) (74, 2.98254281282424926758e-01) (75, -2.09062367677688598633e-01) (76, 4.52092260122299194336e-01) (77, 3.69591683149337768555e-01) (78, 5.51452815532684326172e-01) (79, 1.50000000000000000000e+03) (80, 1.50000000000000000000e+03) (81, 3.10665100812911987305e-01) (82, 3.34652930498123168945e-01) (83, 3.39516937732696533203e-01) (84, 1.59365907311439514160e-01) (85, 1.56762659549713134766e-01) (86, -2.91964602470397949219e+00) (87, 3.16572517156600952148e-01) (88, 1.71391796320676803589e-02) (89, 1.50000000000000000000e+03) (90, 1.50000000000000000000e+03) (91, 2.86502301692962646484e-01) (92, 2.71588236093521118164e-01) (93, 3.90886574983596801758e-01) (94, 7.64254689216613769531e-01) (95, 7.06851840019226074219e-01) (96, 5.39934992790222167969e-01) (97, 3.40319603681564331055e-01) (98, 1.88960805535316467285e-01) (99, 1.50000000000000000000e+03) (100, 1.50000000000000000000e+03) (101, 2.84276127815246582031e-01) (102, 3.93534928560256958008e-01) (103, 3.57914894819259643555e-01) (104, 5.27367532253265380859e-01) (105, 4.16226655244827270508e-01) (106, 2.90008455514907836914e-01) (107, 2.22025707364082336426e-01) (108, 3.45673710107803344727e-01) (109, 1.50000000000000000000e+03) (110, 1.50000000000000000000e+03) (111, 2.79507786035537719727e-01) (112, 4.16433125734329223633e-01) (113, 3.63470703363418579102e-01) (114, 1.89348176121711730957e-01) (115, 4.70653146505355834961e-01) (116, 4.22192364931106567383e-01) (117, 2.69902378320693969727e-01) (118, -5.76213407516479492188e+00) (119, 1.50000000000000000000e+03) (120, 1.50000000000000000000e+03) (121, 4.81084406375885009766e-01) (122, 2.28235498070716857910e-01) (123, 2.75647193193435668945e-01) (124, 3.55550944805145263672e-01) (125, 4.68407779932022094727e-01) (126, 3.27460080385208129883e-01) (127, 3.34592401981353759766e-01) (128, -1.62555503845214843750e+00) (129, 1.50000000000000000000e+03) (130, 1.50000000000000000000e+03) (131, 2.66898348927497863770e-02) (132, 4.12686884403228759766e-01) (133, 8.16862225532531738281e-01) (134, 1.05063366889953613281e+00) (135, 6.46243572235107421875e-01) (136, 6.34965717792510986328e-01) (137, 2.58182018995285034180e-01) (138, 6.83710277080535888672e-02) (139, 1.50000000000000000000e+03) (140, 1.50000000000000000000e+03) (141, 1.03121221065521240234e+00) (142, 6.28953576087951660156e-01) (143, 5.29965758323669433594e-01) (144, 6.21267437934875488281e-01) (145, 6.24235987663269042969e-01) (146, 6.55770301818847656250e-01) (147, 1.14463353157043457031e+00) (148, 8.78189623355865478516e-01) (149, 1.50000000000000000000e+03) (150, 1.50000000000000000000e+03) (151, 1.50000000000000000000e+03) (152, 1.50000000000000000000e+03) (153, 1.50000000000000000000e+03) (154, 1.50000000000000000000e+03) (155, 1.50000000000000000000e+03) (156, 1.50000000000000000000e+03) (157, 1.50000000000000000000e+03) (158, 1.50000000000000000000e+03) (159, 1.50000000000000000000e+03) (160, 2.85285115242004394531e-01) (0, 1.50000000000000000000e+03) (1, 1.50000000000000000000e+03) (2, 1.50000000000000000000e+03) (3, 1.50000000000000000000e+03) (4, 1.50000000000000000000e+03) (5, 1.50000000000000000000e+03) (6, 1.50000000000000000000e+03) (7, 1.50000000000000000000e+03) (8, 1.50000000000000000000e+03) (9, 1.50000000000000000000e+03) (10, 1.50000000000000000000e+03) (11, 1.50000000000000000000e+03) (12, 1.50000000000000000000e+03) (13, 1.50000000000000000000e+03) (14, 1.50000000000000000000e+03) (15, 1.50000000000000000000e+03) (16, 1.50000000000000000000e+03) (17, 1.50000000000000000000e+03) (18, 1.50000000000000000000e+03) (19, 1.50000000000000000000e+03) (20, 1.50000000000000000000e+03) (21, 1.50000000000000000000e+03) (22, 7.49547362327575683594e-01) (23, 7.74102568626403808594e-01) (24, 5.20158469676971435547e-01) (25, 8.96521151065826416016e-01) (26, 2.11798977851867675781e+00) (27, 1.31436669826507568359e+00) (28, 1.56857416033744812012e-01) (29, 1.50000000000000000000e+03) (30, 1.50000000000000000000e+03) (31, -1.73218762874603271484e+00) (32, 2.69798755645751953125e-01) (33, 2.04775705933570861816e-01) (34, 3.31352114677429199219e-01) (35, 3.31614166498184204102e-01) (36, 3.59833896160125732422e-01) (37, 3.58026236295700073242e-01) (38, 7.90462255477905273438e-01) (39, 1.50000000000000000000e+03) (40, 1.50000000000000000000e+03) (41, 3.29618096351623535156e-01) (42, 3.91760438680648803711e-01) (43, 4.13563996553421020508e-01) (44, 2.76553750038146972656e-01) (45, 8.37553620338439941406e-01) (46, -8.65885078907012939453e-01) (47, 4.19011622667312622070e-01) (48, 4.94835942983627319336e-01) (49, 1.50000000000000000000e+03) (50, 1.50000000000000000000e+03) (51, 5.87168693542480468750e-01) (52, 3.10406953096389770508e-01) (53, 2.99803316593170166016e-01) (54, -1.84491902589797973633e-01) (55, 1.03977672755718231201e-01) (56, 3.56499761343002319336e-01) (57, 3.82689505815505981445e-01) (58, -3.01676321029663085938e+00) (59, 1.50000000000000000000e+03) (60, 1.50000000000000000000e+03) (61, 4.18879628181457519531e-01) (62, 4.20807689428329467773e-01) (63, 3.13994616270065307617e-01) (64, 3.87021809816360473633e-01) (65, 3.19802582263946533203e-01) (66, 4.87041383981704711914e-01) (67, 3.61779481172561645508e-01) (68, 4.68658536672592163086e-01) (69, 1.50000000000000000000e+03) (70, 1.50000000000000000000e+03) (71, 3.67742538452148437500e-01) (72, 4.58461672067642211914e-01) (73, 4.50656622648239135742e-01) (74, 3.62909018993377685547e-01) (75, -1.91393658518791198730e-01) (76, 2.77240157127380371094e-01) (77, 3.26751381158828735352e-01) (78, 5.01815795898437500000e-01) (79, 1.50000000000000000000e+03) (80, 1.50000000000000000000e+03) (81, 2.56140559911727905273e-01) (82, 2.86077708005905151367e-01) (83, 1.38978868722915649414e-01) (84, 1.17758266627788543701e-01) (85, 2.83767670392990112305e-01) (86, -2.21404552459716796875e+00) (87, 4.65934962034225463867e-01) (88, -4.75983917713165283203e-01) (89, 1.50000000000000000000e+03) (90, 1.50000000000000000000e+03) (91, 3.01639735698699951172e-01) (92, 3.28970938920974731445e-01) (93, 3.40476661920547485352e-01) (94, 8.00045013427734375000e-01) (95, 7.10327863693237304688e-01) (96, 5.30734717845916748047e-01) (97, 3.72669965028762817383e-01) (98, 1.95432558655738830566e-01) (99, 1.50000000000000000000e+03) (100, 1.50000000000000000000e+03) (101, 4.07671272754669189453e-01) (102, 4.01458531618118286133e-01) (103, 4.04235005378723144531e-01) (104, 5.01958549022674560547e-01) (105, 3.62726628780364990234e-01) (106, 4.74327892065048217773e-01) (107, 2.21810325980186462402e-01) (108, 4.49539870023727416992e-01) (109, 1.50000000000000000000e+03) (110, 1.50000000000000000000e+03) (111, 1.53023302555084228516e-01) (112, 2.94341564178466796875e-01) (113, 3.37215989828109741211e-01) (114, 2.31040552258491516113e-01) (115, 5.33354997634887695312e-01) (116, 2.97465175390243530273e-01) (117, 2.78637617826461791992e-01) (118, -5.84074926376342773438e+00) (119, 1.50000000000000000000e+03) (120, 1.50000000000000000000e+03) (121, 2.41649702191352844238e-01) (122, 2.80951559543609619141e-01) (123, 4.10025238990783691406e-01) (124, 3.60793650150299072266e-01) (125, 3.23309600353240966797e-01) (126, 2.62741297483444213867e-01) (127, 3.30634832382202148438e-01) (128, -1.50468492507934570312e+00) (129, 1.50000000000000000000e+03) (130, 1.50000000000000000000e+03) (131, -1.37841198593378067017e-02) (132, 4.67303365468978881836e-01) (133, 8.26486229896545410156e-01) (134, 8.71684670448303222656e-01) (135, 6.34242713451385498047e-01) (136, 6.29721105098724365234e-01) (137, 2.61968195438385009766e-01) (138, -1.02924838662147521973e-01) (139, 1.50000000000000000000e+03) (140, 1.50000000000000000000e+03) (141, 1.08224284648895263672e+00) (142, 6.28436684608459472656e-01) (143, 5.44343888759613037109e-01) (144, 6.46042168140411376953e-01) (145, 6.65432095527648925781e-01) (146, 6.41305863857269287109e-01) (147, 1.24879360198974609375e+00) (148, 7.28117823600769042969e-01) (149, 1.50000000000000000000e+03) (150, 1.50000000000000000000e+03) (151, 1.50000000000000000000e+03) (152, 1.50000000000000000000e+03) (153, 1.50000000000000000000e+03) (154, 1.50000000000000000000e+03) (155, 1.50000000000000000000e+03) (156, 1.50000000000000000000e+03) (157, 1.50000000000000000000e+03) (158, 1.50000000000000000000e+03) (159, 1.50000000000000000000e+03) (160, 4.06978875398635864258e-01) (0, 1.50000000000000000000e+03) (1, 1.50000000000000000000e+03) (2, 1.50000000000000000000e+03) (3, 1.50000000000000000000e+03) (4, 1.50000000000000000000e+03) (5, 1.50000000000000000000e+03) (6, 1.50000000000000000000e+03) (7, 1.50000000000000000000e+03) (8, 1.50000000000000000000e+03) (9, 1.50000000000000000000e+03) (10, 1.50000000000000000000e+03) (11, 1.50000000000000000000e+03) (12, 1.50000000000000000000e+03) (13, 1.50000000000000000000e+03) (14, 1.50000000000000000000e+03) (15, 1.50000000000000000000e+03) (16, 1.50000000000000000000e+03) (17, 1.50000000000000000000e+03) (18, 1.50000000000000000000e+03) (19, 1.50000000000000000000e+03) (20, 1.50000000000000000000e+03) (21, 1.50000000000000000000e+03) (22, 5.12484490871429443359e-01) (23, 4.82068300247192382812e-01) (24, 5.95431625843048095703e-01) (25, 3.57305139303207397461e-01) (26, -4.93759304285049438477e-01) (27, 4.45904284715652465820e-02) (28, 2.01756238937377929688e+00) (29, 1.50000000000000000000e+03) (30, 1.50000000000000000000e+03) (31, 1.50000000000000000000e+03) (32, 1.50000000000000000000e+03) (33, 6.20628881454467773438e+00) (34, 3.59387588500976562500e+01) (35, 6.52088105678558349609e-01) (36, 8.22504997253417968750e-01) (37, 5.81483125686645507812e-01) (38, 5.27133643627166748047e-01) (39, 1.50000000000000000000e+03) (40, 1.50000000000000000000e+03) (41, 1.50000000000000000000e+03) (42, 5.99969804286956787109e-01) (43, 6.46004140377044677734e-01) (44, 7.92528212070465087891e-01) (45, 6.77377462387084960938e-01) (46, 1.50000000000000000000e+03) (47, 7.61584341526031494141e-01) (48, 9.90660905838012695312e-01) (49, 1.50000000000000000000e+03) (50, 1.50000000000000000000e+03) (51, 1.50000000000000000000e+03) (52, 5.85921645164489746094e-01) (53, 1.50000000000000000000e+03) (54, 1.50000000000000000000e+03) (55, 1.50000000000000000000e+03) (56, 7.73378193378448486328e-01) (57, 6.97458624839782714844e-01) (58, 1.50000000000000000000e+03) (59, 1.50000000000000000000e+03) (60, 1.50000000000000000000e+03) (61, 1.50000000000000000000e+03) (62, 6.67446315288543701172e-01) (63, 7.58824169635772705078e-01) (64, 6.84408724308013916016e-01) (65, 6.45851135253906250000e-01) (66, 1.50000000000000000000e+03) (67, 1.50000000000000000000e+03) (68, 7.33561873435974121094e-01) (69, 1.50000000000000000000e+03) (70, 1.50000000000000000000e+03) (71, 1.50000000000000000000e+03) (72, 5.63879728317260742188e-01) (73, 7.59029150009155273438e-01) (74, 1.50000000000000000000e+03) (75, 1.50000000000000000000e+03) (76, 7.28569626808166503906e-01) (77, 6.40235841274261474609e-01) (78, 2.84446310997009277344e+00) (79, 1.50000000000000000000e+03) (80, 1.50000000000000000000e+03) (81, 3.40999007225036621094e+00) (82, 6.17648661136627197266e-01) (83, 6.16852402687072753906e-01) (84, 1.50000000000000000000e+03) (85, 1.50000000000000000000e+03) (86, 1.50000000000000000000e+03) (87, 6.92750155925750732422e-01) (88, 9.32170093059539794922e-01) (89, 1.50000000000000000000e+03) (90, 1.50000000000000000000e+03) (91, 6.93122446537017822266e-01) (92, 9.41963732242584228516e-01) (93, 5.64223289489746093750e-01) (94, 1.84050321578979492188e-01) (95, 5.40400326251983642578e-01) (96, 6.69609427452087402344e-01) (97, 5.99409461021423339844e-01) (98, 1.50000000000000000000e+03) (99, 1.50000000000000000000e+03) (100, 1.50000000000000000000e+03) (101, 1.50000000000000000000e+03) (102, 6.97167396545410156250e-01) (103, 7.13445603847503662109e-01) (104, 5.10625422000885009766e-01) (105, 7.95585870742797851562e-01) (106, 6.97531342506408691406e-01) (107, 9.15515601634979248047e-01) (108, 2.20611000061035156250e+00) (109, 1.50000000000000000000e+03) (110, 1.50000000000000000000e+03) (111, 1.50000000000000000000e+03) (112, 7.16571927070617675781e-01) (113, 6.52078807353973388672e-01) (114, 6.15290582180023193359e-01) (115, 6.43698573112487792969e-01) (116, 5.74619293212890625000e-01) (117, 7.45428740978240966797e-01) (118, 1.50000000000000000000e+03) (119, 1.50000000000000000000e+03) (120, 1.50000000000000000000e+03) (121, 1.50000000000000000000e+03) (122, 1.50000000000000000000e+03) (123, 1.50000000000000000000e+03) (124, 7.41294443607330322266e-01) (125, 7.19800591468811035156e-01) (126, 3.57830566406250000000e+02) (127, 6.17497861385345458984e-01) (128, 1.63555946350097656250e+01) (129, 1.50000000000000000000e+03) (130, 1.50000000000000000000e+03) (131, 1.21127116680145263672e+00) (132, 5.67659914493560791016e-01) (133, 3.46033990383148193359e-01) (134, 5.34589111804962158203e-01) (135, 1.75373209640383720398e-03) (136, 4.21802788972854614258e-01) (137, 8.45222830772399902344e-01) (138, 7.31494963169097900391e-01) (139, 1.50000000000000000000e+03) (140, 1.50000000000000000000e+03) (141, 3.05428594350814819336e-01) (142, 5.17604112625122070312e-01) (143, 6.59351289272308349609e-01) (144, 4.75601196289062500000e-01) (145, 6.40247106552124023438e-01) (146, 6.11126959323883056641e-01) (147, 9.40190181136131286621e-02) (148, 4.98917162418365478516e-01) (149, 1.50000000000000000000e+03) (150, 1.50000000000000000000e+03) (151, 1.50000000000000000000e+03) (152, 1.50000000000000000000e+03) (153, 1.50000000000000000000e+03) (154, 1.50000000000000000000e+03) (155, 1.50000000000000000000e+03) (156, 1.50000000000000000000e+03) (157, 1.50000000000000000000e+03) (158, 1.50000000000000000000e+03) (159, 1.50000000000000000000e+03) (160, 6.14756047725677490234e-01) (0, 1.50000000000000000000e+03) (1, 1.50000000000000000000e+03) (2, 1.50000000000000000000e+03) (3, 1.50000000000000000000e+03) (4, 1.50000000000000000000e+03) (5, 1.50000000000000000000e+03) (6, 1.50000000000000000000e+03) (7, 1.50000000000000000000e+03) (8, 1.50000000000000000000e+03) (9, 1.50000000000000000000e+03) (10, 1.50000000000000000000e+03) (11, 1.50000000000000000000e+03) (12, 1.50000000000000000000e+03) (13, 1.50000000000000000000e+03) (14, 1.50000000000000000000e+03) (15, 1.50000000000000000000e+03) (16, 1.50000000000000000000e+03) (17, 1.50000000000000000000e+03) (18, 1.50000000000000000000e+03) (19, 1.50000000000000000000e+03) (20, 1.50000000000000000000e+03) (21, 1.50000000000000000000e+03) (22, 2.75875419378280639648e-01) (23, 2.98073977231979370117e-01) (24, -1.28033250570297241211e-01) (25, 4.95181381702423095703e-01) (26, 1.63518750667572021484e+00) (27, 7.19272792339324951172e-01) (28, -4.04084891080856323242e-01) (29, 1.50000000000000000000e+03) (30, 1.50000000000000000000e+03) (31, -9.99236851930618286133e-02) (32, -2.56518602371215820312e-01) (33, -1.45127922296524047852e-01) (34, -1.78246706724166870117e-01) (35, -1.09017096459865570068e-01) (36, -1.82678982615470886230e-01) (37, -1.86298638582229614258e-01) (38, 3.26962411403656005859e-01) (39, 1.50000000000000000000e+03) (40, 1.50000000000000000000e+03) (41, -4.83443588018417358398e-02) (42, -1.44739061594009399414e-01) (43, -1.38568177819252014160e-01) (44, -1.62981837987899780273e-01) (45, 2.97282814979553222656e-01) (46, -1.72968402504920959473e-01) (47, -1.68429777026176452637e-01) (48, -3.29802006483078002930e-01) (49, 1.50000000000000000000e+03) (50, 1.50000000000000000000e+03) (51, -7.51838311553001403809e-02) (52, -1.39245629310607910156e-01) (53, -1.64104238152503967285e-01) (54, -1.33947268128395080566e-01) (55, -3.40714082121849060059e-02) (56, -2.63111680746078491211e-01) (57, -1.09660118818283081055e-01) (58, 8.44272673130035400391e-02) (59, 1.50000000000000000000e+03) (60, 1.50000000000000000000e+03) (61, -1.26128703355789184570e-01) (62, -4.29771766066551208496e-02) (63, -2.27600589394569396973e-01) (64, -4.21416312456130981445e-02) (65, -5.33328624442219734192e-03) (66, -7.65838399529457092285e-02) (67, -3.08017823845148086548e-02) (68, -4.19036448001861572266e-02) (69, 1.50000000000000000000e+03) (70, 1.50000000000000000000e+03) (71, -9.96697917580604553223e-02) (72, -1.38671785593032836914e-01) (73, -7.80332833528518676758e-02) (74, -6.74619898200035095215e-02) (75, -8.43552425503730773926e-02) (76, 3.11908483505249023438e-01) (77, -3.50239835679531097412e-02) (78, 7.47943744063377380371e-02) (79, 1.50000000000000000000e+03) (80, 1.50000000000000000000e+03) (81, -1.98419466614723205566e-01) (82, -9.47455018758773803711e-02) (83, -1.39539428055286407471e-02) (84, 1.51867875829339027405e-02) (85, -1.14431656897068023682e-01) (86, -1.37694254517555236816e-01) (87, -1.11296363174915313721e-02) (88, -1.23472530394792556763e-02) (89, 1.50000000000000000000e+03) (90, 1.50000000000000000000e+03) (91, -6.41717016696929931641e-02) (92, -2.04520791769027709961e-01) (93, -2.00978040695190429688e-01) (94, 3.78932535648345947266e-01) (95, -1.05224631726741790771e-01) (96, -2.88465991616249084473e-02) (97, -1.32197916507720947266e-01) (98, -4.89866212010383605957e-02) (99, 1.50000000000000000000e+03) (100, 1.50000000000000000000e+03) (101, -9.89394709467887878418e-02) (102, -1.50233477354049682617e-01) (103, -9.05305072665214538574e-02) (104, 3.52706164121627807617e-02) (105, -4.85861040651798248291e-02) (106, -1.39253035187721252441e-01) (107, -3.35088633000850677490e-02) (108, -4.05524708330631256104e-02) (109, 1.50000000000000000000e+03) (110, 1.50000000000000000000e+03) (111, -1.78414151072502136230e-01) (112, -1.30029737949371337891e-01) (113, -8.46414789557456970215e-02) (114, 9.20585393905639648438e-02) (115, -1.43251344561576843262e-01) (116, -1.76780432462692260742e-01) (117, -1.09041959047317504883e-01) (118, -1.63172006607055664062e-01) (119, 1.50000000000000000000e+03) (120, 1.50000000000000000000e+03) (121, -1.91550344228744506836e-01) (122, -2.05832019448280334473e-01) (123, -3.61377224326133728027e-02) (124, -1.47129848599433898926e-01) (125, -9.14893075823783874512e-02) (126, 1.48825913667678833008e-01) (127, -1.71618685126304626465e-01) (128, -2.34681099653244018555e-01) (129, 1.50000000000000000000e+03) (130, 1.50000000000000000000e+03) (131, -2.02426221221685409546e-02) (132, 2.10849210619926452637e-01) (133, 2.47724866867065429688e+00) (134, 9.65961158275604248047e-01) (135, -9.62725460529327392578e-01) (136, 3.56108933687210083008e-01) (137, -4.59291227161884307861e-02) (138, -1.11883282661437988281e+00) (139, 1.50000000000000000000e+03) (140, 1.50000000000000000000e+03) (141, 6.32115542888641357422e-01) (142, 2.00929805636405944824e-01) (143, 9.62856858968734741211e-02) (144, 7.02356025576591491699e-02) (145, 1.69854298233985900879e-01) (146, 1.13796651363372802734e-01) (147, 7.74632275104522705078e-01) (148, 2.73026049137115478516e-01) (149, 1.50000000000000000000e+03) (150, 1.50000000000000000000e+03) (151, 1.50000000000000000000e+03) (152, 1.50000000000000000000e+03) (153, 1.50000000000000000000e+03) (154, 1.50000000000000000000e+03) (155, 1.50000000000000000000e+03) (156, 1.50000000000000000000e+03) (157, 1.50000000000000000000e+03) (158, 1.50000000000000000000e+03) (159, 1.50000000000000000000e+03) (160, 3.45086902379989624023e-01) (0, 1.50000000000000000000e+03) (1, 1.50000000000000000000e+03) (2, 1.50000000000000000000e+03) (3, 1.50000000000000000000e+03) (4, 1.50000000000000000000e+03) (5, 1.50000000000000000000e+03) (6, 1.50000000000000000000e+03) (7, 1.50000000000000000000e+03) (8, 1.50000000000000000000e+03) (9, 1.50000000000000000000e+03) (10, 1.50000000000000000000e+03) (11, 1.50000000000000000000e+03) (12, 1.50000000000000000000e+03) (13, 1.50000000000000000000e+03) (14, 1.50000000000000000000e+03) (15, 1.50000000000000000000e+03) (16, 1.50000000000000000000e+03) (17, 1.50000000000000000000e+03) (18, 1.50000000000000000000e+03) (19, 1.50000000000000000000e+03) (20, 1.50000000000000000000e+03) (21, 1.50000000000000000000e+03) (22, 2.82327175140380859375e-01) (23, 2.32452020049095153809e-01) (24, 3.89588654041290283203e-01) (25, -3.38437817990779876709e-02) (26, -8.90882730484008789062e-01) (27, -4.30208556354045867920e-02) (28, 6.27244353294372558594e-01) (29, 1.50000000000000000000e+03) (30, 1.50000000000000000000e+03) (31, -5.10526514053344726562e+00) (32, 4.45420086383819580078e-01) (33, 7.69153311848640441895e-02) (34, 3.31992208957672119141e-01) (35, 1.47231537848711013794e-02) (36, -3.35507720708847045898e-01) (37, -3.02218109369277954102e-01) (38, 2.18954277038574218750e+00) (39, 1.50000000000000000000e+03) (40, 1.50000000000000000000e+03) (41, -9.76221382617950439453e-01) (42, -8.58058333396911621094e-02) (43, -1.15796970203518867493e-02) (44, -9.68587771058082580566e-02) (45, -2.52843320369720458984e-01) (46, 4.33396726846694946289e-01) (47, -3.76623682677745819092e-02) (48, -2.73674082756042480469e+00) (49, 1.50000000000000000000e+03) (50, 1.50000000000000000000e+03) (51, 7.96778798103332519531e-01) (52, 1.00399293005466461182e-01) (53, -2.30963134765625000000e+00) (54, -6.52455627918243408203e-01) (55, 9.16566252708435058594e-02) (56, 1.68571341037750244141e+00) (57, 2.70683914422988891602e-01) (58, -1.94384977221488952637e-01) (59, 1.50000000000000000000e+03) (60, 1.50000000000000000000e+03) (61, -1.26773774623870849609e-01) (62, -1.35400056838989257812e-01) (63, -2.40196332335472106934e-01) (64, -1.72918900847434997559e-01) (65, 2.29183077812194824219e-01) (66, -1.71192750334739685059e-01) (67, 3.00315737724304199219e-01) (68, 9.77003157138824462891e-01) (69, 1.50000000000000000000e+03) (70, 1.50000000000000000000e+03) (71, -1.49848395958542823792e-02) (72, -1.36737138032913208008e-01) (73, -2.45160743594169616699e-01) (74, -2.21329569816589355469e+00) (75, 2.08728730678558349609e-01) (76, -1.13632217049598693848e-01) (77, -6.97157084941864013672e-02) (78, 2.15245649218559265137e-01) (79, 1.50000000000000000000e+03) (80, 