FANN_FLO_2.1
num_layers=3
learning_rate=0.700000
connection_rate=1.000000
network_type=0
learning_momentum=0.000000
training_algorithm=2
train_error_function=1
train_stop_function=0
cascade_output_change_fraction=0.010000
quickprop_decay=-0.000100
quickprop_mu=1.750000
rprop_increase_factor=1.200000
rprop_decrease_factor=0.500000
rprop_delta_min=0.000000
rprop_delta_max=50.000000
rprop_delta_zero=0.100000
cascade_output_stagnation_epochs=12
cascade_candidate_change_fraction=0.010000
cascade_candidate_stagnation_epochs=12
cascade_max_out_epochs=150
cascade_min_out_epochs=50
cascade_max_cand_epochs=150
cascade_min_cand_epochs=50
cascade_num_candidate_groups=2
bit_fail_limit=3.49999994039535522461e-01
cascade_candidate_limit=1.00000000000000000000e+03
cascade_weight_multiplier=4.00000005960464477539e-01
cascade_activation_functions_count=10
cascade_activation_functions=3 5 7 8 10 11 14 15 16 17 
cascade_activation_steepnesses_count=4
cascade_activation_steepnesses=2.50000000000000000000e-01 5.00000000000000000000e-01 7.50000000000000000000e-01 1.00000000000000000000e+00 
layer_sizes=26 71 26 
scale_included=0
neurons (num_inputs, activation_function, activation_steepness)=(0, 0, 0.00000000000000000000e+00) (0, 0, 0.00000000000000000000e+00) (0, 0, 0.00000000000000000000e+00) (0, 0, 0.00000000000000000000e+00) (0, 0, 0.00000000000000000000e+00) (0, 0, 0.00000000000000000000e+00) (0, 0, 0.00000000000000000000e+00) (0, 0, 0.00000000000000000000e+00) (0, 0, 0.00000000000000000000e+00) (0, 0, 0.00000000000000000000e+00) (0, 0, 0.00000000000000000000e+00) (0, 0, 0.00000000000000000000e+00) (0, 0, 0.00000000000000000000e+00) (0, 0, 0.00000000000000000000e+00) (0, 0, 0.00000000000000000000e+00) (0, 0, 0.00000000000000000000e+00) (0, 0, 0.00000000000000000000e+00) (0, 0, 0.00000000000000000000e+00) (0, 0, 0.00000000000000000000e+00) (0, 0, 0.00000000000000000000e+00) (0, 0, 0.00000000000000000000e+00) (0, 0, 0.00000000000000000000e+00) (0, 0, 0.00000000000000000000e+00) (0, 0, 0.00000000000000000000e+00) (0, 0, 0.00000000000000000000e+00) (0, 0, 0.00000000000000000000e+00) (26, 5, 5.00000000000000000000e-01) (26, 5, 5.00000000000000000000e-01) (26, 5, 5.00000000000000000000e-01) (26, 5, 5.00000000000000000000e-01) (26, 5, 5.00000000000000000000e-01) (26, 5, 5.00000000000000000000e-01) (26, 5, 5.00000000000000000000e-01) (26, 5, 5.00000000000000000000e-01) (26, 5, 5.00000000000000000000e-01) (26, 5, 5.00000000000000000000e-01) (26, 5, 5.00000000000000000000e-01) (26, 5, 5.00000000000000000000e-01) (26, 5, 5.00000000000000000000e-01) (26, 5, 5.00000000000000000000e-01) (26, 5, 5.00000000000000000000e-01) (26, 5, 5.00000000000000000000e-01) (26, 5, 5.00000000000000000000e-01) (26, 5, 5.00000000000000000000e-01) (26, 5, 5.00000000000000000000e-01) (26, 5, 5.00000000000000000000e-01) (26, 5, 5.00000000000000000000e-01) (26, 5, 5.00000000000000000000e-01) (26, 5, 5.00000000000000000000e-01) (26, 5, 5.00000000000000000000e-01) (26, 5, 5.00000000000000000000e-01) (26, 5, 5.00000000000000000000e-01) (26, 5, 5.00000000000000000000e-01) (26, 5, 5.00000000000000000000e-01) (26, 5, 5.00000000000000000000e-01) (26, 5, 5.00000000000000000000e-01) (26, 5, 5.00000000000000000000e-01) (26, 5, 5.00000000000000000000e-01) (26, 5, 5.00000000000000000000e-01) (26, 5, 5.00000000000000000000e-01) (26, 5, 5.00000000000000000000e-01) (26, 5, 5.00000000000000000000e-01) (26, 5, 5.00000000000000000000e-01) (26, 5, 5.00000000000000000000e-01) (26, 5, 5.00000000000000000000e-01) (26, 5, 5.00000000000000000000e-01) (26, 5, 5.00000000000000000000e-01) (26, 5, 5.00000000000000000000e-01) (26, 5, 5.00000000000000000000e-01) (26, 5, 5.00000000000000000000e-01) (26, 5, 5.00000000000000000000e-01) (26, 5, 5.00000000000000000000e-01) (26, 5, 5.00000000000000000000e-01) (26, 5, 5.00000000000000000000e-01) (26, 5, 5.00000000000000000000e-01) (26, 5, 5.00000000000000000000e-01) (26, 5, 5.00000000000000000000e-01) (26, 5, 5.00000000000000000000e-01) (26, 5, 5.00000000000000000000e-01) (26, 5, 5.00000000000000000000e-01) (26, 5, 5.00000000000000000000e-01) (26, 5, 5.00000000000000000000e-01) (26, 5, 5.00000000000000000000e-01) (26, 5, 5.00000000000000000000e-01) (26, 5, 5.00000000000000000000e-01) (26, 5, 5.00000000000000000000e-01) (26, 5, 5.00000000000000000000e-01) (26, 5, 5.00000000000000000000e-01) (26, 5, 5.00000000000000000000e-01) (26, 5, 5.00000000000000000000e-01) (26, 5, 5.00000000000000000000e-01) (26, 5, 5.00000000000000000000e-01) (26, 5, 5.00000000000000000000e-01) (26, 5, 5.00000000000000000000e-01) (26, 5, 5.00000000000000000000e-01) (26, 5, 5.00000000000000000000e-01) (0, 5, 0.00000000000000000000e+00) (71, 5, 5.00000000000000000000e-01) (71, 5, 5.00000000000000000000e-01) (71, 5, 5.00000000000000000000e-01) (71, 5, 5.00000000000000000000e-01) (71, 5, 5.00000000000000000000e-01) (71, 5, 5.00000000000000000000e-01) (71, 5, 5.00000000000000000000e-01) (71, 5, 5.00000000000000000000e-01) (71, 5, 5.00000000000000000000e-01) (71, 5, 5.00000000000000000000e-01) (71, 5, 5.00000000000000000000e-01) (71, 5, 5.00000000000000000000e-01) (71, 5, 5.00000000000000000000e-01) (71, 5, 5.00000000000000000000e-01) (71, 5, 5.00000000000000000000e-01) (71, 5, 5.00000000000000000000e-01) (71, 5, 5.00000000000000000000e-01) (71, 5, 5.00000000000000000000e-01) (71, 5, 5.00000000000000000000e-01) (71, 5, 5.00000000000000000000e-01) (71, 5, 5.00000000000000000000e-01) (71, 5, 5.00000000000000000000e-01) (71, 5, 5.00000000000000000000e-01) (71, 5, 5.00000000000000000000e-01) (71, 5, 5.00000000000000000000e-01) (0, 5, 0.00000000000000000000e+00) 
connections (connected_to_neuron, weight)=(0, -2.10699725151062011719e+00) (1, -9.89489674568176269531e-01) (2, -1.03430044651031494141e+00) (3, 2.39306187629699707031e+00) (4, 2.96930656433105468750e+01) (5, -8.29765975475311279297e-01) (6, 9.08117651939392089844e-01) (7, 6.39167129993438720703e-01) (8, -6.01792573928833007812e-01) (9, 5.09801924228668212891e-01) (10, 1.69863119721412658691e-01) (11, 4.14069652557373046875e-01) (12, 1.14923715591430664062e+00) (13, 1.17627084255218505859e+00) (14, 6.97144448757171630859e-01) (15, 1.12081563472747802734e+00) (16, 4.90500807762145996094e-01) (17, 2.77180463075637817383e-01) (18, 7.08271265029907226562e-01) (19, 5.55681250989437103271e-03) (20, 1.16333794593811035156e+00) (21, 1.05560600757598876953e+00) (22, 6.76035284996032714844e-01) (23, 1.11898994445800781250e+00) (24, -8.08636188507080078125e-01) (25, 5.90313434600830078125e-01) (0, -1.22610402107238769531e+00) (1, 2.33441069722175598145e-02) (2, 3.35424631834030151367e-01) (3, -2.95291662216186523438e-01) (4, -5.00843167304992675781e-01) (5, 4.56186443567276000977e-01) (6, 1.29678881168365478516e+00) (7, 9.49884653091430664062e-01) (8, -2.53788027912378311157e-02) (9, -2.18512386083602905273e-01) (10, -8.55500817298889160156e-01) (11, 7.24895000457763671875e-01) (12, -2.63838201761245727539e-01) (13, 4.74832691252231597900e-02) (14, -3.59618633985519409180e-01) (15, 4.37134772539138793945e-01) (16, -6.25283777713775634766e-01) (17, 4.90332722663879394531e-01) (18, 4.27664607763290405273e-01) (19, 2.31804728507995605469e-01) (20, 9.62060749530792236328e-01) (21, 4.41837221384048461914e-01) (22, -3.95982682704925537109e-01) (23, 2.53909826278686523438e-01) (24, -3.10714900493621826172e-01) (25, 3.29999417066574096680e-01) (0, -3.08245152235031127930e-01) (1, 1.30654990673065185547e-01) (2, 2.19550400972366333008e-01) (3, 3.02209347486495971680e-01) (4, 4.07681912183761596680e-01) (5, -3.80291193723678588867e-01) (6, -4.32085901498794555664e-01) (7, -3.75240594148635864258e-01) (8, 4.97362911701202392578e-01) (9, -4.39409077167510986328e-01) (10, 4.74368304014205932617e-01) (11, -1.44670858979225158691e-01) (12, 4.71907079219818115234e-01) (13, -2.79785215854644775391e-01) (14, -4.02306765317916870117e-01) (15, 3.33175331354141235352e-01) (16, -2.05135107040405273438e-01) (17, -2.45947524905204772949e-01) (18, -1.22089512646198272705e-01) (19, -2.01754719018936157227e-01) (20, -2.41199031472206115723e-01) (21, -1.26926705241203308105e-01) (22, -2.80554085969924926758e-01) (23, -2.10079520940780639648e-01) (24, -2.29272544384002685547e-01) (25, -2.89299219846725463867e-01) (0, -1.48717314004898071289e-01) (1, -7.45461761951446533203e-01) (2, 3.21044355630874633789e-01) (3, -1.55067639425396919250e-02) (4, -3.02126646041870117188e-01) (5, 5.24490547180175781250e+00) (6, -1.67638495564460754395e-01) (7, -2.62568499892950057983e-02) (8, -3.19557249546051025391e-01) (9, 3.12036901712417602539e-01) (10, 5.91823518276214599609e-01) (11, 1.75330531597137451172e+00) (12, -4.66300129890441894531e-01) (13, 4.60785403847694396973e-02) (14, 5.74268460273742675781e-01) (15, 3.91792505979537963867e-01) (16, 6.20577216148376464844e-01) (17, -8.24578464031219482422e-01) (18, 1.94436505436897277832e-01) (19, -1.83460021018981933594e+00) (20, -8.24854671955108642578e-02) (21, -6.90647363662719726562e-02) (22, -2.11093381047248840332e-01) (23, 9.25483345985412597656e-01) (24, 1.73971855640411376953e+00) (25, -2.44404092431068420410e-01) (0, -2.44550406932830810547e-01) (1, -2.81001806259155273438e-01) (2, -3.48328411579132080078e-01) (3, -1.11655974388122558594e+00) (4, 3.07482838630676269531e-01) (5, 5.28141796588897705078e-01) (6, 6.16015307605266571045e-02) (7, -1.45082458853721618652e-01) (8, -4.67237144708633422852e-01) (9, 4.03876245021820068359e-01) (10, -1.72747299075126647949e-01) (11, -3.06476294994354248047e-01) (12, -3.91299694776535034180e-01) (13, 3.54179710149765014648e-01) (14, 2.90389776229858398438e-01) (15, -1.93307220935821533203e-01) (16, -3.10077577829360961914e-01) (17, 4.57548320293426513672e-01) (18, -6.84203803539276123047e-01) (19, -2.71720647811889648438e-01) (20, -2.07802474498748779297e-01) (21, -1.27832397818565368652e-01) (22, -2.66994535923004150391e-01) (23, -3.26889753341674804688e-01) (24, -3.10496002435684204102e-01) (25, -2.99855351448059082031e-01) (0, -3.19723188877105712891e-01) (1, 5.98227269947528839111e-02) (2, -4.76771712303161621094e-01) (3, 3.42824280261993408203e-01) (4, -1.64050221443176269531e-01) (5, -9.85088199377059936523e-02) (6, -4.06111985445022583008e-01) (7, 9.86695662140846252441e-02) (8, -2.68839240074157714844e-01) (9, 1.47404968738555908203e-01) (10, -4.19806092977523803711e-01) (11, -6.83521568775177001953e-01) (12, -3.04157942533493041992e-01) (13, 2.91677951812744140625e-01) (14, 1.90068259835243225098e-02) (15, 5.07560825347900390625e+00) (16, 5.73180794715881347656e-01) (17, -2.99462080001831054688e-01) (18, -6.67078971862792968750e-01) (19, -3.40739428065717220306e-03) (20, 1.43287765979766845703e+00) (21, 9.24496501684188842773e-02) (22, -2.49042734503746032715e-01) (23, -1.51091948151588439941e-01) (24, -4.07156258821487426758e-01) (25, -3.44504378736019134521e-02) (0, -2.67355769872665405273e-01) (1, -2.90140658617019653320e-01) (2, 5.97526013851165771484e-01) (3, 4.62549775838851928711e-02) (4, 1.80383741855621337891e-01) (5, -1.12397718429565429688e+00) (6, 1.72300413250923156738e-01) (7, 4.78578418493270874023e-01) (8, -6.64223432540893554688e-01) (9, -1.46183013916015625000e+00) (10, 1.29819834232330322266e+00) (11, 7.18191027641296386719e-01) (12, 2.04406738281250000000e-01) (13, -2.99681216478347778320e-01) (14, -2.43598118424415588379e-01) (15, 5.24544835090637207031e-01) (16, 3.32893997430801391602e-01) (17, 1.44048392772674560547e-01) (18, 1.10831990838050842285e-01) (19, -1.49323642253875732422e-01) (20, -7.61683955788612365723e-02) (21, -1.30129039287567138672e-01) (22, 4.36165183782577514648e-01) (23, 8.48415076732635498047e-01) (24, -1.20051622390747070312e-01) (25, -1.74302801489830017090e-01) (0, -1.16955792903900146484e+00) (1, -1.50000000000000000000e+03) (2, 2.74125277996063232422e-01) (3, -5.89731836318969726562e+00) (4, -1.42873668670654296875e+00) (5, -2.39157095551490783691e-01) (6, -7.04487681388854980469e-01) (7, -3.10244655609130859375e+00) (8, -3.12001228332519531250e-01) (9, 2.61916708946228027344e+00) (10, -6.85107529163360595703e-01) (11, -1.46184325218200683594e+00) (12, 1.30865323543548583984e+00) (13, 5.19865870475769042969e-01) (14, -1.53814390301704406738e-01) (15, 7.91881322860717773438e-01) (16, -8.53259116411209106445e-02) (17, -2.68146038055419921875e-01) (18, 8.77011343836784362793e-02) (19, -1.24006712436676025391e+00) (20, 7.36636757850646972656e-01) (21, 7.97565281391143798828e-02) (22, -1.54655754566192626953e-01) (23, -5.55889964103698730469e-01) (24, -1.73191583156585693359e+00) (25, -1.88430279493331909180e-01) (0, 3.72127741575241088867e-01) (1, 4.32461053133010864258e-01) (2, 4.01370477676391601562e+00) (3, 2.00662612915039062500e-01) (4, 1.92606002092361450195e-01) (5, 4.60496813058853149414e-01) (6, 1.65829527378082275391e+00) (7, 2.47234359383583068848e-01) (8, 3.08652132749557495117e-01) (9, 3.28100293874740600586e-01) (10, -1.33172735571861267090e-01) (11, -1.26723840832710266113e-01) (12, 3.00608813762664794922e-01) (13, -2.71270394325256347656e-01) (14, 2.62584179639816284180e-01) (15, -3.96424919366836547852e-01) (16, -1.25470325350761413574e-01) (17, -3.45440149307250976562e-01) (18, 2.78248548507690429688e-01) (19, 3.82874041795730590820e-01) (20, 2.49971032142639160156e-01) (21, -4.08557802438735961914e-01) (22, 4.71716761589050292969e-01) (23, 4.25914585590362548828e-01) (24, 5.58049678802490234375e-01) (25, 5.22554695606231689453e-01) (0, -9.21156048774719238281e-01) (1, -7.31030702590942382812e-01) (2, 4.34604376554489135742e-01) (3, -1.15083050727844238281e+00) (4, -2.81610637903213500977e-01) (5, -3.49845170974731445312e-01) (6, 4.44886445999145507812e-01) (7, 2.99401164054870605469e-01) (8, -5.06549298763275146484e-01) (9, -8.09477806091308593750e-01) (10, -2.00496554374694824219e-01) (11, 4.83135618269443511963e-02) (12, 3.43386799097061157227e-01) (13, -3.44675242900848388672e-01) (14, 1.38370364904403686523e-01) (15, 8.60757529735565185547e-01) (16, 2.74554193019866943359e-01) (17, -2.96478480100631713867e-01) (18, 9.55466091632843017578e-01) (19, 7.38929092884063720703e-01) (20, -2.46791094541549682617e-01) (21, 6.80941760540008544922e-01) (22, -2.69343703985214233398e-01) (23, 4.17277038097381591797e-01) (24, 5.47370672225952148438e-01) (25, 4.50754225254058837891e-01) (0, -3.35090827941894531250e+00) (1, -5.29520750045776367188e+00) (2, 1.82836905121803283691e-01) (3, 1.26335549354553222656e+00) (4, 1.21700769042968750000e+03) (5, 1.24864414334297180176e-01) (6, -1.65611994266510009766e+00) (7, 4.32642251253128051758e-01) (8, 8.62619876861572265625e-01) (9, 1.18217182159423828125e+00) (10, 1.28690218925476074219e+00) (11, 2.70115613937377929688e+00) (12, -8.31730104982852935791e-03) (13, 1.03584516048431396484e+00) (14, 1.20337089538574218750e+02) (15, -1.66348442435264587402e-01) (16, 1.95054970681667327881e-02) (17, 4.98760998249053955078e-01) (18, -3.79318594932556152344e-01) (19, -6.78057521581649780273e-02) (20, 2.38731336593627929688e+00) (21, 3.90820503234863281250e-01) (22, 1.64462938904762268066e-01) (23, 1.59528821706771850586e-01) (24, 4.33598190546035766602e-01) (25, 6.36321067810058593750e-01) (0, 1.61485984921455383301e-01) (1, 2.74754673242568969727e-01) (2, 8.60114634037017822266e-01) (3, 8.76295387744903564453e-01) (4, 6.29418790340423583984e-01) (5, 6.58904790878295898438e-01) (6, -6.07203662395477294922e-01) (7, 4.05298411846160888672e-01) (8, -2.58627891540527343750e+00) (9, 1.22168695926666259766e+00) (10, -1.14137685298919677734e+00) (11, 1.79024171829223632812e+00) (12, 5.40755319595336914062e+00) (13, 1.41192531585693359375e+00) (14, -6.25071942806243896484e-01) (15, 4.83131349086761474609e-01) (16, 1.02757883071899414062e+00) (17, 4.32984650135040283203e-01) (18, -1.13927435874938964844e+00) (19, -1.01400828361511230469e+00) (20, -9.33843031525611877441e-02) (21, -2.00045779347419738770e-01) (22, 1.56235766410827636719e+00) (23, -1.48995295166969299316e-01) (24, 6.08176231384277343750e-01) (25, 6.10397577285766601562e-01) (0, -1.75286102294921875000e+00) (1, -5.56458592414855957031e-01) (2, -6.43817245960235595703e-01) (3, 5.44131469726562500000e+00) (4, 1.32012534141540527344e+00) (5, 2.06292554736137390137e-01) (6, -9.80692625045776367188e-01) (7, -6.37740194797515869141e-01) (8, -5.53492784500122070312e-01) (9, -2.92394816875457763672e-01) (10, -9.60146367549896240234e-01) (11, -5.44272959232330322266e-01) (12, -9.13070142269134521484e-02) (13, 6.87399387359619140625e-01) (14, 1.54755568504333496094e+00) (15, 8.76480007171630859375e+00) (16, 1.04298090934753417969e+00) (17, -6.22579529881477355957e-02) (18, 1.55478692054748535156e+00) (19, -3.91309075057506561279e-02) (20, -1.43061161041259765625e+00) (21, -2.63776868581771850586e-01) (22, 3.20870548486709594727e-01) (23, 2.38436609506607055664e-01) (24, 1.62774455547332763672e+00) (25, 6.58896088600158691406e-01) (0, 1.13716554641723632812e+00) (1, 1.52942860126495361328e+00) (2, 2.13774943351745605469e+00) (3, 1.35831212997436523438e+00) (4, 1.36221134662628173828e+00) (5, 1.50000000000000000000e+03) (6, -1.23662030696868896484e+00) (7, 2.04321652650833129883e-01) (8, 1.78182816505432128906e+00) (9, 1.01229894161224365234e+00) (10, -6.38353347778320312500e-01) (11, 1.68973609805107116699e-01) (12, 2.92542791366577148438e+00) (13, 1.31083416938781738281e+00) (14, 8.49204301834106445312e-01) (15, 4.47449356317520141602e-01) (16, 5.79418718814849853516e-01) (17, 3.86151611804962158203e-01) (18, -9.87106040120124816895e-02) (19, 5.14323770999908447266e-01) (20, -3.06785274296998977661e-02) (21, 2.88250982761383056641e-01) (22, -1.31995749473571777344e+00) (23, -1.46638202667236328125e+00) (24, -9.37490582466125488281e-01) (25, 3.00620566122233867645e-03) (0, 1.06843862533569335938e+01) (1, 2.03828468918800354004e-01) (2, 4.21077251434326171875e-01) (3, 8.55628788471221923828e-01) (4, 8.49293529987335205078e-01) (5, 6.69407463073730468750e+00) (6, 5.41812801361083984375e+00) (7, -3.98541182279586791992e-01) (8, 8.20340156555175781250e-01) (9, 5.94910323619842529297e-01) (10, 5.70645618438720703125e+00) (11, -1.12776495516300201416e-02) (12, 1.14298653602600097656e+00) (13, 4.60095822811126708984e-01) (14, 1.87186193466186523438e+00) (15, 3.60536432266235351562e+00) (16, -2.18573361635208129883e-01) (17, 4.40383732318878173828e-01) (18, 2.05439424514770507812e+00) (19, -9.54798534512519836426e-02) (20, -3.97743248939514160156e+00) (21, 4.34877961874008178711e-01) (22, 4.58686351776123046875e-01) (23, 5.25567471981048583984e-01) (24, 6.26242995262145996094e-01) (25, 6.63839936256408691406e-01) (0, -1.68855988979339599609e+00) (1, -2.50070881843566894531e+00) (2, -3.22733426094055175781e+00) (3, 1.61321187019348144531e+00) (4, 1.16959571838378906250e+00) (5, -2.45997095108032226562e+00) (6, -1.22021234035491943359e+00) (7, 1.50000000000000000000e+03) (8, 2.28221988677978515625e+00) (9, 9.56141412258148193359e-01) (10, -2.32788577675819396973e-01) (11, -1.98455631732940673828e+00) (12, -8.16411197185516357422e-01) (13, 1.26126074790954589844e+00) (14, 1.51832270622253417969e+00) (15, 2.48632812500000000000e+00) (16, 7.56467938423156738281e-01) (17, 1.76836967468261718750e+00) (18, 2.02580118179321289062e+00) (19, 3.17586565017700195312e+00) (20, -1.19982123374938964844e+00) (21, 7.92081642150878906250e+00) (22, 5.34933567047119140625e-01) (23, 2.55734939128160476685e-02) (24, 2.39161178469657897949e-01) (25, 3.47674280405044555664e-01) (0, -7.63479098677635192871e-02) (1, -3.69847208261489868164e-01) (2, -6.32132649421691894531e-01) (3, 5.65826773643493652344e-01) (4, 6.86653673648834228516e-01) (5, 4.73465114831924438477e-01) (6, -3.18106919527053833008e-01) (7, 3.60622555017471313477e-01) (8, -3.49586933851242065430e-01) (9, 7.64874935150146484375e-01) (10, 3.74484419822692871094e-01) (11, 6.29343211650848388672e-01) (12, -2.64992803335189819336e-01) (13, 5.21561741828918457031e-01) (14, -6.44407153129577636719e-01) (15, 2.58353114128112792969e-01) (16, 2.33987271785736083984e-01) (17, 2.69086003303527832031e-01) (18, 4.63377773761749267578e-01) (19, -6.64783790707588195801e-02) (20, 3.32294434309005737305e-01) (21, -2.47928485274314880371e-01) (22, -3.06966811418533325195e-01) (23, 3.92501264810562133789e-01) (24, -2.17161655426025390625e-01) (25, -2.68528491258621215820e-01) (0, 6.84445798397064208984e-01) (1, 1.83323863893747329712e-02) (2, 4.80008125305175781250e+00) (3, 2.77973103523254394531e+00) (4, -8.13831329345703125000e-01) (5, -2.06232443451881408691e-01) (6, 2.59874492883682250977e-01) (7, 1.95298250764608383179e-02) (8, 1.45903363823890686035e-01) (9, -2.24353566765785217285e-01) (10, -7.55279958248138427734e-01) (11, 5.47871645539999008179e-03) (12, -9.24293756484985351562e-01) (13, -4.76465314626693725586e-01) (14, 4.80725020170211791992e-01) (15, -1.62385654449462890625e+00) (16, 2.23563939332962036133e-01) (17, 1.55398398637771606445e-01) (18, -1.16886548697948455811e-01) (19, 4.40996915102005004883e-01) (20, -6.95968449115753173828e-01) (21, 2.05326065421104431152e-01) (22, -9.48244929313659667969e-01) (23, 9.97577488422393798828e-01) (24, 1.02064609527587890625e+00) (25, 5.38343250751495361328e-01) (0, -2.10206970572471618652e-01) (1, 1.13570675253868103027e-01) (2, 1.22433185577392578125e-01) (3, 3.56866046786308288574e-02) (4, -9.35054242610931396484e-01) (5, 4.52214270830154418945e-01) (6, -3.07740837335586547852e-01) (7, 4.17759716510772705078e-01) (8, 6.96366369724273681641e-01) (9, 2.63849079608917236328e-01) (10, 5.60528159141540527344e-01) (11, 1.09643077850341796875e+00) (12, 4.07051742076873779297e-01) (13, 3.61169099807739257812e-01) (14, -3.44529658555984497070e-01) (15, -3.76679539680480957031e-01) (16, -4.44844752550125122070e-01) (17, 8.63169431686401367188e-01) (18, -3.81037205457687377930e-01) (19, -2.50945568084716796875e-01) (20, 5.63208758831024169922e-01) (21, 4.46449816226959228516e-01) (22, 3.33732098340988159180e-01) (23, -2.90778249502182006836e-01) (24, 8.59193921089172363281e-01) (25, 5.44593691825866699219e-01) (0, -8.50175768136978149414e-02) (1, 9.12186026573181152344e-01) (2, -3.75533580780029296875e-01) (3, 1.59528449177742004395e-01) (4, 5.36672890186309814453e-01) (5, 1.95437088608741760254e-01) (6, 7.45803892612457275391e-01) (7, -1.66515290737152099609e+00) (8, -1.97074174880981445312e-01) (9, -1.72545596957206726074e-01) (10, 3.91779869794845581055e-01) (11, -6.73356831073760986328e-01) (12, -9.91489272564649581909e-04) (13, -5.40226936340332031250e-01) (14, -6.95780575275421142578e-01) (15, -1.32304215431213378906e+00) (16, 6.44029200077056884766e-01) (17, -2.84344434738159179688e-01) (18, -9.90074202418327331543e-02) (19, -1.81461989879608154297e-01) (20, 3.33051949739456176758e-01) (21, -9.91182178258895874023e-02) (22, 3.81264597177505493164e-01) (23, -1.18699334561824798584e-01) (24, 5.64080119132995605469e-01) (25, -4.04085870832204818726e-03) (0, -1.04312598705291748047e-01) (1, 1.09937757253646850586e-01) (2, -6.75632178783416748047e-01) (3, -7.55052268505096435547e-01) (4, -9.54069614410400390625e-01) (5, 4.29897792637348175049e-02) (6, 4.54480081796646118164e-01) (7, -4.62687820196151733398e-01) (8, -5.17901957035064697266e-01) (9, -5.45470297336578369141e-01) (10, -1.10990703105926513672e+00) (11, -5.70362389087677001953e-01) (12, -2.12841734290122985840e-01) (13, -1.72237977385520935059e-01) (14, -7.80596077442169189453e-01) (15, -1.30737423896789550781e-01) (16, -1.74521476030349731445e-01) (17, 7.98165351152420043945e-02) (18, 1.12558251953125000000e+03) (19, 5.19189023971557617188e+00) (20, -1.25330448150634765625e+00) (21, -2.39152744412422180176e-01) (22, 1.90091383457183837891e+00) (23, 1.14031755924224853516e+00) (24, 7.24672555923461914062e-01) (25, 2.57824271917343139648e-01) (0, 3.04392862319946289062e+00) (1, 3.55659937858581542969e+00) (2, 2.05581277608871459961e-01) (3, 1.30028069019317626953e-01) (4, -8.71789634227752685547e-01) (5, -1.25322079658508300781e+00) (6, -5.34810006618499755859e-01) (7, 5.15758991241455078125e-01) (8, -4.94575440883636474609e-01) (9, -8.22686553001403808594e-01) (10, -2.81993567943572998047e-01) (11, -6.87535107135772705078e-01) (12, 8.29367101192474365234e-01) (13, 2.26452380418777465820e-01) (14, 4.95784193277359008789e-01) (15, 2.51867443323135375977e-01) (16, -4.36568528413772583008e-01) (17, -1.85290411114692687988e-01) (18, -1.06489442288875579834e-01) (19, 1.64473310112953186035e-01) (20, 2.05504730343818664551e-01) (21, -3.59097629785537719727e-01) (22, 2.12314769625663757324e-01) (23, -2.71456807851791381836e-01) (24, -3.51967275142669677734e-01) (25, -3.12365293502807617188e-01) (0, 1.33017659187316894531e+00) (1, -8.85995447635650634766e-01) (2, -1.81226462125778198242e-01) (3, 2.82330900430679321289e-01) (4, -2.77032554149627685547e-01) (5, -9.64111745357513427734e-01) (6, 1.32300004363059997559e-01) (7, -7.02363073825836181641e-01) (8, -1.15509284660220146179e-02) (9, 3.58179122209548950195e-01) (10, -1.16209127008914947510e-01) (11, -4.33487355709075927734e-01) (12, -4.36340928077697753906e-01) (13, -4.05288254842162132263e-03) (14, 1.01860177516937255859e+00) (15, 3.91502343118190765381e-02) (16, 2.28340908885002136230e-01) (17, -4.81025934219360351562e-01) (18, 7.95581459999084472656e-01) (19, -3.82834196090698242188e-01) (20, -2.48897328972816467285e-01) (21, 2.53861606121063232422e-01) (22, -1.44283086061477661133e-01) (23, 6.36947393417358398438e-01) (24, 5.85191786289215087891e-01) (25, -1.89661026000976562500e-01) (0, 5.99669814109802246094e-01) (1, 1.71767890453338623047e+00) (2, 2.73273801803588867188e+00) (3, 4.13193702697753906250e-01) (4, -4.09616120159626007080e-02) (5, 2.55307030677795410156e+00) (6, 6.09672427177429199219e-01) (7, 1.07156872749328613281e+00) (8, 1.48156687617301940918e-01) (9, 7.21561670303344726562e-01) (10, -2.39437192678451538086e-01) (11, -1.29843330383300781250e+00) (12, -8.36672913283109664917e-03) (13, -1.44947245717048645020e-01) (14, -1.83015733957290649414e-01) (15, 5.13114035129547119141e-01) (16, -1.78853586316108703613e-01) (17, -2.38010287284851074219e-01) (18, -5.62816001474857330322e-02) (19, 1.16658240556716918945e-01) (20, -2.15103816986083984375e+00) (21, 1.18194329738616943359e+00) (22, -6.81254208087921142578e-01) (23, -2.57289856672286987305e-01) (24, -1.27464365959167480469e+00) (25, -3.32463741302490234375e-01) (0, -3.28251338005065917969e+00) (1, -1.15177249908447265625e+00) (2, 1.86364218592643737793e-01) (3, 2.06985503435134887695e-01) (4, 9.63067859411239624023e-02) (5, -4.09229725599288940430e-01) (6, -1.50000000000000000000e+03) (7, -8.86828780174255371094e-01) (8, 6.88156366348266601562e-01) (9, 6.53012394905090332031e-01) (10, -2.95165610313415527344e+00) (11, -5.80445408821105957031e-01) (12, -2.52094954252243041992e-01) (13, -3.47727030515670776367e-01) (14, -1.97870683670043945312e+00) (15, -3.81290614604949951172e-01) (16, -2.47779130935668945312e+00) (17, 2.07836285233497619629e-01) (18, -9.19346928596496582031e-01) (19, 1.50000000000000000000e+03) (20, 2.45884463191032409668e-01) (21, 7.43010163307189941406e-01) (22, 7.42281198501586914062e-01) (23, 6.88770055770874023438e-01) (24, 8.33528339862823486328e-01) (25, -2.99651384353637695312e-01) (0, -2.13425129652023315430e-01) (1, -2.25313618779182434082e-01) (2, -2.45762988924980163574e-01) (3, -3.04200530052185058594e-01) (4, -3.63673627376556396484e-01) (5, -2.06701189279556274414e-01) (6, -1.93715691566467285156e-01) (7, -3.29813867807388305664e-01) (8, -2.90111988782882690430e-01) (9, 3.08819353580474853516e-01) (10, -6.77233636379241943359e-02) (11, 3.66397768259048461914e-01) (12, -2.79014974832534790039e-01) (13, 4.35231328010559082031e-01) (14, -4.25021529197692871094e-01) (15, 4.78378325700759887695e-01) (16, -1.03431500494480133057e-01) (17, 4.63938444852828979492e-01) (18, -1.55371695756912231445e-01) (19, -1.09705820679664611816e-01) (20, -4.25342321395874023438e-01) (21, -1.27506405115127563477e-01) (22, -2.25069269537925720215e-01) (23, -2.35686779022216796875e-01) (24, -1.05969630181789398193e-01) (25, -2.44716078042984008789e-01) (0, 4.51715898513793945312e+00) (1, 1.92634761333465576172e-01) (2, -2.11876654624938964844e+00) (3, 7.17286288738250732422e-01) (4, 1.26705563068389892578e+00) (5, -8.06166708469390869141e-01) (6, 2.66135621070861816406e+00) (7, -2.43773639202117919922e-01) (8, 6.79543852806091308594e-01) (9, 3.67277711629867553711e-01) (10, -1.19811475276947021484e+00) (11, -2.49142885208129882812e+00) (12, 9.79147255420684814453e-01) (13, 6.44006967544555664062e-01) (14, 5.16406536102294921875e-01) (15, -8.54037344455718994141e-01) (16, -6.02135121822357177734e-01) (17, -5.15330851078033447266e-01) (18, -5.81779420375823974609e-01) (19, -6.66922098025679588318e-03) (20, 1.11771476268768310547e+00) (21, 8.69519174098968505859e-01) (22, -7.36922264099121093750e-01) (23, -5.50249755382537841797e-01) (24, -4.04106706380844116211e-01) (25, 3.57987761497497558594e-01) (0, 3.21022987365722656250e-01) (1, -5.10787189006805419922e-01) (2, -3.45615178346633911133e-01) (3, -7.41025865077972412109e-01) (4, -3.44091475009918212891e-01) (5, 8.15740883350372314453e-01) (6, 8.87496709823608398438e-01) (7, -1.86707526445388793945e-01) (8, -4.30062830448150634766e-01) (9, 9.01187658309936523438e-02) (10, 5.91018140316009521484e-01) (11, 1.26889419555664062500e+01) (12, 1.08680737018585205078e+00) (13, 8.54233443737030029297e-01) (14, -5.91205894947052001953e-01) (15, -3.74045699834823608398e-01) (16, 2.76670724153518676758e-01) (17, -2.19837248325347900391e-01) (18, 4.48604971170425415039e-01) (19, -7.13709533214569091797e-01) (20, -2.33132895082235336304e-02) (21, -4.02114212512969970703e-01) (22, 2.12437725067138671875e+00) (23, 7.55867063999176025391e-01) (24, -2.88577258586883544922e-01) (25, 4.87914025783538818359e-01) (0, 9.88543868064880371094e-01) (1, 1.98633000254631042480e-02) (2, 5.40352225303649902344e-01) (3, 2.25941021926701068878e-03) (4, -4.30947512388229370117e-01) (5, 9.08704921603202819824e-02) (6, -8.92332717776298522949e-02) (7, -9.09728884696960449219e-01) (8, 4.24581199884414672852e-01) (9, 1.66774451732635498047e-01) (10, -1.02430522441864013672e+00) (11, 3.20604294538497924805e-01) (12, 6.97990119457244873047e-01) (13, -2.04381152987480163574e-01) (14, -2.57632583379745483398e-01) (15, -3.16741764545440673828e-01) (16, 1.34469985961914062500e+00) (17, 3.73385190963745117188e-01) (18, 5.02681493759155273438e-01) (19, 8.97977948188781738281e-01) (20, -5.17477452754974365234e-01) (21, 2.06460261344909667969e+00) (22, 9.18035984039306640625e-01) (23, 1.45825338363647460938e+00) (24, -2.43914276361465454102e-01) (25, 6.18310570716857910156e-01) (0, -6.73093259334564208984e-01) (1, -1.97407007217407226562e-01) (2, -2.05001115798950195312e-01) (3, -6.91032826900482177734e-01) (4, 1.17315876483917236328e+00) (5, 1.05171251296997070312e+00) (6, -2.63695538043975830078e-01) (7, 3.58233422040939331055e-01) (8, -5.90152621269226074219e-01) (9, 2.13691449165344238281e+00) (10, 3.33347648382186889648e-01) (11, -2.91043370962142944336e-01) (12, -1.44638434052467346191e-01) (13, -2.88156390190124511719e-01) (14, 5.42566776275634765625e-01) (15, 4.25047039985656738281e-01) (16, 7.38383606076240539551e-02) (17, -5.80638051033020019531e-02) (18, -2.05496534705162048340e-01) (19, 5.35189390182495117188e-01) (20, 5.76421558856964111328e-01) (21, 2.56296783685684204102e-01) (22, 4.13866400718688964844e-01) (23, 4.97679784893989562988e-02) (24, -5.23143589496612548828e-01) (25, 3.36198538541793823242e-01) (0, -5.34370124340057373047e-01) (1, 2.37435802817344665527e-01) (2, 1.96357712149620056152e-01) (3, 2.98991560935974121094e-01) (4, 2.03486308455467224121e-01) (5, 4.60262626409530639648e-01) (6, 6.68386936187744140625e-01) (7, -2.80598878860473632812e-01) (8, 5.23453235626220703125e-01) (9, 2.60845869779586791992e-01) (10, 2.36077740788459777832e-01) (11, -2.23567083477973937988e-01) (12, 5.18104434013366699219e-01) (13, -4.21618074178695678711e-01) (14, 2.71374225616455078125e+00) (15, 4.22143518924713134766e-01) (16, 3.33004027605056762695e-01) (17, -3.17551285028457641602e-01) (18, -1.66495606303215026855e-01) (19, -3.64154458045959472656e-01) (20, 4.96689677238464355469e-01) (21, 4.03718113899230957031e-01) (22, 4.95496302843093872070e-01) (23, -3.54044646024703979492e-01) (24, 4.31951761245727539062e-01) (25, 3.82854253053665161133e-01) (0, -2.92527735233306884766e-01) (1, 1.12228333950042724609e+00) (2, 3.65336537361145019531e+00) (3, 3.81492590904235839844e+00) (4, 1.50000000000000000000e+03) (5, -4.86303009092807769775e-02) (6, -5.07177889347076416016e-01) (7, 1.12676310539245605469e+00) (8, 2.48420619964599609375e+00) (9, 5.18224573135375976562e+00) (10, 4.07401382923126220703e-01) (11, 1.19458220899105072021e-01) (12, -5.58783888816833496094e-01) (13, 5.90668797492980957031e-01) (14, 1.16553115844726562500e+00) (15, 6.23916029930114746094e-01) (16, 6.75453960895538330078e-01) (17, 4.16920632123947143555e-01) (18, -3.31286430358886718750e-01) (19, 3.90306293964385986328e-01) (20, -6.92138731479644775391e-01) (21, 4.10843491554260253906e-01) (22, -1.85975376516580581665e-02) (23, 4.89164173603057861328e-01) (24, -8.89480948448181152344e-01) (25, 1.06769599020481109619e-01) (0, -3.86554524302482604980e-02) (1, -6.13832235336303710938e-01) (2, -5.02487659454345703125e-01) (3, -7.14167300611734390259e-03) (4, 8.70956599712371826172e-01) (5, 1.07228173828125000000e+03) (6, -1.30506360530853271484e+00) (7, -2.42090299725532531738e-01) (8, -4.13080602884292602539e-01) (9, 7.24548995494842529297e-01) (10, 3.96124328613281250000e+02) (11, 1.50000000000000000000e+03) (12, 4.20542746782302856445e-01) (13, -3.88504154980182647705e-02) (14, -1.15025360137224197388e-02) (15, -2.81149689108133316040e-02) (16, -3.65972369909286499023e-01) (17, 2.97295115888118743896e-02) (18, -9.76364791393280029297e-01) (19, -3.71927708387374877930e-01) (20, 4.71853923797607421875e+00) (21, 1.50000000000000000000e+03) (22, 9.72308889031410217285e-02) (23, 5.76880611479282379150e-02) (24, -7.33633041381835937500e-01) (25, 6.06165468692779541016e-01) (0, 2.88567721843719482422e-01) (1, -2.34265184402465820312e+00) (2, -5.04211544990539550781e-01) (3, -5.91732800006866455078e-01) (4, -3.35125446319580078125e-01) (5, 1.17360138893127441406e+00) (6, 6.74345076084136962891e-01) (7, -2.16567063331604003906e+00) (8, -7.02100038528442382812e-01) (9, -2.40390390157699584961e-01) (10, 9.63347733020782470703e-01) (11, 8.58350813388824462891e-01) (12, -1.67046919465065002441e-01) (13, 3.26721578836441040039e-01) (14, -3.09232473373413085938e-01) (15, 2.56719636917114257812e+00) (16, 3.83636617660522460938e+00) (17, -5.50135517120361328125e+00) (18, -5.10548782348632812500e+00) (19, -3.18734669685363769531e+00) (20, -4.26964387297630310059e-02) (21, -1.83167979121208190918e-01) (22, -2.34292149543762207031e-01) (23, -4.01408523321151733398e-01) (24, 4.88701200485229492188e+00) (25, -4.13219211623072624207e-03) (0, 2.43644360452890396118e-02) (1, -2.24603518843650817871e-01) (2, -1.41755178570747375488e-01) (3, 3.11440646648406982422e-01) (4, 3.93866524100303649902e-02) (5, -2.46550720185041427612e-02) (6, -8.84061977267265319824e-02) (7, -3.12072411179542541504e-02) (8, -3.94728809595108032227e-01) (9, 4.03076767921447753906e-01) (10, -1.57720923423767089844e-01) (11, 8.86672973632812500000e+02) (12, -1.55481368303298950195e-01) (13, -3.08095902204513549805e-01) (14, -5.76905980706214904785e-02) (15, 3.85898739099502563477e-01) (16, -4.35530304908752441406e-01) (17, -1.00307278335094451904e-01) (18, -1.45968794822692871094e-01) (19, -3.96429449319839477539e-02) (20, -2.68438518047332763672e-01) (21, -2.87088528275489807129e-02) (22, -6.13308511674404144287e-02) (23, -7.00209960341453552246e-02) (24, -3.89986783266067504883e-01) (25, -2.29643478989601135254e-01) (0, -3.56445908546447753906e-02) (1, -6.58423483371734619141e-01) (2, -2.49102246016263961792e-02) (3, 1.18981790542602539062e+00) (4, 8.50676596164703369141e-02) (5, -7.72731661796569824219e-01) (6, -8.07849943637847900391e-01) (7, 6.49698138236999511719e-01) (8, 4.72476303577423095703e-01) (9, 5.85617721080780029297e-01) (10, 8.13186615705490112305e-02) (11, 3.46668362617492675781e-01) (12, -2.38717153668403625488e-01) (13, 3.72037172317504882812e-01) (14, 1.14049948751926422119e-01) (15, 5.59576129913330078125e+00) (16, 6.63803756237030029297e-01) (17, 1.26262032985687255859e+00) (18, 7.13698863983154296875e-01) (19, -5.01208961009979248047e-01) (20, -3.09645444154739379883e-01) (21, 6.07307136058807373047e-01) (22, -4.96983051300048828125e-01) (23, -2.49281108379364013672e-01) (24, 2.98768430948257446289e-01) (25, -2.03449249267578125000e-01) (0, -9.83069241046905517578e-01) (1, 3.06863307952880859375e+01) (2, -4.80737066268920898438e+00) (3, 4.26628971099853515625e+00) (4, 2.21339392662048339844e+00) (5, -9.32036042213439941406e-01) (6, -7.49374210834503173828e-01) (7, 5.22527360916137695312e+00) (8, 2.56622672080993652344e+00) (9, 1.36424505710601806641e+00) (10, -2.26852968335151672363e-02) (11, -5.53533852100372314453e-01) (12, -1.79166328161954879761e-02) (13, 1.54463815689086914062e+00) (14, 8.77507567405700683594e-01) (15, -3.93503040075302124023e-01) (16, 1.13088214397430419922e+00) (17, 8.68847295641899108887e-02) (18, 2.23456189036369323730e-01) (19, -3.06304812431335449219e-01) (20, 8.23885202407836914062e-01) (21, 8.29698324203491210938e-01) (22, 6.80591583251953125000e-01) (23, -1.26960659027099609375e+00) (24, -5.38898766040802001953e-01) (25, 2.34774723649024963379e-01) (0, 2.32437744736671447754e-01) (1, -6.51798129081726074219e-01) (2, -1.05477011203765869141e+00) (3, 1.17203271389007568359e+00) (4, -2.33129000663757324219e+00) (5, 1.67793005704879760742e-01) (6, -2.28891804814338684082e-01) (7, -4.28173720836639404297e-01) (8, 5.74030518531799316406e-01) (9, 5.06649065017700195312e+00) (10, -6.59013032913208007812e-01) (11, 2.62574777007102966309e-02) (12, -1.30886152386665344238e-01) (13, -2.73597049713134765625e+00) (14, -1.74432229995727539062e+00) (15, -2.43261322379112243652e-01) (16, 4.03275527060031890869e-02) (17, -8.33528518676757812500e-01) (18, -5.04850029945373535156e-01) (19, -4.77706253528594970703e-01) (20, -4.97812688350677490234e-01) (21, 9.54846978187561035156e-01) (22, 9.54183995723724365234e-01) (23, 5.50702922046184539795e-02) (24, 1.54299542307853698730e-01) (25, -2.83376108855009078979e-02) (0, -5.09378910064697265625e-01) (1, 2.95719027519226074219e-01) (2, -2.81037986278533935547e-01) (3, -1.72788962721824645996e-01) (4, 2.35260710120201110840e-01) (5, -2.96537131071090698242e-01) (6, -4.11235511302947998047e-01) (7, -3.98486793041229248047e-01) (8, 4.98438388109207153320e-01) (9, 3.62448453903198242188e-01) (10, -3.24949234724044799805e-01) (11, -5.32067954540252685547e-01) (12, -1.94084286689758300781e-01) (13, 4.11521315574645996094e-01) (14, -4.51654613018035888672e-01) (15, -2.60597199201583862305e-01) (16, -1.63315653800964355469e-01) (17, 8.58190283179283142090e-03) (18, -2.42869928479194641113e-01) (19, 4.73011463880538940430e-01) (20, -4.01372611522674560547e-01) (21, -2.24964395165443420410e-01) (22, -2.25610509514808654785e-01) (23, -2.51941770315170288086e-01) (24, 5.43334364891052246094e-01) (25, -2.70593076944351196289e-01) (0, 4.43212240934371948242e-01) (1, 4.54361629486083984375e+00) (2, 4.02478665113449096680e-01) (3, 9.61310714483261108398e-02) (4, -7.02111646533012390137e-02) (5, 2.84378677606582641602e-02) (6, 4.82362985610961914062e-01) (7, 5.36597788333892822266e-01) (8, -2.14633375406265258789e-01) (9, 1.31131529808044433594e-01) (10, 2.55594581365585327148e-01) (11, 2.95409858226776123047e-01) (12, 4.13569867610931396484e-01) (13, 4.24341291189193725586e-01) (14, 2.93050229549407958984e-01) (15, 1.56877219676971435547e-01) (16, 5.74718892574310302734e-01) (17, 2.78707385063171386719e-01) (18, 1.23830044269561767578e+00) (19, 3.57239651679992675781e+00) (20, -1.90314710140228271484e-01) (21, 3.99505645036697387695e-01) (22, 4.70957487821578979492e-01) (23, 3.87875288724899291992e-01) (24, 1.43805181980133056641e+00) (25, 5.01649141311645507812e-01) (0, 1.16345560550689697266e+00) (1, 1.43985879421234130859e+00) (2, 3.22716951370239257812e-01) (3, 3.34094196557998657227e-01) (4, -3.07011485099792480469e-01) (5, 7.46057927608489990234e-02) (6, 1.61729753017425537109e+00) (7, 8.84619534015655517578e-01) (8, 6.37691497802734375000e-01) (9, 5.38539364933967590332e-02) (10, -2.51946330070495605469e-01) (11, -5.15254914760589599609e-01) (12, 4.01632159948348999023e-01) (13, 4.45991754531860351562e-01) (14, -4.40003782510757446289e-01) (15, -9.10353124141693115234e-01) (16, -9.14690077304840087891e-01) (17, -3.00723761320114135742e-01) (18, -3.48323909565806388855e-03) (19, 4.34758424758911132812e-01) (20, -3.40142548084259033203e-01) (21, 1.66929885745048522949e-01) (22, -3.81419867277145385742e-01) (23, 8.82226824760437011719e-01) (24, -3.00995051860809326172e-01) (25, 5.20604848861694335938e-01) (0, -7.43962049484252929688e-01) (1, -5.39845705032348632812e-01) (2, -7.53180444240570068359e-01) (3, -2.36185893416404724121e-01) (4, -3.00496608018875122070e-01) (5, 4.75963912904262542725e-02) (6, -2.79339313507080078125e-01) (7, -4.97480690479278564453e-01) (8, -4.87593889236450195312e-01) (9, -1.14899165928363800049e-01) (10, 3.10689163208007812500e+00) (11, 8.44907343387603759766e-01) (12, -1.45453020930290222168e-01) (13, -3.33396673202514648438e-01) (14, 6.70296192169189453125e-01) (15, 1.28314733505249023438e+00) (16, 1.33324313163757324219e+00) (17, 1.12638378143310546875e+00) (18, 6.21985038742423057556e-03) (19, -1.76996243000030517578e+00) (20, 5.66673457622528076172e-01) (21, 1.26696598529815673828e+00) (22, 2.02438950538635253906e+00) (23, -1.26106366515159606934e-01) (24, 4.61551874876022338867e-01) (25, -6.99623078107833862305e-02) (0, -4.35018241405487060547e-01) (1, 9.97108101844787597656e-01) (2, 1.04470567703247070312e+01) (3, 1.50000000000000000000e+03) (4, 8.43069076538085937500e+00) (5, 1.45127311348915100098e-01) (6, -3.34808498620986938477e-01) (7, 9.90040004253387451172e-01) (8, 4.50158596038818359375e+00) (9, 5.17655944824218750000e+00) (10, -6.10916435718536376953e-01) (11, -1.00500710308551788330e-01) (12, -4.75195020437240600586e-01) (13, 1.02033042907714843750e+00) (14, -8.02148044109344482422e-01) (15, 6.39516711235046386719e-02) (16, 1.01703383028507232666e-01) (17, -5.98957575857639312744e-02) (18, 7.86100253462791442871e-02) (19, 1.03534787893295288086e-01) (20, -7.58921384811401367188e-01) (21, 3.18760424852371215820e-01) (22, -2.19710156321525573730e-01) (23, 2.26246118545532226562e-01) (24, 2.61641120910644531250e+01) (25, -1.67802572250366210938e-02) (0, -3.55997383594512939453e-01) (1, -3.64708602428436279297e-01) (2, -3.53700399398803710938e-01) (3, 5.14480888843536376953e-01) (4, 5.32860994338989257812e-01) (5, -4.51506048440933227539e-01) (6, -2.18657832592725753784e-02) (7, 2.86974012851715087891e-01) (8, -3.97546529769897460938e-01) (9, 2.37261682748794555664e-01) (10, 5.48322975635528564453e-01) (11, 2.91552633047103881836e-01) (12, -3.59485656023025512695e-01) (13, 9.25904214382171630859e-02) (14, 1.85523077845573425293e-01) (15, -3.57957392930984497070e-01) (16, 1.54698550701141357422e-01) (17, 2.87084311246871948242e-01) (18, 3.40760409832000732422e-01) (19, 4.21772837638854980469e-01) (20, -2.01240271329879760742e-01) (21, 3.31133872270584106445e-01) (22, -2.63945370912551879883e-01) (23, 5.22585511207580566406e-01) (24, 4.89859402179718017578e-01) (25, 4.89843964576721191406e-01) (0, -3.50979298353195190430e-01) (1, -2.32326045632362365723e-01) (2, -2.82662808895111083984e-01) (3, -5.24486362934112548828e-01) (4, -3.11975926160812377930e-01) (5, -2.63487964868545532227e-01) (6, -1.52066588401794433594e-01) (7, -2.79628098011016845703e-01) (8, -3.48842501640319824219e-01) (9, -4.13670241832733154297e-01) (10, -5.56840896606445312500e-01) (11, 5.77879846096038818359e-02) (12, -3.08462888002395629883e-01) (13, -5.26022315025329589844e-01) (14, -3.13681602478027343750e-01) (15, 4.03213292360305786133e-01) (16, -2.92600184679031372070e-01) (17, -3.65556180477142333984e-01) (18, -1.49782240390777587891e-01) (19, -4.97382879257202148438e-02) (20, -2.07691624760627746582e-01) (21, -1.84689939022064208984e-01) (22, -2.23535910248756408691e-01) (23, -3.73627156019210815430e-01) (24, -1.22819371521472930908e-01) (25, -2.36872434616088867188e-01) (0, 2.98721551895141601562e-01) (1, 5.27267336845397949219e-01) (2, 3.43821972608566284180e-01) (3, 3.58766376972198486328e-01) (4, 4.76474165916442871094e-01) (5, -3.30898702144622802734e-01) (6, 1.64167597889900207520e-01) (7, 1.72091592103242874146e-02) (8, 4.87874656915664672852e-01) (9, 2.73379296064376831055e-01) (10, -9.35449302196502685547e-02) (11, 8.34675133228302001953e-01) (12, 5.84731698036193847656e-01) (13, -2.72270947694778442383e-01) (14, 2.24669069051742553711e-01) (15, 6.27890408039093017578e-01) (16, 2.28629398345947265625e+00) (17, 1.19002425670623779297e+00) (18, -2.93946176767349243164e-01) (19, 4.65009719133377075195e-01) (20, 4.02887225151062011719e-01) (21, 3.01205188035964965820e-01) (22, -2.84436643123626708984e-01) (23, 5.39690613746643066406e-01) (24, -3.92598062753677368164e-01) (25, 5.23584783077239990234e-01) (0, -5.74955940246582031250e-01) (1, 6.04412794113159179688e-01) (2, -3.14642041921615600586e-01) (3, -9.01277303695678710938e-01) (4, 8.23313295841217041016e-01) (5, 1.25812566280364990234e+00) (6, 4.38081696629524230957e-02) (7, -7.26885378360748291016e-01) (8, 1.92825183272361755371e-01) (9, -1.01018989086151123047e+00) (10, 1.84116327762603759766e+00) (11, -3.14468950033187866211e-01) (12, 7.55442023277282714844e-01) (13, -7.00227096676826477051e-02) (14, 8.73428881168365478516e-01) (15, -3.25449019670486450195e-01) (16, 2.80978232622146606445e-01) (17, 2.52159857749938964844e+00) (18, 6.30910754203796386719e-01) (19, 1.64324367046356201172e+00) (20, -1.74607783555984497070e-01) (21, 4.31290417909622192383e-01) (22, 3.13605964183807373047e-01) (23, -2.60188311338424682617e-01) (24, 5.47662138938903808594e-01) (25, 5.84187567234039306641e-01) (0, 5.67515075206756591797e-01) (1, 1.34878069162368774414e-01) (2, -7.30459272861480712891e-01) (3, 5.21303832530975341797e-01) (4, -1.89498171210289001465e-01) (5, 9.81997847557067871094e-01) (6, 7.14599609375000000000e-01) (7, 1.58043742179870605469e+00) (8, -9.55301150679588317871e-02) (9, -1.63603961467742919922e-01) (10, 1.75993824005126953125e+00) (11, 1.28892675042152404785e-01) (12, 4.61620271205902099609e-01) (13, -2.12122291326522827148e-01) (14, -8.76786947250366210938e-01) (15, 1.09298741817474365234e+00) (16, 6.99584841728210449219e-01) (17, 7.56452143192291259766e-01) (18, 3.61674398183822631836e-01) (19, 1.34693503379821777344e+00) (20, -3.62130761146545410156e-01) (21, -1.97215569019317626953e+00) (22, 2.83731251955032348633e-01) (23, -2.96212792396545410156e-01) (24, -2.65924960374832153320e-01) (25, 1.36478200554847717285e-01) (0, -1.12273963168263435364e-03) (1, 2.76564434170722961426e-03) (2, 1.53726565837860107422e+00) (3, 1.87565043568611145020e-01) (4, -3.56623083353042602539e-01) (5, 7.89680778980255126953e-02) (6, -1.75001949071884155273e-01) (7, -1.87922954559326171875e-01) (8, -2.25115999579429626465e-01) (9, 2.80240118503570556641e-01) (10, 3.57636362314224243164e-01) (11, 7.87711739540100097656e-02) (12, -5.53137809038162231445e-02) (13, 3.46316009759902954102e-01) (14, -8.44097912311553955078e-01) (15, -7.70244479179382324219e-01) (16, -1.60346463322639465332e-01) (17, 1.20473191142082214355e-01) (18, -2.10475564002990722656e-01) (19, 3.49875718355178833008e-01) (20, -9.81451645493507385254e-02) (21, 1.99521586298942565918e-01) (22, 2.96052724123001098633e-01) (23, -3.16710621118545532227e-01) (24, 2.39374071359634399414e-01) (25, -4.67134676873683929443e-02) (0, 1.56136915087699890137e-01) (1, 3.98705214262008666992e-01) (2, -4.69680994749069213867e-01) (3, 3.19111406803131103516e-01) (4, 5.68564891815185546875e-01) (5, 2.93851405382156372070e-01) (6, 4.40052062273025512695e-01) (7, 1.21347296237945556641e+00) (8, 4.61869150400161743164e-01) (9, 3.73009234666824340820e-01) (10, 5.60685575008392333984e-01) (11, 3.91564935445785522461e-01) (12, 5.88610589504241943359e-01) (13, 3.45522493124008178711e-01) (14, 4.55136805772781372070e-01) (15, -5.22420465946197509766e-01) (16, 6.27531528472900390625e-01) (17, 3.76120269298553466797e-01) (18, 5.26482164859771728516e-01) (19, 4.87479835748672485352e-01) (20, 4.01052027940750122070e-01) (21, 4.10551190376281738281e-01) (22, 4.99428093433380126953e-01) (23, 2.19707980751991271973e-01) (24, -2.68406689167022705078e-01) (25, 5.45844137668609619141e-01) (0, -4.28925037384033203125e-01) (1, 3.93713831901550292969e-01) (2, 4.63485747575759887695e-01) (3, -2.17157855629920959473e-01) (4, -3.06591778993606567383e-01) (5, 1.93291440606117248535e-01) (6, -1.03409260511398315430e-01) (7, -6.81132435798645019531e-01) (8, -3.68396937847137451172e-01) (9, -2.22179099917411804199e-01) (10, -4.70837980508804321289e-01) (11, -3.55985641479492187500e-01) (12, -2.15023502707481384277e-01) (13, 4.82520908117294311523e-01) (14, 4.06367838382720947266e-01) (15, 9.57902297377586364746e-02) (16, 4.97464369982481002808e-03) (17, 4.11543875932693481445e-01) (18, 1.36361822485923767090e-01) (19, -3.63890528678894042969e-01) (20, 3.71880918741226196289e-01) (21, -2.59771376848220825195e-01) (22, 4.96491104364395141602e-01) (23, -3.76807600259780883789e-01) (24, -3.04948061704635620117e-01) (25, -4.20912951231002807617e-01) (0, 6.14511311054229736328e-01) (1, -8.76362323760986328125e-01) (2, -1.25164103507995605469e+00) (3, 4.15792852640151977539e-01) (4, -8.24733600020408630371e-02) (5, 7.83038794994354248047e-01) (6, -4.19778823852539062500e-01) (7, -7.12587416172027587891e-01) (8, 3.28018479049205780029e-02) (9, -1.32825994491577148438e+00) (10, 3.33589822053909301758e-01) (11, 2.43037432432174682617e-01) (12, 4.76928800344467163086e-01) (13, 3.99115562438964843750e-01) (14, 3.10409039258956909180e-01) (15, 2.38230302929878234863e-02) (16, 2.96891152858734130859e-01) (17, 4.73678678274154663086e-01) (18, -5.50681054592132568359e-02) (19, 3.93066614866256713867e-01) (20, 3.63056093454360961914e-01) (21, 3.60464841127395629883e-01) (22, 5.46892285346984863281e-01) (23, 1.16745762526988983154e-01) (24, -8.17074656486511230469e-01) (25, -8.61197412014007568359e-02) (0, 6.83221936225891113281e-01) (1, -6.19497120380401611328e-01) (2, 1.58666098117828369141e+00) (3, -2.89546251296997070312e-01) (4, 7.62245118618011474609e-01) (5, -3.81311401724815368652e-02) (6, -5.27408003807067871094e-01) (7, -3.53224784135818481445e-01) (8, 1.01643407344818115234e+00) (9, -3.03630620241165161133e-01) (10, -1.56842559576034545898e-01) (11, -5.20020127296447753906e-01) (12, 3.31456094980239868164e-01) (13, -4.13844734430313110352e-01) (14, -4.64075773954391479492e-01) (15, 5.20082376897335052490e-02) (16, -1.49844974279403686523e-01) (17, 3.10173928737640380859e-01) (18, 5.86315654218196868896e-02) (19, -2.79273509979248046875e-01) (20, 3.54860752820968627930e-01) (21, -2.32098221778869628906e-01) (22, 7.30426907539367675781e-01) (23, 3.15678745508193969727e-01) (24, -3.09784412384033203125e-01) (25, -2.32684001326560974121e-01) (0, -1.74741312861442565918e-01) (1, -3.71701806783676147461e-01) (2, 1.15322351455688476562e+00) (3, -3.31338852643966674805e-01) (4, 1.06304693222045898438e+00) (5, -2.89727151393890380859e-01) (6, 1.32281172275543212891e+00) (7, 3.57478782534599304199e-02) (8, 8.95838379859924316406e-01) (9, 6.43773436546325683594e-01) (10, 2.57461833953857421875e+00) (11, 2.23841304779052734375e+01) (12, 1.29236936569213867188e+00) (13, 5.15428972244262695312e+00) (14, 5.56783819198608398438e+00) (15, 3.77227276563644409180e-01) (16, -4.46052521467208862305e-01) (17, -4.60073530673980712891e-01) (18, -1.79436072707176208496e-01) (19, 1.07507586479187011719e+00) (20, -1.12835752964019775391e+00) (21, -9.50238928198814392090e-02) (22, 7.35441029071807861328e-01) (23, 6.24933242797851562500e-01) (24, -9.46232825517654418945e-02) (25, 6.73120617866516113281e-01) (0, 4.02465164661407470703e-01) (1, -3.04482400417327880859e-01) (2, -3.95006716251373291016e-01) (3, -3.39071005582809448242e-01) (4, -2.74314582347869873047e-01) (5, 1.13525414466857910156e+00) (6, 4.88780289888381958008e-01) (7, 1.55484855175018310547e-01) (8, -1.02298423647880554199e-01) (9, -2.14845240116119384766e-01) (10, 2.62211799621582031250e-01) (11, 5.22102653980255126953e-01) (12, -1.38914883136749267578e-01) (13, 6.88660442829132080078e-01) (14, 3.03642678260803222656e+00) (15, -3.63910526037216186523e-01) (16, 9.20868813991546630859e-02) (17, -2.94644087553024291992e-01) (18, 1.41398295760154724121e-01) (19, -1.82471990585327148438e-01) (20, -6.70900344848632812500e-01) (21, -2.43584811687469482422e-01) (22, 7.08717644214630126953e-01) (23, 1.31188297271728515625e+00) (24, 1.50289610028266906738e-01) (25, -3.31594258546829223633e-01) (0, -3.50161083042621612549e-02) (1, -7.25559175014495849609e-01) (2, -2.82042860984802246094e-01) (3, 1.47750222682952880859e+00) (4, 1.72966277599334716797e+00) (5, 3.22129637002944946289e-01) (6, -1.36792123317718505859e-01) (7, 2.82176196575164794922e-01) (8, 4.01028156280517578125e-01) (9, 2.80074506998062133789e-01) (10, -7.28606462478637695312e-01) (11, 7.03611910343170166016e-01) (12, 4.04789060354232788086e-01) (13, 1.16594350337982177734e+00) (14, 7.82249808311462402344e-01) (15, -4.19377535581588745117e-01) (16, -1.33555650711059570312e-01) (17, 1.69434279203414916992e-01) (18, -2.46922105550765991211e-01) (19, 2.59936660528182983398e-01) (20, 4.35447275638580322266e-01) (21, -3.27801287174224853516e-01) (22, 2.63240158557891845703e-01) (23, -3.60116064548492431641e-01) (24, 3.34067821502685546875e-01) (25, 5.16202270984649658203e-01) (0, -1.59774875640869140625e+00) (1, -2.12241101264953613281e+00) (2, -3.72665911912918090820e-01) (3, -7.65474915504455566406e-01) (4, 6.00044059753417968750e+00) (5, -1.30935192108154296875e+00) (6, -1.54464626312255859375e+00) (7, -8.22781443595886230469e-01) (8, 6.45802617073059082031e-01) (9, 1.23903310298919677734e+00) (10, -2.19609409570693969727e-01) (11, -6.65386855602264404297e-01) (12, 6.69787466526031494141e-01) (13, 1.49670445919036865234e+00) (14, 4.54378652572631835938e+00) (15, 5.49623548984527587891e-01) (16, -2.49327227473258972168e-01) (17, -1.15898644924163818359e+00) (18, 1.50000000000000000000e+03) (19, 1.89371681213378906250e+00) (20, 1.37946057319641113281e+00) (21, 1.28808879852294921875e+00) (22, -3.49727451801300048828e-01) (23, 5.11441946029663085938e-01) (24, 8.94766569137573242188e-01) (25, 4.17995989322662353516e-01) (0, 6.71457338333129882812e+00) (1, -3.54293197393417358398e-01) (2, -1.10423040390014648438e+00) (3, -6.38577759265899658203e-01) (4, 1.78246164321899414062e+00) (5, -5.01717686653137207031e-01) (6, 9.95051041245460510254e-02) (7, 2.25236463546752929688e+00) (8, 7.73401319980621337891e-01) (9, 1.65794521570205688477e-01) (10, 2.54079606384038925171e-03) (11, 6.58032238483428955078e-01) (12, 1.71768143773078918457e-01) (13, -2.35906034708023071289e-01) (14, 9.13686275482177734375e-01) (15, -9.86978504806756973267e-03) (16, 5.00283181667327880859e-01) (17, 8.96161198616027832031e-01) (18, 2.47352749109268188477e-01) (19, 1.00517146289348602295e-01) (20, 1.48722186684608459473e-01) (21, 2.84724235534667968750e-01) (22, 5.19737005233764648438e-01) (23, 6.90751016139984130859e-01) (24, 1.24807381629943847656e+00) (25, 6.19565963745117187500e-01) (0, 4.11006420850753784180e-01) (1, 5.28947326660156250000e+02) (2, 9.98430609703063964844e-01) (3, 2.79209554195404052734e-01) (4, -7.06591755151748657227e-02) (5, -3.23226273059844970703e-01) (6, 1.28422617912292480469e+00) (7, -1.26234740018844604492e-01) (8, -2.93875664472579956055e-01) (9, -3.73580724000930786133e-01) (10, -9.36459302902221679688e-02) (11, 9.82083439826965332031e-01) (12, -1.01632967591285705566e-01) (13, -3.35236757993698120117e-01) (14, -4.32899743318557739258e-01) (15, -6.66084051132202148438e-01) (16, -3.52348685264587402344e-01) (17, -4.81811255216598510742e-01) (18, -3.91346305608749389648e-01) (19, 2.69684135913848876953e-01) (20, -3.02843987941741943359e-01) (21, -8.61655235290527343750e-01) (22, 5.15924334526062011719e-01) (23, 4.29889261722564697266e-01) (24, -1.34294539690017700195e-01) (25, 5.21958768367767333984e-01) (0, 6.08314573764801025391e-01) (1, 1.63148951530456542969e+00) (2, -1.05989181995391845703e+00) (3, 4.18689064681529998779e-02) (4, 7.31103837490081787109e-01) (5, 1.90415736287832260132e-02) (6, -6.62924706935882568359e-01) (7, 4.91487115621566772461e-01) (8, -6.11649453639984130859e-01) (9, 1.46517530083656311035e-02) (10, -1.73583805561065673828e-01) (11, 1.04432389140129089355e-01) (12, -5.22984385490417480469e-01) (13, 1.32180362939834594727e-01) (14, -9.86819326877593994141e-01) (15, 7.06767916679382324219e-01) (16, -1.82949528098106384277e-01) (17, -2.69998043775558471680e-01) (18, -3.08436512947082519531e-01) (19, -1.89926363527774810791e-02) (20, -4.76841241121292114258e-01) (21, 9.03166472911834716797e-01) (22, 1.47970750927925109863e-01) (23, -4.80614006519317626953e-01) (24, -9.69812348484992980957e-02) (25, -1.34983122348785400391e-01) (0, -2.60682851076126098633e-02) (1, 1.75956940650939941406e+00) (2, -5.15565991401672363281e-01) (3, -2.25637659430503845215e-01) (4, 3.91675084829330444336e-02) (5, 2.52954393625259399414e-01) (6, -2.53778975456953048706e-02) (7, 8.57261240482330322266e-01) (8, -5.62364935874938964844e-01) (9, -4.36984837055206298828e-01) (10, -9.00199770927429199219e-01) (11, 7.46811807155609130859e-01) (12, -3.33264678716659545898e-01) (13, -4.94584031403064727783e-02) (14, 2.70001471042633056641e-01) (15, 3.86852711439132690430e-01) (16, 1.11805808544158935547e+00) (17, 7.49808013439178466797e-01) (18, 2.04599872231483459473e-01) (19, 4.28460419178009033203e-01) (20, 1.38766181468963623047e+00) (21, 8.12236189842224121094e-01) (22, 1.59932267665863037109e+00) (23, -5.31124353408813476562e-01) (24, -3.44308495521545410156e-01) (25, 5.06990134716033935547e-01) (0, 1.36871349811553955078e+00) (1, 1.21035024523735046387e-01) (2, -1.08890220522880554199e-01) (3, -3.98517735302448272705e-02) (4, 3.02793145179748535156e-01) (5, 5.91626405715942382812e-01) (6, -4.62242126464843750000e+00) (7, 5.09475469589233398438e-01) (8, -3.28737050294876098633e-01) (9, 4.35974717140197753906e-01) (10, -1.48007214355468750000e+03) (11, 6.79176747798919677734e-02) (12, 1.28215098381042480469e+00) (13, 2.93480813503265380859e-01) (14, -2.92419463396072387695e-01) (15, -7.57664978504180908203e-01) (16, -5.33078312873840332031e-01) (17, 1.21142208576202392578e+00) (18, -3.19650135040283203125e+01) (19, 9.26750183105468750000e-01) (20, 3.80385704338550567627e-02) (21, -2.46105238795280456543e-01) (22, -2.33193755149841308594e-01) (23, -1.29039017483592033386e-02) (24, 3.63257503509521484375e+00) (25, -1.63583546876907348633e-01) (0, 5.65043687820434570312e-01) (1, 2.10545346140861511230e-01) (2, 1.30461335182189941406e-01) (3, 3.36613208055496215820e-01) (4, 2.43683576583862304688e-01) (5, -1.52526512742042541504e-01) (6, 4.07806128263473510742e-01) (7, 5.46174645423889160156e-01) (8, 2.93557524681091308594e-01) (9, 9.95761379599571228027e-02) (10, 4.81110274791717529297e-01) (11, -4.79533135890960693359e-01) (12, 4.02264744043350219727e-01) (13, 3.41032236814498901367e-01) (14, 4.44051057100296020508e-01) (15, -3.31401705741882324219e-01) (16, -3.19837808609008789062e-01) (17, -3.95790278911590576172e-01) (18, 3.28611135482788085938e-01) (19, 3.95620912313461303711e-01) (20, -2.85484254360198974609e-01) (21, 3.67121338844299316406e-01) (22, 4.49869722127914428711e-01) (23, 2.80726462602615356445e-01) (24, 5.77594697475433349609e-01) (25, 5.13499557971954345703e-01) (0, -4.37704592943191528320e-01) (1, 3.91819149255752563477e-01) (2, -2.25496724247932434082e-01) (3, 6.50819778442382812500e-01) (4, 1.18910360336303710938e+00) (5, -3.12345951795578002930e-01) (6, 3.23004126548767089844e-01) (7, 4.34610962867736816406e-01) (8, 5.49888074398040771484e-01) (9, 7.02591121196746826172e-01) (10, 4.26316547393798828125e+00) (11, 5.29054760932922363281e-01) (12, 5.08485436439514160156e-01) (13, 7.78920799493789672852e-02) (14, -1.92833468317985534668e-01) (15, -5.31301259994506835938e+00) (16, 1.93170249462127685547e+00) (17, 3.71790558099746704102e-01) (18, -1.87786102294921875000e-01) (19, -1.01055896282196044922e+00) (20, 5.31168222427368164062e-01) (21, 3.78478825092315673828e-01) (22, -9.02238637208938598633e-02) (23, -4.49471414089202880859e-01) (24, -1.01228654384613037109e+00) (25, 3.10880869626998901367e-01) (0, 2.38021802902221679688e+00) (1, 2.80260467529296875000e+02) (2, 1.16231369972229003906e+00) (3, 2.31344556808471679688e+00) (4, 1.86495029926300048828e+00) (5, -1.10469281673431396484e+00) (6, 1.10540246963500976562e+00) (7, 5.98495912551879882812e+00) (8, 8.02085876464843750000e-01) (9, 1.81635701656341552734e+00) (10, 1.56130421161651611328e+00) (11, 1.51370298862457275391e+00) (12, -4.99374747276306152344e-01) (13, 1.07104170322418212891e+00) (14, 1.66947257518768310547e+00) (15, -3.67659807205200195312e+00) (16, -6.36957764625549316406e-01) (17, 9.79538857936859130859e-01) (18, 8.29265117645263671875e-01) (19, 1.71181118488311767578e+00) (20, -2.90634012222290039062e+00) (21, -4.77950930595397949219e-01) (22, 6.92588758468627929688e+00) (23, 6.74432706832885742188e+00) (24, 3.32581257820129394531e+00) (25, 5.74806690216064453125e-01) (0, -6.82545900344848632812e-01) (1, 4.65741872787475585938e-01) (2, -6.36235177516937255859e-01) (3, -3.63868045806884765625e+00) (4, -2.79373383522033691406e+00) (5, 1.00964717566967010498e-01) (6, -1.32275477051734924316e-01) (7, 5.48642218112945556641e-01) (8, -6.06532287597656250000e+00) (9, -1.42183542251586914062e+00) (10, -5.72794377803802490234e-01) (11, -5.47994852066040039062e-01) (12, 1.10776282846927642822e-01) (13, -9.15928602218627929688e-01) (14, 2.39672923088073730469e+00) (15, 3.51343965530395507812e+00) (16, 8.88641834259033203125e-01) (17, 3.10335308313369750977e-01) (18, 5.26216924190521240234e-01) (19, -5.11467516422271728516e-01) (20, -6.83711707592010498047e-01) (21, 7.03114509582519531250e-01) (22, -3.79807382822036743164e-01) (23, 3.33767414093017578125e-01) (24, 8.96627712249755859375e+00) (25, -7.76852667331695556641e-02) (0, -6.45346403121948242188e-01) (1, -6.09241485595703125000e+00) (2, -9.84869420528411865234e-01) (3, -7.93823301792144775391e-01) (4, 1.75664693117141723633e-01) (5, -7.94732809066772460938e-01) (6, -8.96537005901336669922e-01) (7, 1.33580004882812500000e+03) (8, -5.95398247241973876953e-01) (9, -3.74980628490447998047e-01) (10, 9.78923511505126953125e+00) (11, 1.16837680339813232422e+00) (12, 6.08174979686737060547e-01) (13, -4.59348559379577636719e-01) (14, 3.40928971767425537109e-01) (15, -1.01126156747341156006e-01) (16, 3.35585512220859527588e-02) (17, 1.78133845329284667969e-01) (18, 3.32526147365570068359e-01) (19, 8.57535004615783691406e-02) (20, 1.66207861900329589844e+00) (21, -5.00357747077941894531e-02) (22, -3.00057739019393920898e-01) (23, 2.79501467943191528320e-01) (24, 1.57521646469831466675e-02) (25, -9.27124917507171630859e-03) (0, 5.65181493759155273438e-01) (1, -9.60716485977172851562e-01) (2, -1.46684432029724121094e+00) (3, -1.12565970420837402344e+00) (4, -8.32765877246856689453e-01) (5, -2.30848222970962524414e-01) (6, 3.08071941137313842773e-01) (7, -5.36294400691986083984e-01) (8, -8.88417840003967285156e-01) (9, -5.55663764476776123047e-01) (10, 1.95734456181526184082e-01) (11, 9.06130522489547729492e-02) (12, -2.74022758007049560547e-01) (13, -1.80772334337234497070e-01) (14, 5.37210881710052490234e-01) (15, 8.30553889274597167969e-01) (16, 5.80722510814666748047e-01) (17, -2.50459881499409675598e-04) (18, 5.53378723561763763428e-02) (19, 7.65725970268249511719e-01) (20, 5.25639772415161132812e-01) (21, 1.04648709297180175781e+00) (22, -2.11096107959747314453e-01) (23, 8.17033481597900390625e+00) (24, 8.97142350673675537109e-01) (25, 4.23586666584014892578e-01) (0, 9.95303988456726074219e-01) (1, -8.74328613281250000000e-01) (2, 3.57926934957504272461e-01) (3, 3.31122785806655883789e-01) (4, 5.24022042751312255859e-01) (5, -2.44257450103759765625e-01) (6, 6.49572014808654785156e-01) (7, 2.70145297050476074219e-01) (8, -3.05143445730209350586e-01) (9, -4.73104804754257202148e-01) (10, -1.44791364669799804688e-01) (11, -8.00417270511388778687e-03) (12, 1.30972474813461303711e-01) (13, -4.68157231807708740234e-01) (14, 3.24821054935455322266e-01) (15, 3.72266441583633422852e-01) (16, 1.13837723620235919952e-03) (17, -2.04834938049316406250e-01) (18, 3.77634406089782714844e-01) (19, 3.76170247793197631836e-01) (20, -2.90439367294311523438e-01) (21, 3.83243739604949951172e-01) (22, -2.77488857507705688477e-01) (23, -4.25360143184661865234e-01) (24, 4.42478060722351074219e-01) (25, -2.77803510427474975586e-01) (0, -4.96644407510757446289e-01) (1, -3.10547947883605957031e-01) (2, -1.70576944947242736816e-01) (3, 5.35635113716125488281e-01) (4, -2.22560361027717590332e-01) (5, -4.48869168758392333984e-01) (6, 4.82454486191272735596e-02) (7, -2.57620394229888916016e-01) (8, 4.58847284317016601562e-01) (9, -2.88214176893234252930e-01) (10, 4.69490066170692443848e-02) (11, 2.47465282678604125977e-01) (12, -3.26272815465927124023e-01) (13, -4.73973512649536132812e-01) (14, 4.18785214424133300781e-01) (15, 4.64665740728378295898e-01) (16, 5.00394310802221298218e-03) (17, -2.42527216672897338867e-01) (18, 2.13076055049896240234e-01) (19, -3.78334313631057739258e-01) (20, -3.41137290000915527344e-01) (21, -2.03245311975479125977e-01) (22, -2.33394637703895568848e-01) (23, -1.69962257146835327148e-01) (24, 3.44724386930465698242e-01) (25, -3.67201656103134155273e-01) (26, -1.93377912044525146484e-01) (27, -2.51246541738510131836e-01) (28, 5.93823432922363281250e-01) (29, 1.13457165658473968506e-01) (30, 6.54910922050476074219e-01) (31, -2.94386059045791625977e-01) (32, -2.06197232007980346680e-01) (33, -1.34545847773551940918e-01) (34, 3.84582668542861938477e-01) (35, -2.46503859758377075195e-01) (36, -7.97622874379158020020e-02) (37, -2.91070371866226196289e-01) (38, -2.97192454338073730469e-01) (39, 1.01151853799819946289e-01) (40, -7.53907486796379089355e-02) (41, -8.15582051873207092285e-02) (42, 4.99447166919708251953e-01) (43, -1.34462520480155944824e-01) (44, 3.57614129781723022461e-01) (45, -5.85945129394531250000e-01) (46, -1.46533668041229248047e-01) (47, 6.51213467121124267578e-01) (48, 1.74155938625335693359e+00) (49, 2.35973238945007324219e-01) (50, 1.45382255315780639648e-01) (51, 6.02336466312408447266e-01) (52, 9.03718844056129455566e-02) (53, 4.72985446453094482422e-01) (54, -2.04709634184837341309e-01) (55, 3.93209189176559448242e-01) (56, 2.74175673723220825195e-01) (57, -5.33234626054763793945e-02) (58, -7.43977949023246765137e-02) (59, 2.13757932186126708984e-01) (60, -9.70710515975952148438e-02) (61, 2.10585430264472961426e-01) (62, -3.23678940534591674805e-01) (63, 2.99585163593292236328e-02) (64, 5.72795510292053222656e-01) (65, 4.23895299434661865234e-01) (66, 1.47505238652229309082e-01) (67, -2.53849923610687255859e-01) (68, 4.38159629702568054199e-02) (69, 2.57964909076690673828e-01) (70, 6.04431867599487304688e-01) (71, 4.62175309658050537109e-01) (72, -3.21795225143432617188e-01) (73, 2.51215606927871704102e-01) (74, 2.60324984788894653320e-01) (75, 4.02910470962524414062e-01) (76, 5.72585523128509521484e-01) (77, 9.05295848846435546875e-01) (78, 6.35249614715576171875e-01) (79, -3.77026528120040893555e-01) (80, -6.34176731109619140625e-02) (81, 2.63912260532379150391e-01) (82, -1.85710608959197998047e-01) (83, 3.34229469299316406250e-01) (84, 3.75043779611587524414e-01) (85, 5.18751025199890136719e-01) (86, 3.26336652040481567383e-01) (87, -4.31552343070507049561e-02) (88, 3.55787903070449829102e-01) (89, 3.57317507266998291016e-01) (90, -1.08054712414741516113e-01) (91, 2.90504917502403259277e-02) (92, 8.29194635152816772461e-02) (93, 2.72994846105575561523e-01) (94, 8.82507383823394775391e-01) (95, -1.54980584979057312012e-01) (96, 3.79609286785125732422e-01) (26, 3.82048264145851135254e-02) (27, 5.96465468406677246094e-01) (28, 8.77078056335449218750e-01) (29, 1.91354468464851379395e-01) (30, 6.62221848964691162109e-01) (31, -4.87960547208786010742e-01) (32, 5.89434444904327392578e-01) (33, -8.37742630392313003540e-03) (34, 4.56435710191726684570e-01) (35, -6.62387371063232421875e-01) (36, 4.42679435014724731445e-01) (37, -3.14315646886825561523e-01) (38, -1.23808287084102630615e-01) (39, 1.77666336297988891602e-01) (40, -2.70596802234649658203e-01) (41, -1.84898301959037780762e-01) (42, -1.44905015826225280762e-01) (43, -2.88867056369781494141e-01) (44, 4.43275034427642822266e-01) (45, 6.68486654758453369141e-01) (46, -1.61393716931343078613e-01) (47, 1.37942159175872802734e+00) (48, 5.84141612052917480469e-01) (49, 4.18220758438110351562e-01) (50, 1.91227659583091735840e-01) (51, 6.43788576126098632812e-01) (52, -4.17875409126281738281e-01) (53, 2.34933376312255859375e-01) (54, 4.55741509795188903809e-02) (55, 4.41370248794555664062e-01) (56, -2.34340086579322814941e-01) (57, 4.32408880442380905151e-03) (58, -1.59615263342857360840e-01) (59, 1.17300778627395629883e-01) (60, -2.11186721920967102051e-01) (61, 1.96360066533088684082e-01) (62, -1.57878249883651733398e-01) (63, 1.47622272372245788574e-01) (64, 8.04258823394775390625e-01) (65, 3.38726699352264404297e-01) (66, 4.98374760150909423828e-01) (67, -2.28448361158370971680e-01) (68, 3.24859395623207092285e-02) (69, 3.70131522417068481445e-01) (70, 6.76143407821655273438e-01) (71, 4.87990111112594604492e-01) (72, 3.22627782821655273438e-01) (73, 1.96250632405281066895e-01) (74, -1.38664269447326660156e+00) (75, 5.00426113605499267578e-01) (76, 7.96574294567108154297e-01) (77, -4.02454227209091186523e-01) (78, -4.55310493707656860352e-01) (79, -3.19944709539413452148e-01) (80, 1.27386793494224548340e-01) (81, 1.27009063959121704102e-01) (82, 2.14918345212936401367e-01) (83, -3.77154678106307983398e-01) (84, 3.99322986602783203125e-01) (85, 9.76548671722412109375e-01) (86, 4.62095052003860473633e-01) (87, -6.63143098354339599609e-02) (88, 4.50317919254302978516e-01) (89, 5.01289129257202148438e-01) (90, -1.00620612502098083496e-01) (91, 1.20426908135414123535e-01) (92, -4.06235992908477783203e-01) (93, 2.18444481492042541504e-01) (94, -9.25810411572456359863e-02) (95, 6.95506453514099121094e-01) (96, 3.89349371194839477539e-01) (26, -1.28052026033401489258e-01) (27, 1.05135001242160797119e-01) (28, -1.20169289410114288330e-01) (29, -1.49830713868141174316e-01) (30, 5.94892978668212890625e-01) (31, -2.84330844879150390625e-01) (32, 7.29865908622741699219e-01) (33, -5.22898957133293151855e-02) (34, 4.31833565235137939453e-01) (35, 2.08289191126823425293e-01) (36, 1.13008534908294677734e+00) (37, -2.54188716411590576172e-01) (38, -1.57275289297103881836e-01) (39, 1.17600679397583007812e-01) (40, -3.03337961435317993164e-01) (41, -1.34572520852088928223e-01) (42, 6.68503820896148681641e-01) (43, -2.94517457485198974609e-01) (44, 4.70071196556091308594e-01) (45, 7.41599425673484802246e-02) (46, -1.25683527439832687378e-02) (47, 1.06662797927856445312e+00) (48, 7.60010927915573120117e-02) (49, 1.13854861259460449219e+00) (50, -1.22882574796676635742e-01) (51, 5.86829721927642822266e-01) (52, -1.54016107320785522461e-01) (53, 3.86485941708087921143e-02) (54, -4.03595805168151855469e-01) (55, -2.44845479726791381836e-01) (56, 4.85254704952239990234e-01) (57, 3.04193049669265747070e-01) (58, -4.82765465974807739258e-01) (59, 1.81148663163185119629e-01) (60, -1.63519963622093200684e-01) (61, 3.35784077644348144531e-01) (62, -8.46405744552612304688e-01) (63, 2.46985644102096557617e-01) (64, 6.11440062522888183594e-01) (65, 4.89366412162780761719e-01) (66, 1.90575882792472839355e-01) (67, -2.80955761671066284180e-01) (68, -8.81937667727470397949e-02) (69, 3.85550320148468017578e-01) (70, 7.51303195953369140625e-01) (71, 4.36548084020614624023e-01) (72, -2.95821815729141235352e-01) (73, -2.78689451515674591064e-02) (74, 8.24501633644104003906e-01) (75, 3.41930150985717773438e-01) (76, 1.01253688335418701172e+00) (77, -4.12639141082763671875e-01) (78, 1.26777601242065429688e+00) (79, -2.70841300487518310547e-01) (80, 3.00382971763610839844e-01) (81, 4.75850105285644531250e-01) (82, 4.14392262697219848633e-01) (83, -3.60325574874877929688e-01) (84, 4.25073683261871337891e-01) (85, 1.45421981811523437500e-01) (86, 5.02113521099090576172e-01) (87, -1.02646574378013610840e-01) (88, 3.70516449213027954102e-01) (89, 7.16842114925384521484e-01) (90, -1.94584369659423828125e-01) (91, 9.61873605847358703613e-02) (92, -3.65365564823150634766e-01) (93, 4.74522829055786132812e-01) (94, 7.63233482837677001953e-01) (95, 5.32287061214447021484e-01) (96, 4.38205569982528686523e-01) (26, 7.00709998607635498047e-01) (27, 3.13030749559402465820e-01) (28, 7.91220068931579589844e-01) (29, -1.34524226188659667969e-01) (30, 5.99105417728424072266e-01) (31, 1.98960870504379272461e-01) (32, 6.03591144084930419922e-01) (33, -3.74716699123382568359e-01) (34, 5.08189737796783447266e-01) (35, -1.22882139682769775391e+00) (36, 8.19272220134735107422e-01) (37, -1.96955680847167968750e-01) (38, 5.08172750473022460938e-01) (39, 1.13315694034099578857e-01) (40, -2.44970127940177917480e-01) (41, -7.16425627470016479492e-02) (42, 8.71703803539276123047e-01) (43, 2.29732006788253784180e-01) (44, 3.35916638374328613281e-01) (45, 4.85589712858200073242e-01) (46, -9.38232913613319396973e-02) (47, 8.44368517398834228516e-01) (48, 5.46932399272918701172e-01) (49, 8.24711263179779052734e-01) (50, 1.04730658233165740967e-01) (51, 6.26619219779968261719e-01) (52, -1.22351050376892089844e-01) (53, -1.79030656814575195312e-01) (54, -3.61677616834640502930e-01) (55, -2.36713275313377380371e-01) (56, 4.92836624383926391602e-01) (57, -4.91840481758117675781e-01) (58, -3.41214716434478759766e-01) (59, 2.81603424809873104095e-05) (60, 4.20627817511558532715e-02) (61, 4.48684066534042358398e-01) (62, -3.07843744754791259766e-01) (63, 8.06190490722656250000e-01) (64, 5.77790856361389160156e-01) (65, -2.11889445781707763672e-01) (66, 5.60651957988739013672e-01) (67, -2.29011416435241699219e-01) (68, -1.69122889637947082520e-01) (69, 5.21909773349761962891e-01) (70, -9.69364792108535766602e-02) (71, 3.89775872230529785156e-01) (72, -2.94204145669937133789e-01) (73, 4.21950191259384155273e-01) (74, 4.88289177417755126953e-01) (75, 4.79103952646255493164e-01) (76, 5.20011365413665771484e-01) (77, 6.78806900978088378906e-01) (78, -3.56473866850137710571e-03) (79, -3.00157308578491210938e-01) (80, 3.60705137252807617188e-01) (81, 4.13921117782592773438e-01) (82, 3.73122274875640869141e-01) (83, -3.05230349302291870117e-01) (84, 5.24110853672027587891e-01) (85, 2.97997742891311645508e-01) (86, 1.51457533240318298340e-01) (87, -4.06240522861480712891e-02) (88, 5.04907250404357910156e-01) (89, 4.42905873060226440430e-01) (90, -1.51114404201507568359e-01) (91, 1.20397157967090606689e-01) (92, -3.06316167116165161133e-01) (93, 8.04690085351467132568e-03) (94, 9.28822994232177734375e-01) (95, 7.58809566497802734375e-01) (96, 3.90002936124801635742e-01) (26, -1.48573353886604309082e-01) (27, 1.41070574522018432617e-01) (28, 1.16364681720733642578e+00) (29, 1.02769909426569938660e-02) (30, 9.09361779689788818359e-01) (31, -1.16189934313297271729e-01) (32, 1.67085751891136169434e-01) (33, -1.39324953779578208923e-02) (34, 3.97903800010681152344e-01) (35, 2.11728349328041076660e-01) (36, 3.61226320266723632812e-01) (37, 2.48640514910221099854e-02) (38, 1.41447678208351135254e-01) (39, 5.44652119278907775879e-02) (40, -9.44442451000213623047e-02) (41, -1.63158830255270004272e-02) (42, 1.28069758415222167969e+00) (43, -1.90244808793067932129e-01) (44, -4.26813453435897827148e-01) (45, 7.78637886047363281250e-01) (46, -2.88813281804323196411e-02) (47, 6.50326013565063476562e-02) (48, -2.42824062705039978027e-01) (49, 3.42454425990581512451e-02) (50, 8.69157388806343078613e-02) (51, 6.10818862915039062500e-01) (52, 2.11108312010765075684e-01) (53, 1.41778841614723205566e-01) (54, -1.94598823785781860352e-01) (55, 1.91603735089302062988e-01) (56, -2.21569836139678955078e-01) (57, 3.01426023244857788086e-01) (58, -6.44873678684234619141e-02) (59, 1.40072256326675415039e-02) (60, -9.91201326251029968262e-02) (61, -3.69638353586196899414e-01) (62, -9.55962836742401123047e-02) (63, -1.65523633360862731934e-01) (64, 8.66799242794513702393e-03) (65, -2.37652018666267395020e-01) (66, 4.55082692205905914307e-02) (67, -8.83878022432327270508e-03) (68, 6.88635483384132385254e-02) (69, 4.42626774311065673828e-01) (70, 6.42358839511871337891e-01) (71, 3.86714637279510498047e-01) (72, 3.57452183961868286133e-01) (73, -2.30734065175056457520e-01) (74, -6.59720778465270996094e-01) (75, 4.53080266714096069336e-01) (76, 4.97247338294982910156e-01) (77, -4.80825930833816528320e-01) (78, 1.09004175662994384766e+00) (79, -4.57109548151493072510e-02) (80, 3.69015485048294067383e-01) (81, 3.87648642063140869141e-01) (82, 1.01566590368747711182e-01) (83, 3.25218945741653442383e-01) (84, 3.53673547506332397461e-01) (85, 1.18099594116210937500e+00) (86, 9.50302928686141967773e-02) (87, 4.99195605516433715820e-02) (88, 3.79276990890502929688e-01) (89, 2.53781735897064208984e-01) (90, -2.30533443391323089600e-02) (91, -3.77411395311355590820e-02) (92, 3.67783335968852043152e-03) (93, 6.62768781185150146484e-02) (94, 1.47299897670745849609e+00) (95, 5.64945876598358154297e-01) (96, 3.12813669443130493164e-01) (26, -2.39866495132446289062e-01) (27, 6.23123645782470703125e-01) (28, 2.89989143610000610352e-01) (29, 4.44251388311386108398e-01) (30, 4.28064763545989990234e-01) (31, 4.07553195953369140625e-01) (32, -8.43654572963714599609e-01) (33, -2.89041846990585327148e-01) (34, 5.73180079460144042969e-01) (35, -8.08866396546363830566e-02) (36, 1.14901982247829437256e-01) (37, -2.75396294891834259033e-02) (38, -6.85689598321914672852e-02) (39, 2.60892599821090698242e-01) (40, 4.74754869937896728516e-01) (41, -2.80407890677452087402e-02) (42, 1.28889369964599609375e+00) (43, -4.21994226053357124329e-03) (44, -1.24426335096359252930e-01) (45, 1.82234957814216613770e-01) (46, -6.29628449678421020508e-02) (47, 4.05612550675868988037e-02) (48, -6.09280705451965332031e-01) (49, 2.41931900382041931152e-01) (50, 1.05857707560062408447e-01) (51, 3.18058371543884277344e-01) (52, -3.58779728412628173828e-01) (53, 1.09872318804264068604e-01) (54, -1.78819764405488967896e-02) (55, 2.26688578724861145020e-01) (56, 6.69753849506378173828e-01) (57, -2.13552072644233703613e-01) (58, -1.27610668540000915527e-01) (59, -1.66222881525754928589e-02) (60, -1.02892793715000152588e-01) (61, -2.50634700059890747070e-01) (62, -8.77260416746139526367e-02) (63, 1.17536462843418121338e-01) (64, 4.93351459503173828125e-01) (65, -5.85528612136840820312e-02) (66, 3.40629592537879943848e-02) (67, -2.38754972815513610840e-01) (68, 5.42308725416660308838e-02) (69, -4.21376466751098632812e-01) (70, 3.22172790765762329102e-01) (71, -1.19049116969108581543e-01) (72, -9.58586633205413818359e-02) (73, -3.48875410854816436768e-02) (74, 2.10962370038032531738e-01) (75, 2.53014005720615386963e-02) (76, 1.07447274029254913330e-01) (77, 1.16912424564361572266e+00) (78, 3.08006018400192260742e-01) (79, -6.04528725147247314453e-01) (80, 8.22519600391387939453e-01) (81, -3.42850774526596069336e-01) (82, -5.71230286732316017151e-03) (83, -1.16116553544998168945e-01) (84, -1.23772792518138885498e-01) (85, 1.11931793391704559326e-01) (86, -1.71161070466041564941e-02) (87, 1.23266661539673805237e-02) (88, 4.35979902744293212891e-01) (89, 3.16390186548233032227e-01) (90, -3.17231863737106323242e-02) (91, 1.85968846082687377930e-01) (92, 1.50573223829269409180e-01) (93, -5.41851716116070747375e-03) (94, 5.10444819927215576172e-01) (95, -1.58903867006301879883e-01) (96, 6.69157743453979492188e-01) (26, -2.03487694263458251953e-01) (27, 3.28139454126358032227e-01) (28, 5.74626445770263671875e-01) (29, 3.64580422639846801758e-01) (30, 5.81062257289886474609e-01) (31, -8.34915399551391601562e-01) (32, 7.21029341220855712891e-01) (33, -4.00148600339889526367e-01) (34, 5.19328236579895019531e-01) (35, 5.10415792465209960938e-01) (36, -6.19489431381225585938e-01) (37, -7.05728754401206970215e-02) (38, -4.50517803430557250977e-01) (39, -4.80395436286926269531e-01) (40, -5.20931065082550048828e-01) (41, 6.28033578395843505859e-01) (42, 7.54935085773468017578e-01) (43, -1.14160597324371337891e+00) (44, 4.29195642471313476562e-01) (45, -1.23123025894165039062e+00) (46, -4.28869813680648803711e-01) (47, -6.36939048767089843750e-01) (48, 3.91646116971969604492e-01) (49, 2.17037975788116455078e-01) (50, -5.34816324710845947266e-01) (51, 5.95543682575225830078e-01) (52, 1.75460267066955566406e+00) (53, 6.17285445332527160645e-02) (54, -2.82595813274383544922e-01) (55, 3.87855678796768188477e-01) (56, 5.15927314758300781250e-01) (57, -2.30953454971313476562e-01) (58, 4.85582262277603149414e-01) (59, 1.44041225314140319824e-01) (60, -1.11423164606094360352e-01) (61, 2.93383002281188964844e-02) (62, -7.23314225673675537109e-01) (63, 1.52437433600425720215e-01) (64, 6.63922548294067382812e-01) (65, 5.45198023319244384766e-01) (66, 1.39148831367492675781e-01) (67, -3.29784527420997619629e-02) (68, -3.20165278390049934387e-03) (69, 3.82518738508224487305e-01) (70, 6.40774667263031005859e-01) (71, 4.56059932708740234375e-01) (72, -3.35851818323135375977e-01) (73, 5.47512292861938476562e-01) (74, 4.05711352825164794922e-01) (75, 5.24647355079650878906e-01) (76, 4.45346683263778686523e-01) (77, -1.24382413923740386963e-01) (78, 2.34506785869598388672e-01) (79, -3.03731203079223632812e-01) (80, 2.06758871674537658691e-01) (81, 3.17516803741455078125e-01) (82, -3.63545745611190795898e-01) (83, -6.47059500217437744141e-01) (84, 1.05586898326873779297e+00) (85, -1.01840066909790039062e+00) (86, 4.72576290369033813477e-01) (87, -8.81543662399053573608e-03) (88, 4.90765154361724853516e-01) (89, 4.17337834835052490234e-01) (90, 8.40747058391571044922e-02) (91, 9.13022011518478393555e-02) (92, -1.54380929470062255859e+00) (93, 1.44703820347785949707e-01) (94, 1.02522170543670654297e+00) (95, 5.73373496532440185547e-01) (96, 3.73455822467803955078e-01) (26, -3.37933212518692016602e-01) (27, 6.67995512485504150391e-01) (28, 4.08529996871948242188e-01) (29, -1.74255117774009704590e-01) (30, 6.84009194374084472656e-01) (31, -2.81479001045227050781e-01) (32, 1.03033852577209472656e+00) (33, 1.34722411632537841797e+00) (34, 4.97200191020965576172e-01) (35, 4.33094233274459838867e-01) (36, -4.38565015792846679688e-01) (37, -2.42293447256088256836e-01) (38, -5.02903103828430175781e-01) (39, -7.28713497519493103027e-02) (40, -3.43585200607776641846e-02) (41, -3.51708650588989257812e-01) (42, 4.47440803050994873047e-01) (43, 2.45866012573242187500e+00) (44, 4.55609112977981567383e-01) (45, 6.62561953067779541016e-02) (46, 4.68981474637985229492e-01) (47, 8.23446452617645263672e-01) (48, -2.55858600139617919922e-01) (49, 6.81972861289978027344e-01) (50, 3.32621544599533081055e-01) (51, 5.91057837009429931641e-01) (52, -6.64650678634643554688e-01) (53, 4.54305768013000488281e-01) (54, -3.88748258352279663086e-01) (55, 4.99335944652557373047e-01) (56, 5.28868556022644042969e-01) (57, 3.13327252864837646484e-01) (58, -5.61619639396667480469e-01) (59, 3.64488244056701660156e-01) (60, -3.05260121822357177734e-01) (61, -8.27260851860046386719e-01) (62, 1.03384304046630859375e+00) (63, -3.19721221923828125000e-01) (64, 6.16553962230682373047e-01) (65, 4.33569878339767456055e-01) (66, 4.33961480855941772461e-01) (67, 9.12702858448028564453e-01) (68, 5.00152707099914550781e-01) (69, 3.32980304956436157227e-01) (70, 6.24145209789276123047e-01) (71, 5.37605822086334228516e-01) (72, -3.05478930473327636719e-01) (73, 3.79824966192245483398e-01) (74, -1.80978643894195556641e+00) (75, 4.94579344987869262695e-01) (76, 9.26626682281494140625e-01) (77, 4.65575456619262695312e-01) (78, 1.03915825486183166504e-01) (79, -2.27235123515129089355e-01) (80, 1.57318726181983947754e-01) (81, 8.87018799781799316406e-01) (82, -2.70380169153213500977e-01) (83, -2.29299724102020263672e-01) (84, -2.61965185403823852539e-01) (85, 1.71767747402191162109e+00) (86, -2.27816686034202575684e-01) (87, -8.68305563926696777344e-03) (88, 5.65746665000915527344e-01) (89, -3.64173591136932373047e-01) (90, -2.37195432186126708984e-01) (91, -2.15601265430450439453e-01) (92, 1.36561310291290283203e+00) (93, -5.75468957424163818359e-01) (94, 8.23946535587310791016e-01) (95, 6.57114863395690917969e-01) (96, 4.82948213815689086914e-01) (26, -1.95798146724700927734e+00) (27, 3.85063707828521728516e-01) (28, 8.21917176246643066406e-01) (29, -1.85886934399604797363e-01) (30, 6.18828654289245605469e-01) (31, -3.19840222597122192383e-01) (32, 1.02127112448215484619e-01) (33, -1.27814185619354248047e+00) (34, 4.93451386690139770508e-01) (35, 5.49500584602355957031e-01) (36, -5.44504642486572265625e-01) (37, -6.03421926498413085938e-01) (38, 6.15641057491302490234e-01) (39, 5.99914193153381347656e-02) (40, -1.19545377790927886963e-01) (41, -2.65685677528381347656e-01) (42, 1.52324810624122619629e-01) (43, -2.53841376304626464844e+00) (44, 5.16232073307037353516e-01) (45, -5.58842837810516357422e-01) (46, -2.65416532754898071289e-01) (47, -1.45080044865608215332e-01) (48, -3.95467340946197509766e-01) (49, 4.38255310058593750000e-01) (50, 6.04273080825805664062e-01) (51, 5.66945791244506835938e-01) (52, 3.37854176759719848633e-01) (53, 5.30078113079071044922e-01) (54, -2.25735321640968322754e-01) (55, -3.71745556592941284180e-01) (56, 4.72443073987960815430e-01) (57, 1.33805751800537109375e+00) (58, -2.74677187204360961914e-01) (59, 5.10388970375061035156e-01) (60, -1.80551931262016296387e-01) (61, 1.19044613838195800781e+00) (62, 3.17674219608306884766e-01) (63, 6.84508919715881347656e-01) (64, 7.30367779731750488281e-01) (65, 3.51921111345291137695e-01) (66, 6.82306885719299316406e-01) (67, -3.31093400716781616211e-01) (68, 6.29921495914459228516e-01) (69, 3.40261846780776977539e-01) (70, 6.52915418148040771484e-01) (71, 5.38836717605590820312e-01) (72, 2.25089728832244873047e-01) (73, -1.07946288585662841797e+00) (74, -1.07824790477752685547e+00) (75, 4.00685548782348632812e-01) (76, 5.39100706577301025391e-01) (77, 6.83981955051422119141e-01) (78, 9.62590038776397705078e-01) (79, -6.81582868099212646484e-01) (80, 4.06243830919265747070e-01) (81, 4.27149683237075805664e-01) (82, 3.29397648572921752930e-01) (83, -1.87126889824867248535e-01) (84, 4.74556595087051391602e-01) (85, -2.58933210372924804688e+00) (86, 2.50648528337478637695e-01) (87, -1.49415060877799987793e-01) (88, 5.35809338092803955078e-01) (89, 8.72652947902679443359e-01) (90, -1.00216589868068695068e-01) (91, -9.85150635242462158203e-01) (92, 2.79815971851348876953e-01) (93, 1.06391608715057373047e+00) (94, 6.76760017871856689453e-01) (95, 7.71812081336975097656e-01) (96, 4.10612285137176513672e-01) (26, 3.23868721723556518555e-01) (27, -6.95012629032135009766e-01) (28, 6.48882627487182617188e-01) (29, 9.40960794687271118164e-02) (30, 7.35094428062438964844e-01) (31, -4.21049267053604125977e-01) (32, -9.30682271718978881836e-02) (33, 4.70997363328933715820e-01) (34, 4.70685601234436035156e-01) (35, -2.95247822999954223633e-01) (36, -3.10976564884185791016e-01) (37, -2.05531179904937744141e-01) (38, -4.92494314908981323242e-01) (39, 1.43934518098831176758e-01) (40, -2.97603290528059005737e-02) (41, -1.49863913655281066895e-01) (42, 1.32010245323181152344e+00) (43, -3.08840751647949218750e-01) (44, 4.42237615585327148438e-01) (45, -2.40687593817710876465e-01) (46, -8.18347185850143432617e-02) (47, -2.23735481500625610352e-01) (48, 1.25834298133850097656e+00) (49, 6.29542469978332519531e-02) (50, 5.45592725276947021484e-01) (51, 7.72791922092437744141e-01) (52, 2.45061695575714111328e-01) (53, 4.71160143613815307617e-01) (54, -3.14934611320495605469e-01) (55, 5.50515174865722656250e-01) (56, 5.45853793621063232422e-01) (57, 7.57550835609436035156e-01) (58, -4.15944382548332214355e-02) (59, -4.20346669852733612061e-02) (60, -7.39378016442060470581e-03) (61, 2.41702005267143249512e-01) (62, -1.00160710513591766357e-01) (63, 6.20547413825988769531e-01) (64, 6.54297232627868652344e-01) (65, 4.99463409185409545898e-01) (66, -2.12845746427774429321e-02) (67, -9.81090441346168518066e-02) (68, -3.42881381511688232422e-01) (69, 4.75650817155838012695e-01) (70, 5.71646273136138916016e-01) (71, 4.40571725368499755859e-01) (72, -1.99721530079841613770e-01) (73, 2.62371480464935302734e-01) (74, 1.97891384363174438477e-01) (75, 3.79518985748291015625e-01) (76, 6.58437848091125488281e-01) (77, -1.05602550506591796875e+00) (78, -5.41531562805175781250e-01) (79, -3.59214365482330322266e-01) (80, 9.10520851612091064453e-02) (81, 5.33523738384246826172e-01) (82, -2.36726738512516021729e-02) (83, -3.22205156087875366211e-01) (84, 3.15911203622817993164e-01) (85, -1.24493539333343505859e-01) (86, 2.74713218212127685547e-01) (87, 1.40653597190976142883e-02) (88, 4.50015544891357421875e-01) (89, 1.68674036860466003418e-01) (90, -4.08231616020202636719e-02) (91, 3.43597203493118286133e-01) (92, 6.78879916667938232422e-02) (93, 8.40879455208778381348e-02) (94, 3.69770437479019165039e-01) (95, -1.73584505915641784668e-01) (96, 3.69586557149887084961e-01) (26, -2.70319640636444091797e-01) (27, -3.15733104944229125977e-01) (28, 9.53259289264678955078e-01) (29, -8.59583467245101928711e-02) (30, 7.17506945133209228516e-01) (31, 1.16934418678283691406e+00) (32, 2.12088838219642639160e-01) (33, -2.52185106277465820312e-01) (34, -2.58547186851501464844e-01) (35, -1.27517536282539367676e-01) (36, 3.00442669540643692017e-02) (37, -5.46520531177520751953e-01) (38, -2.75020807981491088867e-01) (39, -2.40918695926666259766e-02) (40, 1.41116797924041748047e+00) (41, -2.01347097754478454590e-01) (42, 6.87377691268920898438e-01) (43, -2.39086881279945373535e-01) (44, 3.92369210720062255859e-01) (45, 2.10089445114135742188e-01) (46, -4.73294317722320556641e-01) (47, 3.51081937551498413086e-01) (48, 5.64291238784790039062e-01) (49, -8.75500068068504333496e-02) (50, 5.49718737602233886719e-01) (51, 6.51764750480651855469e-01) (52, -2.05920666456222534180e-01) (53, 4.18485134840011596680e-01) (54, -3.91170591115951538086e-01) (55, 4.39093053340911865234e-01) (56, 4.76973861455917358398e-01) (57, -1.34707897901535034180e-01) (58, 1.93144418299198150635e-02) (59, 7.79641270637512207031e-02) (60, -1.43754467368125915527e-01) (61, -4.00665909051895141602e-01) (62, 5.67509047687053680420e-02) (63, -2.02467709779739379883e-01) (64, 6.26799464225769042969e-01) (65, 3.12941044569015502930e-01) (66, 3.74652951955795288086e-01) (67, -6.08190931379795074463e-02) (68, -1.35007917881011962891e-01) (69, 4.94944572448730468750e-01) (70, -1.17621839046478271484e-01) (71, 3.42346221208572387695e-01) (72, -1.59409999847412109375e-01) (73, 1.70521084219217300415e-02) (74, 1.57396841049194335938e+00) (75, 3.91669869422912597656e-01) (76, 2.41664290428161621094e-01) (77, 4.73340563476085662842e-02) (78, -2.18415278941392898560e-02) (79, -5.64680159091949462891e-01) (80, 3.12498807907104492188e-01) (81, -2.98977106809616088867e-01) (82, -8.27210173010826110840e-02) (83, -3.28473836183547973633e-01) (84, 3.40014189481735229492e-01) (85, -3.16826790571212768555e-01) (86, 3.05421113967895507812e-01) (87, -3.24716955423355102539e-01) (88, 4.57723855972290039062e-01) (89, 5.71927785873413085938e-01) (90, -8.16475674510002136230e-02) (91, 1.22154064476490020752e-01) (92, 8.69130730628967285156e-01) (93, 1.39792606234550476074e-01) (94, 3.81092548370361328125e-01) (95, 6.67849421501159667969e-01) (96, 3.95346224308013916016e-01) (26, -4.45149302482604980469e-01) (27, 8.29239249229431152344e-01) (28, 9.17965769767761230469e-01) (29, -4.40408170223236083984e-01) (30, 6.31495535373687744141e-01) (31, -1.02738618850708007812e+00) (32, 4.51561659574508666992e-01) (33, -4.81446295976638793945e-01) (34, 4.26946878433227539062e-01) (35, 4.45837289094924926758e-01) (36, -1.86593741178512573242e-01) (37, -2.92220264673233032227e-01) (38, -7.91748940944671630859e-01) (39, 1.20778286457061767578e+00) (40, -6.99826180934906005859e-01) (41, 1.02048110961914062500e+00) (42, 3.11433172225952148438e+00) (43, -2.08042517304420471191e-01) (44, 3.24338078498840332031e-01) (45, -1.45948719978332519531e+00) (46, -4.07071441411972045898e-01) (47, 6.90116047859191894531e-01) (48, -4.52051758766174316406e-01) (49, -6.98341727256774902344e-01) (50, -5.03163993358612060547e-01) (51, 6.19720101356506347656e-01) (52, -1.46537125110626220703e+00) (53, 5.06599068641662597656e-01) (54, -1.56161725521087646484e-01) (55, 4.02630478143692016602e-01) (56, 4.16637241840362548828e-01) (57, -3.64132642745971679688e-01) (58, 1.50109016895294189453e+00) (59, 5.02982854843139648438e-01) (60, 3.41149538755416870117e-01) (61, -1.97079634666442871094e+00) (62, -7.64175578951835632324e-02) (63, 2.61364251375198364258e-01) (64, 5.47948896884918212891e-01) (65, 4.58079040050506591797e-01) (66, 4.77571114897727966309e-02) (67, 1.27374482154846191406e+00) (68, 1.01757325232028961182e-01) (69, 3.95654171705245971680e-01) (70, 7.14429616928100585938e-01) (71, 3.29789489507675170898e-01) (72, -2.59124249219894409180e-01) (73, -2.25457519292831420898e-01) (74, -9.42796170711517333984e-01) (75, 4.34394359588623046875e-01) (76, -7.41118639707565307617e-02) (77, -1.00176297128200531006e-01) (78, -4.92408931255340576172e-01) (79, -5.52573859691619873047e-01) (80, -6.28843903541564941406e-02) (81, 4.98393088579177856445e-01) (82, -1.92558139562606811523e-01) (83, -1.59578368067741394043e-01) (84, 3.98081600666046142578e-01) (85, -8.12128722667694091797e-01) (86, -8.66877555847167968750e-01) (87, -1.98274776339530944824e-01) (88, 2.74656981229782104492e-01) (89, -2.27120563387870788574e-01) (90, 5.05988359451293945312e-01) (91, 1.10629357397556304932e-01) (92, -2.06058883666992187500e+00) (93, 2.01104044914245605469e-01) (94, 2.01677894592285156250e+00) (95, 6.34642362594604492188e-01) (96, 4.13697570562362670898e-01) (26, -2.71675556898117065430e-01) (27, 2.13391870260238647461e-01) (28, 8.11197876930236816406e-01) (29, -2.34550982713699340820e-02) (30, 5.58284401893615722656e-01) (31, 2.36794695258140563965e-01) (32, 2.73477172851562500000e+00) (33, 6.05800271034240722656e-01) (34, 4.04230952262878417969e-01) (35, 4.70851957798004150391e-01) (36, -1.27503108978271484375e+00) (37, 2.25638002157211303711e-01) (38, 3.30024629831314086914e-01) (39, 1.83857071399688720703e+00) (40, -3.78700226545333862305e-01) (41, -7.80964553356170654297e-01) (42, 1.69153064489364624023e-02) (43, -5.06449460983276367188e-01) (44, 3.97916078567504882812e-01) (45, -1.31699061021208763123e-02) (46, 5.39091050624847412109e-01) (47, 8.62765073776245117188e-01) (48, -1.43833005428314208984e+00) (49, -1.09123361110687255859e+00) (50, 5.56589439511299133301e-02) (51, 6.09503209590911865234e-01) (52, 2.96859407424926757812e+00) (53, 1.11967813968658447266e+00) (54, -3.08928370475769042969e-01) (55, 2.84476995468139648438e-01) (56, 4.16743367910385131836e-01) (57, 1.05539381504058837891e+00) (58, -1.26378977298736572266e+00) (59, -7.98123002052307128906e-01) (60, -7.29714930057525634766e-02) (61, 8.77416282892227172852e-02) (62, -1.77927303314208984375e+00) (63, 1.88116586208343505859e+00) (64, 5.70011436939239501953e-01) (65, 3.83293598890304565430e-01) (66, 3.91923815011978149414e-01) (67, 1.87712073326110839844e-01) (68, 2.34038543701171875000e+00) (69, 9.05866771936416625977e-02) (70, 6.44282281398773193359e-01) (71, 4.05889153480529785156e-01) (72, 1.91129624843597412109e-01) (73, -6.73447698354721069336e-02) (74, -3.87245744466781616211e-01) (75, 3.31036329269409179688e-01) (76, 7.22447633743286132812e-01) (77, 1.58926773071289062500e+00) (78, -9.05982315540313720703e-01) (79, 9.60653662681579589844e-01) (80, 1.10158848762512207031e+00) (81, 4.36531484127044677734e-01) (82, -2.58419036865234375000e-01) (83, -1.70490294694900512695e-01) (84, -6.02392673492431640625e-01) (85, -3.17581325769424438477e-01) (86, 1.52843696996569633484e-02) (87, -3.88311952352523803711e-01) (88, 3.82950812578201293945e-01) (89, 1.08890068531036376953e+00) (90, -3.76409918069839477539e-01) (91, 1.12802708148956298828e+00) (92, 2.05356740951538085938e+00) (93, -9.17616903781890869141e-01) (94, 6.26054823398590087891e-01) (95, 5.89692056179046630859e-01) (96, 4.12673681974411010742e-01) (26, -1.65742859244346618652e-01) (27, 3.71829599142074584961e-01) (28, 6.22543096542358398438e-01) (29, 2.41191126406192779541e-02) (30, 7.45949983596801757812e-01) (31, 2.95986920595169067383e-01) (32, 1.27779319882392883301e-01) (33, 1.11245560646057128906e+00) (34, 3.48272830247879028320e-01) (35, 1.09739279747009277344e+00) (36, -6.04754388332366943359e-01) (37, -1.92423447966575622559e-01) (38, 8.59360754489898681641e-01) (39, 2.67439633607864379883e-01) (40, -1.61567479372024536133e-01) (41, -8.48561897873878479004e-02) (42, 5.31669437885284423828e-01) (43, -3.56241166591644287109e-01) (44, 5.30000329017639160156e-01) (45, -9.28611218929290771484e-01) (46, -8.14266562461853027344e-01) (47, 5.88665723800659179688e-01) (48, 1.79404282569885253906e+00) (49, 7.93752491474151611328e-01) (50, 1.28495264053344726562e+00) (51, 7.74737715721130371094e-01) (52, 3.20653796195983886719e-01) (53, 1.98493793606758117676e-01) (54, -1.93997487425804138184e-01) (55, -4.60297584533691406250e-01) (56, 4.43095773458480834961e-01) (57, -1.13709914684295654297e+00) (58, 1.94825753569602966309e-01) (59, 8.08311641216278076172e-01) (60, -1.90922722220420837402e-01) (61, 1.57801532745361328125e+00) (62, 2.06122684478759765625e+00) (63, -2.13454675674438476562e+00) (64, 1.17539763450622558594e+00) (65, 5.30906200408935546875e-01) (66, 4.15938735008239746094e-01) (67, -3.95562827587127685547e-01) (68, 6.31251558661460876465e-02) (69, 3.79058301448822021484e-01) (70, 6.35615706443786621094e-01) (71, 3.75299930572509765625e-01) (72, -1.67784065008163452148e-01) (73, 2.52489387989044189453e-01) (74, 4.15435409545898437500e+00) (75, 4.92220550775527954102e-01) (76, 7.19593346118927001953e-01) (77, -1.45684528350830078125e+00) (78, -1.45793050527572631836e-01) (79, -1.87108054757118225098e-01) (80, 3.90111112594604492188e+00) (81, 6.41994953155517578125e-01) (82, -8.70725214481353759766e-01) (83, -2.33256563544273376465e-01) (84, 3.37509751319885253906e-01) (85, 2.21447542309761047363e-01) (86, 4.93724942207336425781e-01) (87, -1.71492442488670349121e-01) (88, 5.52774369716644287109e-01) (89, 5.90517282485961914062e-01) (90, -4.03607562184333801270e-02) (91, -1.89678680896759033203e+00) (92, -3.15236374735832214355e-02) (93, 1.63019216060638427734e+00) (94, -1.01402252912521362305e-01) (95, 7.25254476070404052734e-01) (96, 4.85034614801406860352e-01) (26, -3.49565088748931884766e-01) (27, 7.87928178906440734863e-02) (28, 2.69329231232404708862e-02) (29, 3.72191816568374633789e-01) (30, 1.54982671141624450684e-01) (31, 2.21563830971717834473e-01) (32, -3.16504359245300292969e-01) (33, -2.09969267249107360840e-01) (34, 3.15858632326126098633e-01) (35, 2.76592075824737548828e-01) (36, 3.46407145261764526367e-01) (37, -1.81518316268920898438e-01) (38, -1.14955693483352661133e-01) (39, 1.59566238522529602051e-01) (40, 2.67233643680810928345e-02) (41, -8.20408165454864501953e-02) (42, 2.54300832748413085938e-01) (43, -4.04838263988494873047e-01) (44, 2.03437209129333496094e-01) (45, 8.55369344353675842285e-02) (46, -2.71236151456832885742e-01) (47, 4.29116725921630859375e-01) (48, 1.21298527717590332031e+00) (49, 1.23375877737998962402e-01) (50, 4.76384729146957397461e-01) (51, -5.53116984665393829346e-02) (52, 2.16761261224746704102e-01) (53, -1.75353419035673141479e-02) (54, -5.38883060216903686523e-02) (55, 